,0,1,2,3,4,5,6,7,8,9,00,01,02,03,04,05,06,07,08,09,10,11,12,13,14,15,16,17,18,19,20,21,22,23,24,25,26,27,28,29,30,31,32,33,34,35,36,37,38,39,40,41,42,43,44,45,46,47,48,49,50,51,52,53,54,55,56,57,58,59,60,61,62,63,64,65,66,67,68,69,70,71,72,73,74,75,76,77,78,79,80,81,82,83,84,85,86,87,88,89,90,91,92,93,94,95,96,97,98,99,000,001,002,003,004,005,006,007,008,009,010,011,012,013,014,015,016,017,018,019,020,021,022,023,024,025,026,027,028,029,030,031,032,033,034,035,036,037,038,039,040,041,042,043,044,045,046,047,048,049,050,051,052,053,054,055,056,057,058,059,060,061,062,063,064,065,066,067,068,069,070,071,072,073,074,075,076,077,078,079,080,081,082,083,084,085,086,087,088,089,090,091,092,093,094,095,096,097,098,099,100,101,102,103,104,105,106,107,108,109,110,111,112,113,114,115,116,117,118,119,120,121,122,123,124,125,126,127,128,129,130,131,132,133,134,135,136,137,138,139,140,141,142,143,144,145,146,147,148,149,150,151,152,153,154,155,156,157,158,159,160,161,162,163,164,165,166,167,168,169,170,171,172,173,174,175,176,177,178,179,180,181,182,183,184,185,186,187,188,189,190,191,192,193,194,195,196,197,198,199,200,201,202,203,204,205,206,207,208,209,210,211,212,213,214,215,216,217,218,219,220,221,222,223,224,225,226,227,228,229,230,231,232,233,234,235,236,237,238,239,240,241,242,243,244,245,246,247,248,249,250,251,252,253,254,255,256,257,258,259,260,261,262,263,264,265,266,267,268,269,270,271,272,273,274,275,276,277,278,279,280,281,282,283,284,285,286,287,288,289,290,291,292,293,294,295,296,297,298,299,300,301,302,303,304,305,306,307,308,309,310,311,312,313,314,315,316,317,318,319,320,321,322,323,324,325,326,327,328,329,330,331,332,333,334,335,336,337,338,339,340,341,342,343,344,345,346,347,348,349,350,351,352,353,354,355,356,357,358,359,360,361,362,363,364,365,366,367,368,369,370,371,372,373,374,375,376,377,378,379,380,381,382,383,384,385,386,387,388,389,390,391,392,393,394,395,396,397,398,399,400,401,402,403,404,405,406,407,408,409,410,411,412,413,414,415,416,417,418,419,420,421,422,423,424,425,426,427,428,429,430,431,432,433,434,435,436,437,438,439,440,441,442,443,444,445,446,447,448,449,450,451,452,453,454,455,456,457,458,459,460,461,462,463,464,465,466,467,468,469,470,471,472,473,474,475,476,477,478,479,480,481,482,483,484,485,486,487,488,489,490,491,492,493,494,495,496,497,498,499,500,501,502,503,504,505,506,507,508,509,510,511,512,513,514,515,516,517,518,519,520,521,522,523,524,525,526,527,528,529,530,531,532,533,534,535,536,537,538,539,540,541,542,543,544,545,546,547,548,549,550,551,552,553,554,555,556,557,558,559,560,561,562,563,564,565,566,567,568,569,570,571,572,573,574,575,576,577,578,579,580,581,582,583,584,585,586,587,588,589,590,591,592,593,594,595,596,597,598,599,600,601,602,603,604,605,606,607,608,609,610,611,612,613,614,615,616,617,618,619,620,621,622,623,624,625,626,627,628,629,630,631,632,633,634,635,636,637,638,639,640,641,642,643,644,645,646,647,648,649,650,651,652,653,654,655,656,657,658,659,660,661,662,663,664,665,666,667,668,669,670,671,672,673,674,675,676,677,678,679,680,681,682,683,684,685,686,687,688,689,690,691,692,693,694,695,696,697,698,699,700,701,702,703,704,705,706,707,708,709,710,711,712,713,714,715,716,717,718,719,720,721,722,723,724,725,726,727,728,729,730,731,732,733,734,735,736,737,738,739,740,741,742,743,744,745,746,747,748,749,750,751,752,753,754,755,756,757,758,759,760,761,762,763,764,765,766,767,768,769,770,771,772,773,774,775,776,777,778,779,780,781,782,783,784,785,786,787,788,789,790,791,792,793,794,795,796,797,798,799,800,801,802,803,804,805,806,807,808,809,810,811,812,813,814,815,816,817,818,819,820,821,822,823,824,825,826,827,828,829,830,831,832,833,834,835,836,837,838,839,840,841,842,843,844,845,846,847,848,849,850,851,852,853,854,855,856,857,858,859,860,861,862,863,864,865,866,867,868,869,870,871,872,873,874,875,876,877,878,879,880,881,882,883,884,885,886,887,888,889,890,891,892,893,894,895,896,897,898,899,900,901,902,903,904,905,906,907,908,909,910,911,912,913,914,915,916,917,918,919,920,921,922,923,924,925,926,927,928,929,930,931,932,933,934,935,936,937,938,939,940,941,942,943,944,945,946,947,948,949,950,951,952,953,954,955,956,957,958,959,960,961,962,963,964,965,966,967,968,969,970,971,972,973,974,975,976,977,978,979,980,981,982,983,984,985,986,987,988,989,990,991,992,993,994,995,996,997,998,999
elephant,-0.08203125,-0.09277344,-0.08984375,-0.08203125,-0.07910156,-0.07519531,-0.072265625,-0.068359375,-0.06738281,-0.06640625,-0.08203125,-0.087402344,-0.0859375,-0.08203125,-0.080566406,-0.07861328,-0.07714844,-0.07519531,-0.07470703,-0.07421875,-0.087402344,-0.09277344,-0.091308594,-0.087402344,-0.0859375,-0.083984375,-0.08251953,-0.080566406,-0.080078125,-0.079589844,-0.0859375,-0.091308594,-0.08984375,-0.0859375,-0.084472656,-0.08251953,-0.08105469,-0.07910156,-0.078125,-0.078125,-0.08203125,-0.087402344,-0.0859375,-0.08203125,-0.080566406,-0.07861328,-0.07714844,-0.07519531,-0.07421875,-0.07421875,-0.080566406,-0.0859375,-0.084472656,-0.080566406,-0.07910156,-0.07714844,-0.075683594,-0.07373047,-0.07324219,-0.072753906,-0.07861328,-0.083984375,-0.08251953,-0.07861328,-0.07714844,-0.07519531,-0.07373047,-0.071777344,-0.07128906,-0.07080078,-0.07714844,-0.08251953,-0.08105469,-0.07714844,-0.075683594,-0.07373047,-0.072265625,-0.0703125,-0.06982422,-0.06933594,-0.07519531,-0.080566406,-0.07910156,-0.07519531,-0.07373047,-0.071777344,-0.0703125,-0.068359375,-0.067871094,-0.06738281,-0.07470703,-0.080078125,-0.078125,-0.07421875,-0.07324219,-0.07128906,-0.06982422,-0.067871094,-0.06738281,-0.06689453,-0.07421875,-0.079589844,-0.078125,-0.07421875,-0.072753906,-0.07080078,-0.06933594,-0.06738281,-0.06689453,-0.06640625,-0.08203125,-0.0859375,-0.084472656,-0.08203125,-0.08105469,-0.080078125,-0.07861328,-0.07763672,-0.07714844,-0.076660156,-0.0859375,-0.08935547,-0.088378906,-0.08544922,-0.08496094,-0.083496094,-0.08251953,-0.08105469,-0.080566406,-0.080566406,-0.084472656,-0.088378906,-0.08691406,-0.084472656,-0.083496094,-0.08251953,-0.08105469,-0.080078125,-0.079589844,-0.07910156,-0.08203125,-0.08544922,-0.084472656,-0.08203125,-0.08105469,-0.079589844,-0.07861328,-0.07714844,-0.07714844,-0.076660156,-0.08105469,-0.08496094,-0.083496094,-0.08105469,-0.080078125,-0.07910156,-0.07763672,-0.076660156,-0.076171875,-0.075683594,-0.080078125,-0.083496094,-0.08251953,-0.079589844,-0.07910156,-0.07763672,-0.076660156,-0.07519531,-0.07470703,-0.07470703,-0.07861328,-0.08251953,-0.08105469,-0.07861328,-0.07763672,-0.076660156,-0.07519531,-0.07421875,-0.07373047,-0.07373047,-0.07763672,-0.08105469,-0.080078125,-0.07714844,-0.076660156,-0.07519531,-0.07421875,-0.072753906,-0.072265625,-0.072265625,-0.07714844,-0.080566406,-0.079589844,-0.07714844,-0.076171875,-0.07470703,-0.07373047,-0.072265625,-0.072265625,-0.071777344,-0.076660156,-0.080566406,-0.07910156,-0.076660156,-0.075683594,-0.07470703,-0.07373047,-0.072265625,-0.071777344,-0.071777344,-0.0859375,-0.08935547,-0.088378906,-0.08544922,-0.08496094,-0.083496094,-0.08251953,-0.08105469,-0.080566406,-0.080566406,-0.08935547,-0.09277344,-0.091796875,-0.08935547,-0.088378906,-0.08691406,-0.0859375,-0.08496094,-0.084472656,-0.083984375,-0.088378906,-0.091796875,-0.09082031,-0.087890625,-0.087402344,-0.0859375,-0.08496094,-0.083496094,-0.08300781,-0.08300781,-0.08544922,-0.08935547,-0.087890625,-0.08544922,-0.084472656,-0.083496094,-0.08251953,-0.08105469,-0.080566406,-0.080566406,-0.08496094,-0.088378906,-0.087402344,-0.084472656,-0.083984375,-0.08251953,-0.08154297,-0.080078125,-0.079589844,-0.079589844,-0.083496094,-0.08691406,-0.0859375,-0.083496094,-0.08251953,-0.08105469,-0.080078125,-0.07910156,-0.07861328,-0.078125,-0.08251953,-0.0859375,-0.08496094,-0.08251953,-0.08154297,-0.080078125,-0.07910156,-0.07763672,-0.07763672,-0.07714844,-0.08105469,-0.08496094,-0.083496094,-0.08105469,-0.080078125,-0.07910156,-0.07763672,-0.076660156,-0.076171875,-0.076171875,-0.080566406,-0.084472656,-0.08300781,-0.080566406,-0.079589844,-0.07861328,-0.07763672,-0.076171875,-0.075683594,-0.075683594,-0.080566406,-0.083984375,-0.08300781,-0.080566406,-0.079589844,-0.078125,-0.07714844,-0.076171875,-0.075683594,-0.07519531,-0.084472656,-0.088378906,-0.08691406,-0.084472656,-0.083496094,-0.08251953,-0.08105469,-0.080078125,-0.079589844,-0.07910156,-0.088378906,-0.091796875,-0.09082031,-0.087890625,-0.087402344,-0.0859375,-0.08496094,-0.083496094,-0.08300781,-0.08300781,-0.08691406,-0.09082031,-0.08984375,-0.08691406,-0.0859375,-0.08496094,-0.083984375,-0.08251953,-0.08203125,-0.08203125,-0.084472656,-0.087890625,-0.08691406,-0.084472656,-0.083496094,-0.08203125,-0.08105469,-0.080078125,-0.079589844,-0.07910156,-0.083496094,-0.087402344,-0.0859375,-0.083496094,-0.08251953,-0.08154297,-0.080078125,-0.07910156,-0.07861328,-0.078125,-0.08251953,-0.0859375,-0.08496094,-0.08203125,-0.08154297,-0.080078125,-0.07910156,-0.07763672,-0.07714844,-0.07714844,-0.08105469,-0.08496094,-0.083984375,-0.08105469,-0.080078125,-0.07910156,-0.078125,-0.076660156,-0.076171875,-0.076171875,-0.080078125,-0.083496094,-0.08251953,-0.080078125,-0.07910156,-0.07763672,-0.076660156,-0.07519531,-0.07519531,-0.07470703,-0.079589844,-0.08300781,-0.08203125,-0.079589844,-0.07861328,-0.07714844,-0.076171875,-0.07519531,-0.07470703,-0.07421875,-0.07910156,-0.08300781,-0.08203125,-0.07910156,-0.078125,-0.07714844,-0.076171875,-0.07470703,-0.07421875,-0.07421875,-0.08203125,-0.08544922,-0.084472656,-0.08203125,-0.08105469,-0.079589844,-0.07861328,-0.07714844,-0.07714844,-0.076660156,-0.08544922,-0.08935547,-0.087890625,-0.08544922,-0.084472656,-0.083496094,-0.08251953,-0.08105469,-0.080566406,-0.080566406,-0.084472656,-0.087890625,-0.08691406,-0.084472656,-0.083496094,-0.08203125,-0.08105469,-0.080078125,-0.079589844,-0.07910156,-0.08203125,-0.08544922,-0.084472656,-0.08203125,-0.08105469,-0.079589844,-0.07861328,-0.07714844,-0.07714844,-0.076660156,-0.08105469,-0.084472656,-0.083496094,-0.08105469,-0.080078125,-0.07861328,-0.07763672,-0.076171875,-0.076171875,-0.075683594,-0.079589844,-0.083496094,-0.08203125,-0.079589844,-0.07861328,-0.07763672,-0.076660156,-0.07519531,-0.07470703,-0.07470703,-0.07861328,-0.08251953,-0.08105469,-0.07861328,-0.07763672,-0.076660156,-0.07519531,-0.07421875,-0.07373047,-0.07324219,-0.07714844,-0.08105469,-0.080078125,-0.07714844,-0.076171875,-0.07519531,-0.07421875,-0.072753906,-0.072265625,-0.072265625,-0.07714844,-0.080566406,-0.079589844,-0.07714844,-0.076171875,-0.07470703,-0.07373047,-0.072265625,-0.072265625,-0.071777344,-0.076660156,-0.080566406,-0.07910156,-0.076660156,-0.075683594,-0.07470703,-0.07324219,-0.072265625,-0.071777344,-0.07128906,-0.08105469,-0.08496094,-0.083496094,-0.08105469,-0.080078125,-0.07910156,-0.07763672,-0.076660156,-0.076171875,-0.075683594,-0.08496094,-0.088378906,-0.087402344,-0.084472656,-0.083984375,-0.08251953,-0.08154297,-0.080078125,-0.079589844,-0.079589844,-0.083496094,-0.087402344,-0.0859375,-0.083496094,-0.08251953,-0.08154297,-0.080078125,-0.07910156,-0.07861328,-0.078125,-0.08105469,-0.084472656,-0.083496094,-0.08105469,-0.080078125,-0.07861328,-0.07763672,-0.076171875,-0.076171875,-0.075683594,-0.080078125,-0.083984375,-0.08251953,-0.080078125,-0.07910156,-0.078125,-0.076660156,-0.075683594,-0.07519531,-0.07470703,-0.07910156,-0.08251953,-0.08154297,-0.07861328,-0.078125,-0.076660156,-0.075683594,-0.07421875,-0.07373047,-0.07373047,-0.07763672,-0.08154297,-0.080078125,-0.07763672,-0.076660156,-0.075683594,-0.07421875,-0.07324219,-0.072753906,-0.072753906,-0.076660156,-0.080078125,-0.07910156,-0.076171875,-0.075683594,-0.07421875,-0.07324219,-0.071777344,-0.07128906,-0.07128906,-0.076171875,-0.079589844,-0.07861328,-0.076171875,-0.07519531,-0.07373047,-0.072753906,-0.07128906,-0.07128906,-0.07080078,-0.075683594,-0.079589844,-0.078125,-0.075683594,-0.07470703,-0.07373047,-0.072753906,-0.07128906,-0.07080078,-0.07080078,-0.080078125,-0.083496094,-0.08251953,-0.079589844,-0.07910156,-0.07763672,-0.076660156,-0.07519531,-0.07470703,-0.07470703,-0.083496094,-0.08691406,-0.0859375,-0.083496094,-0.08251953,-0.08105469,-0.080078125,-0.07910156,-0.07861328,-0.078125,-0.08251953,-0.0859375,-0.08496094,-0.08203125,-0.08154297,-0.080078125,-0.07910156,-0.07763672,-0.07714844,-0.07714844,-0.079589844,-0.083496094,-0.08203125,-0.079589844,-0.07861328,-0.07763672,-0.076660156,-0.07519531,-0.07470703,-0.07470703,-0.07910156,-0.08251953,-0.08154297,-0.07861328,-0.078125,-0.076660156,-0.075683594,-0.07421875,-0.07373047,-0.07373047,-0.07763672,-0.08105469,-0.080078125,-0.07763672,-0.076660156,-0.07519531,-0.07421875,-0.07324219,-0.072753906,-0.072265625,-0.076660156,-0.080078125,-0.07910156,-0.076660156,-0.075683594,-0.07421875,-0.07324219,-0.071777344,-0.071777344,-0.07128906,-0.07519531,-0.07910156,-0.07763672,-0.07519531,-0.07421875,-0.07324219,-0.071777344,-0.07080078,-0.0703125,-0.0703125,-0.07470703,-0.07861328,-0.07714844,-0.07470703,-0.07373047,-0.072753906,-0.071777344,-0.0703125,-0.06982422,-0.06982422,-0.07470703,-0.078125,-0.07714844,-0.07470703,-0.07373047,-0.072265625,-0.07128906,-0.0703125,-0.06982422,-0.06933594,-0.07861328,-0.08251953,-0.08105469,-0.07861328,-0.07763672,-0.076660156,-0.07519531,-0.07421875,-0.07373047,-0.07373047,-0.08251953,-0.0859375,-0.08496094,-0.08251953,-0.08154297,-0.080078125,-0.07910156,-0.07763672,-0.07763672,-0.07714844,-0.08105469,-0.08496094,-0.083984375,-0.08105469,-0.080078125,-0.07910156,-0.078125,-0.076660156,-0.076171875,-0.076171875,-0.07861328,-0.08251953,-0.08105469,-0.07861328,-0.07763672,-0.076660156,-0.07519531,-0.07421875,-0.07373047,-0.07324219,-0.07763672,-0.08154297,-0.080078125,-0.07763672,-0.076660156,-0.075683594,-0.07421875,-0.07324219,-0.072753906,-0.072753906,-0.076660156,-0.080078125,-0.07910156,-0.076660156,-0.075683594,-0.07421875,-0.07324219,-0.071777344,-0.071777344,-0.07128906,-0.07519531,-0.07910156,-0.078125,-0.07519531,-0.07421875,-0.07324219,-0.072265625,-0.07080078,-0.0703125,-0.0703125,-0.07421875,-0.07763672,-0.076660156,-0.07421875,-0.07324219,-0.071777344,-0.07080078,-0.06982422,-0.06933594,-0.068847656,-0.07373047,-0.07763672,-0.076171875,-0.07373047,-0.072753906,-0.071777344,-0.0703125,-0.06933594,-0.068847656,-0.068359375,-0.07373047,-0.07714844,-0.076171875,-0.07324219,-0.072753906,-0.07128906,-0.0703125,-0.068847656,-0.068359375,-0.068359375,-0.07763672,-0.08105469,-0.080078125,-0.07714844,-0.076660156,-0.07519531,-0.07421875,-0.072753906,-0.072265625,-0.072265625,-0.08105469,-0.08496094,-0.083496094,-0.08105469,-0.080078125,-0.07910156,-0.07763672,-0.076660156,-0.076171875,-0.076171875,-0.080078125,-0.083496094,-0.08251953,-0.080078125,-0.07910156,-0.07763672,-0.076660156,-0.07519531,-0.07519531,-0.07470703,-0.07714844,-0.08105469,-0.080078125,-0.07714844,-0.076171875,-0.07519531,-0.07421875,-0.072753906,-0.072265625,-0.072265625,-0.076660156,-0.080078125,-0.07910156,-0.076171875,-0.075683594,-0.07421875,-0.07324219,-0.071777344,-0.07128906,-0.07128906,-0.07519531,-0.07910156,-0.07763672,-0.07519531,-0.07421875,-0.07324219,-0.071777344,-0.07080078,-0.0703125,-0.0703125,-0.07421875,-0.07763672,-0.076660156,-0.07421875,-0.07324219,-0.071777344,-0.07080078,-0.06982422,-0.06933594,-0.068847656,-0.072753906,-0.076660156,-0.07519531,-0.072753906,-0.071777344,-0.07080078,-0.06982422,-0.068359375,-0.067871094,-0.067871094,-0.072265625,-0.076171875,-0.07519531,-0.072265625,-0.07128906,-0.0703125,-0.06933594,-0.067871094,-0.06738281,-0.06738281,-0.072265625,-0.076171875,-0.07470703,-0.072265625,-0.07128906,-0.0703125,-0.068847656,-0.067871094,-0.06738281,-0.06689453,-0.07714844,-0.080566406,-0.079589844,-0.07714844,-0.076171875,-0.07470703,-0.07373047,-0.072265625,-0.072265625,-0.071777344,-0.080566406,-0.084472656,-0.08300781,-0.080566406,-0.079589844,-0.07861328,-0.07763672,-0.076171875,-0.075683594,-0.075683594,-0.079589844,-0.08300781,-0.08203125,-0.079589844,-0.07861328,-0.07714844,-0.076171875,-0.07519531,-0.07470703,-0.07421875,-0.07714844,-0.080566406,-0.079589844,-0.07714844,-0.076171875,-0.07470703,-0.07373047,-0.072265625,-0.072265625,-0.071777344,-0.076171875,-0.079589844,-0.07861328,-0.076171875,-0.07519531,-0.07373047,-0.072753906,-0.07128906,-0.07128906,-0.07080078,-0.07470703,-0.07861328,-0.07714844,-0.07470703,-0.07373047,-0.072753906,-0.071777344,-0.0703125,-0.06982422,-0.06982422,-0.07373047,-0.07763672,-0.076171875,-0.07373047,-0.072753906,-0.071777344,-0.0703125,-0.06933594,-0.068847656,-0.068359375,-0.072265625,-0.076171875,-0.07519531,-0.072265625,-0.07128906,-0.0703125,-0.06933594,-0.067871094,-0.06738281,-0.06738281,-0.072265625,-0.075683594,-0.07470703,-0.072265625,-0.07128906,-0.06982422,-0.068847656,-0.06738281,-0.06738281,-0.06689453,-0.071777344,-0.075683594,-0.07421875,-0.071777344,-0.07080078,-0.06982422,-0.068359375,-0.06738281,-0.06689453,-0.06640625,-0.076660156,-0.080566406,-0.07910156,-0.076660156,-0.075683594,-0.07470703,-0.07373047,-0.072265625,-0.071777344,-0.071777344,-0.080566406,-0.083984375,-0.08300781,-0.080566406,-0.079589844,-0.078125,-0.07714844,-0.076171875,-0.075683594,-0.07519531,-0.07910156,-0.08300781,-0.08203125,-0.07910156,-0.078125,-0.07714844,-0.076171875,-0.07470703,-0.07421875,-0.07421875,-0.076660156,-0.080566406,-0.07910156,-0.076660156,-0.075683594,-0.07470703,-0.07324219,-0.072265625,-0.071777344,-0.07128906,-0.075683594,-0.079589844,-0.078125,-0.075683594,-0.07470703,-0.07373047,-0.072753906,-0.07128906,-0.07080078,-0.07080078,-0.07470703,-0.078125,-0.07714844,-0.07470703,-0.07373047,-0.072265625,-0.07128906,-0.0703125,-0.06982422,-0.06933594,-0.07373047,-0.07714844,-0.076171875,-0.07324219,-0.072753906,-0.07128906,-0.0703125,-0.068847656,-0.068359375,-0.068359375,-0.072265625,-0.076171875,-0.07470703,-0.072265625,-0.07128906,-0.0703125,-0.068847656,-0.067871094,-0.06738281,-0.06689453,-0.071777344,-0.075683594,-0.07421875,-0.071777344,-0.07080078,-0.06982422,-0.068359375,-0.06738281,-0.06689453,-0.06640625,-0.071777344,-0.07519531,-0.07421875,-0.07128906,-0.07080078,-0.06933594,-0.068359375,-0.06689453,-0.06640625,-0.06640625
dolphin,0.049804688,0.060302734,0.056152344,0.049560547,0.045654297,0.04321289,0.040771484,0.037841797,0.040039062,0.037841797,0.049804688,0.05493164,0.052978516,0.049804688,0.047851562,0.04663086,0.045166016,0.043945312,0.044921875,0.043945312,0.05493164,0.060302734,0.05810547,0.05493164,0.052978516,0.051757812,0.05053711,0.049072266,0.050048828,0.049072266,0.052978516,0.05810547,0.056152344,0.052978516,0.05102539,0.049804688,0.048339844,0.04711914,0.048095703,0.04711914,0.049804688,0.05493164,0.052978516,0.049560547,0.047607422,0.04638672,0.045166016,0.043701172,0.044921875,0.043701172,0.047851562,0.052978516,0.05102539,0.047607422,0.045654297,0.044433594,0.04321289,0.041748047,0.04296875,0.041748047,0.04663086,0.051757812,0.049804688,0.04638672,0.044433594,0.04321289,0.041992188,0.040527344,0.041748047,0.040527344,0.045166016,0.05053711,0.048339844,0.045166016,0.04321289,0.041992188,0.040771484,0.03930664,0.040283203,0.03930664,0.043945312,0.049072266,0.04711914,0.043701172,0.041748047,0.040527344,0.03930664,0.037841797,0.0390625,0.037841797,0.044921875,0.050048828,0.048095703,0.044921875,0.04296875,0.041748047,0.040283203,0.0390625,0.040039062,0.0390625,0.043945312,0.049072266,0.04711914,0.043701172,0.041748047,0.040527344,0.03930664,0.037841797,0.0390625,0.037841797,0.049804688,0.053222656,0.052001953,0.049804688,0.048339844,0.047607422,0.046875,0.045898438,0.04663086,0.045898438,0.053222656,0.056640625,0.055419922,0.053222656,0.052001953,0.05102539,0.05029297,0.049316406,0.050048828,0.049316406,0.052001953,0.055419922,0.053955078,0.051757812,0.05053711,0.049804688,0.048828125,0.047851562,0.048583984,0.047851562,0.049804688,0.053222656,0.051757812,0.049804688,0.048339844,0.047607422,0.04663086,0.045898438,0.04638672,0.045898438,0.048339844,0.052001953,0.05053711,0.048339844,0.04711914,0.04638672,0.045410156,0.044433594,0.045166016,0.044433594,0.047607422,0.05102539,0.049804688,0.047607422,0.04638672,0.045410156,0.044677734,0.043701172,0.044433594,0.043701172,0.046875,0.05029297,0.048828125,0.04663086,0.045410156,0.044677734,0.043701172,0.04272461,0.04345703,0.04272461,0.045898438,0.049316406,0.047851562,0.045898438,0.044433594,0.043701172,0.04272461,0.041992188,0.04248047,0.041992188,0.04663086,0.050048828,0.048583984,0.04638672,0.045166016,0.044433594,0.04345703,0.04248047,0.04321289,0.04248047,0.045898438,0.049316406,0.047851562,0.045898438,0.044433594,0.043701172,0.04272461,0.041992188,0.04248047,0.041992188,0.053222656,0.056640625,0.055419922,0.053222656,0.052001953,0.05102539,0.05029297,0.049316406,0.050048828,0.049316406,0.056640625,0.060302734,0.05883789,0.056640625,0.055419922,0.0546875,0.053710938,0.052734375,0.053466797,0.052734375,0.055419922,0.05883789,0.057617188,0.055419922,0.053955078,0.053222656,0.052246094,0.051513672,0.052246094,0.051513672,0.053222656,0.056640625,0.055419922,0.053222656,0.051757812,0.05102539,0.05029297,0.049316406,0.050048828,0.049316406,0.052001953,0.055419922,0.053955078,0.051757812,0.05053711,0.049804688,0.048828125,0.047851562,0.048583984,0.047851562,0.05102539,0.0546875,0.053222656,0.05102539,0.049804688,0.048828125,0.048095703,0.04711914,0.047851562,0.04711914,0.05029297,0.053710938,0.052246094,0.05029297,0.048828125,0.048095703,0.04711914,0.04638672,0.046875,0.04638672,0.049316406,0.052734375,0.051513672,0.049316406,0.047851562,0.04711914,0.04638672,0.045410156,0.046142578,0.045410156,0.050048828,0.053466797,0.052246094,0.050048828,0.048583984,0.047851562,0.046875,0.046142578,0.046875,0.046142578,0.049316406,0.052734375,0.051513672,0.049316406,0.047851562,0.04711914,0.04638672,0.045410156,0.046142578,0.045410156,0.052001953,0.055419922,0.053955078,0.051757812,0.05053711,0.049804688,0.048828125,0.047851562,0.048583984,0.047851562,0.055419922,0.05883789,0.057617188,0.055419922,0.053955078,0.053222656,0.052246094,0.051513672,0.052246094,0.051513672,0.053955078,0.057617188,0.056152344,0.053955078,0.052734375,0.051757812,0.05102539,0.050048828,0.05078125,0.050048828,0.051757812,0.055419922,0.053955078,0.051757812,0.05053711,0.049804688,0.048828125,0.047851562,0.048583984,0.047851562,0.05053711,0.053955078,0.052734375,0.05053711,0.049316406,0.048339844,0.047607422,0.04663086,0.04736328,0.04663086,0.049804688,0.053222656,0.051757812,0.049804688,0.048339844,0.047607422,0.04663086,0.045898438,0.04638672,0.045898438,0.048828125,0.052246094,0.05102539,0.048828125,0.047607422,0.04663086,0.045898438,0.044921875,0.045654297,0.044921875,0.047851562,0.051513672,0.050048828,0.047851562,0.04663086,0.045898438,0.044921875,0.043945312,0.044677734,0.043945312,0.048583984,0.052246094,0.05078125,0.048583984,0.04736328,0.04638672,0.045654297,0.044677734,0.045410156,0.044677734,0.047851562,0.051513672,0.050048828,0.047851562,0.04663086,0.045898438,0.044921875,0.043945312,0.044677734,0.043945312,0.049804688,0.053222656,0.051757812,0.049804688,0.048339844,0.047607422,0.04663086,0.045898438,0.04638672,0.045898438,0.053222656,0.056640625,0.055419922,0.053222656,0.051757812,0.05102539,0.05029297,0.049316406,0.050048828,0.049316406,0.051757812,0.055419922,0.053955078,0.051757812,0.05053711,0.049804688,0.048828125,0.047851562,0.048583984,0.047851562,0.049804688,0.053222656,0.051757812,0.049560547,0.048339844,0.047607422,0.04663086,0.045654297,0.04638672,0.045654297,0.048339844,0.051757812,0.05053711,0.048339844,0.04711914,0.046142578,0.045410156,0.044433594,0.045166016,0.044433594,0.047607422,0.05102539,0.049804688,0.047607422,0.046142578,0.045410156,0.044433594,0.043701172,0.044433594,0.043701172,0.04663086,0.05029297,0.048828125,0.04663086,0.045410156,0.044433594,0.043701172,0.04272461,0.04345703,0.04272461,0.045898438,0.049316406,0.047851562,0.045654297,0.044433594,0.043701172,0.04272461,0.041748047,0.04248047,0.041748047,0.04638672,0.050048828,0.048583984,0.04638672,0.045166016,0.044433594,0.04345703,0.04248047,0.04321289,0.04248047,0.045898438,0.049316406,0.047851562,0.045654297,0.044433594,0.043701172,0.04272461,0.041748047,0.04248047,0.041748047,0.048339844,0.052001953,0.05053711,0.048339844,0.04711914,0.04638672,0.045410156,0.044433594,0.045166016,0.044433594,0.052001953,0.055419922,0.053955078,0.051757812,0.05053711,0.049804688,0.048828125,0.047851562,0.048583984,0.047851562,0.05053711,0.053955078,0.052734375,0.05053711,0.049316406,0.048339844,0.047607422,0.04663086,0.04736328,0.04663086,0.048339844,0.051757812,0.05053711,0.048339844,0.04711914,0.046142578,0.045410156,0.044433594,0.045166016,0.044433594,0.04711914,0.05053711,0.049316406,0.04711914,0.045654297,0.044921875,0.043945312,0.04321289,0.043945312,0.04321289,0.04638672,0.049804688,0.048339844,0.046142578,0.044921875,0.044189453,0.04321289,0.042236328,0.04296875,0.042236328,0.045410156,0.048828125,0.047607422,0.045410156,0.043945312,0.04321289,0.04248047,0.041503906,0.042236328,0.041503906,0.044433594,0.047851562,0.04663086,0.044433594,0.04321289,0.042236328,0.041503906,0.040527344,0.041259766,0.040527344,0.045166016,0.048583984,0.04736328,0.045166016,0.043945312,0.04296875,0.042236328,0.041259766,0.041992188,0.041259766,0.044433594,0.047851562,0.04663086,0.044433594,0.04321289,0.042236328,0.041503906,0.040527344,0.041259766,0.040527344,0.047607422,0.05102539,0.049804688,0.047607422,0.04638672,0.045410156,0.044677734,0.043701172,0.044433594,0.043701172,0.05102539,0.0546875,0.053222656,0.05102539,0.049804688,0.048828125,0.048095703,0.04711914,0.047851562,0.04711914,0.049804688,0.053222656,0.051757812,0.049804688,0.048339844,0.047607422,0.04663086,0.045898438,0.04638672,0.045898438,0.047607422,0.05102539,0.049804688,0.047607422,0.046142578,0.045410156,0.044433594,0.043701172,0.044433594,0.043701172,0.04638672,0.049804688,0.048339844,0.046142578,0.044921875,0.044189453,0.04321289,0.042236328,0.04296875,0.042236328,0.045410156,0.048828125,0.047607422,0.045410156,0.044189453,0.04321289,0.04248047,0.041503906,0.042236328,0.041503906,0.044677734,0.048095703,0.04663086,0.044433594,0.04321289,0.04248047,0.041503906,0.040527344,0.041259766,0.040527344,0.043701172,0.04711914,0.045898438,0.043701172,0.042236328,0.041503906,0.040527344,0.039794922,0.040527344,0.039794922,0.044433594,0.047851562,0.04638672,0.044433594,0.04296875,0.042236328,0.041259766,0.040527344,0.041015625,0.040527344,0.043701172,0.04711914,0.045898438,0.043701172,0.042236328,0.041503906,0.040527344,0.039794922,0.040527344,0.039794922,0.046875,0.05029297,0.048828125,0.04663086,0.045410156,0.044677734,0.043701172,0.04272461,0.04345703,0.04272461,0.05029297,0.053710938,0.052246094,0.05029297,0.048828125,0.048095703,0.04711914,0.04638672,0.046875,0.04638672,0.048828125,0.052246094,0.05102539,0.048828125,0.047607422,0.04663086,0.045898438,0.044921875,0.045654297,0.044921875,0.04663086,0.05029297,0.048828125,0.04663086,0.045410156,0.044433594,0.043701172,0.04272461,0.04345703,0.04272461,0.045410156,0.048828125,0.047607422,0.045410156,0.043945312,0.04321289,0.04248047,0.041503906,0.042236328,0.041503906,0.044677734,0.048095703,0.04663086,0.044433594,0.04321289,0.04248047,0.041503906,0.040527344,0.041259766,0.040527344,0.043701172,0.04711914,0.045898438,0.043701172,0.04248047,0.041503906,0.040771484,0.039794922,0.040527344,0.039794922,0.04272461,0.04638672,0.044921875,0.04272461,0.041503906,0.040527344,0.039794922,0.03881836,0.03955078,0.03881836,0.04345703,0.046875,0.045654297,0.04345703,0.042236328,0.041259766,0.040527344,0.03955078,0.040283203,0.03955078,0.04272461,0.04638672,0.044921875,0.04272461,0.041503906,0.040527344,0.039794922,0.03881836,0.03955078,0.03881836,0.045898438,0.049316406,0.047851562,0.045898438,0.044433594,0.043701172,0.04272461,0.041992188,0.04248047,0.041992188,0.049316406,0.052734375,0.051513672,0.049316406,0.047851562,0.04711914,0.04638672,0.045410156,0.046142578,0.045410156,0.047851562,0.051513672,0.050048828,0.047851562,0.04663086,0.045898438,0.044921875,0.043945312,0.044677734,0.043945312,0.045898438,0.049316406,0.047851562,0.045654297,0.044433594,0.043701172,0.04272461,0.041748047,0.04248047,0.041748047,0.044433594,0.047851562,0.04663086,0.044433594,0.04321289,0.042236328,0.041503906,0.040527344,0.041259766,0.040527344,0.043701172,0.04711914,0.045898438,0.043701172,0.042236328,0.041503906,0.040527344,0.039794922,0.040527344,0.039794922,0.04272461,0.04638672,0.044921875,0.04272461,0.041503906,0.040527344,0.039794922,0.03881836,0.03955078,0.03881836,0.041992188,0.045410156,0.043945312,0.041748047,0.040527344,0.039794922,0.03881836,0.037841797,0.03857422,0.037841797,0.04248047,0.046142578,0.044677734,0.04248047,0.041259766,0.040527344,0.03955078,0.03857422,0.03930664,0.03857422,0.041992188,0.045410156,0.043945312,0.041748047,0.040527344,0.039794922,0.03881836,0.037841797,0.03857422,0.037841797,0.04663086,0.050048828,0.048583984,0.04638672,0.045166016,0.044433594,0.04345703,0.04248047,0.04321289,0.04248047,0.050048828,0.053466797,0.052246094,0.050048828,0.048583984,0.047851562,0.046875,0.046142578,0.046875,0.046142578,0.048583984,0.052246094,0.05078125,0.048583984,0.04736328,0.04638672,0.045654297,0.044677734,0.045410156,0.044677734,0.04638672,0.050048828,0.048583984,0.04638672,0.045166016,0.044433594,0.04345703,0.04248047,0.04321289,0.04248047,0.045166016,0.048583984,0.04736328,0.045166016,0.043945312,0.04296875,0.042236328,0.041259766,0.041992188,0.041259766,0.044433594,0.047851562,0.04638672,0.044433594,0.04296875,0.042236328,0.041259766,0.040527344,0.041015625,0.040527344,0.04345703,0.046875,0.045654297,0.04345703,0.042236328,0.041259766,0.040527344,0.03955078,0.040283203,0.03955078,0.04248047,0.046142578,0.044677734,0.04248047,0.041259766,0.040527344,0.03955078,0.03857422,0.03930664,0.03857422,0.04321289,0.046875,0.045410156,0.04321289,0.041992188,0.041015625,0.040283203,0.03930664,0.040039062,0.03930664,0.04248047,0.046142578,0.044677734,0.04248047,0.041259766,0.040527344,0.03955078,0.03857422,0.03930664,0.03857422,0.045898438,0.049316406,0.047851562,0.045898438,0.044433594,0.043701172,0.04272461,0.041992188,0.04248047,0.041992188,0.049316406,0.052734375,0.051513672,0.049316406,0.047851562,0.04711914,0.04638672,0.045410156,0.046142578,0.045410156,0.047851562,0.051513672,0.050048828,0.047851562,0.04663086,0.045898438,0.044921875,0.043945312,0.044677734,0.043945312,0.045898438,0.049316406,0.047851562,0.045654297,0.044433594,0.043701172,0.04272461,0.041748047,0.04248047,0.041748047,0.044433594,0.047851562,0.04663086,0.044433594,0.04321289,0.042236328,0.041503906,0.040527344,0.041259766,0.040527344,0.043701172,0.04711914,0.045898438,0.043701172,0.042236328,0.041503906,0.040527344,0.039794922,0.040527344,0.039794922,0.04272461,0.04638672,0.044921875,0.04272461,0.041503906,0.040527344,0.039794922,0.03881836,0.03955078,0.03881836,0.041992188,0.045410156,0.043945312,0.041748047,0.040527344,0.039794922,0.03881836,0.037841797,0.03857422,0.037841797,0.04248047,0.046142578,0.044677734,0.04248047,0.041259766,0.040527344,0.03955078,0.03857422,0.03930664,0.03857422,0.041992188,0.045410156,0.043945312,0.041748047,0.040527344,0.039794922,0.03881836,0.037841797,0.03857422,0.037841797
panda,0.040039062,0.04638672,0.04345703,0.03955078,0.03515625,0.03466797,0.032226562,0.03125,0.029174805,0.030761719,0.040039062,0.04321289,0.041748047,0.039794922,0.037597656,0.037353516,0.036132812,0.03564453,0.03466797,0.03540039,0.04321289,0.04638672,0.044921875,0.04296875,0.040771484,0.040527344,0.03930664,0.03881836,0.037841797,0.03857422,0.041748047,0.044921875,0.04345703,0.041503906,0.03930664,0.0390625,0.037841797,0.037353516,0.036132812,0.037109375,0.039794922,0.04296875,0.041503906,0.03955078,0.037353516,0.037109375,0.035888672,0.03540039,0.034179688,0.03515625,0.037597656,0.040771484,0.03930664,0.037353516,0.03515625,0.03491211,0.033691406,0.033203125,0.032226562,0.032958984,0.037353516,0.040527344,0.0390625,0.037109375,0.03491211,0.03466797,0.033447266,0.032958984,0.031982422,0.032714844,0.036132812,0.03930664,0.037841797,0.035888672,0.033691406,0.033447266,0.032226562,0.03173828,0.030761719,0.03149414,0.03564453,0.03881836,0.037353516,0.03540039,0.033203125,0.032958984,0.03173828,0.03125,0.030273438,0.03100586,0.03466797,0.037841797,0.036132812,0.034179688,0.032226562,0.031982422,0.030761719,0.030273438,0.029174805,0.030029297,0.03540039,0.03857422,0.037109375,0.03515625,0.032958984,0.032714844,0.03149414,0.03100586,0.030029297,0.030761719,0.040039062,0.042236328,0.041015625,0.039794922,0.038330078,0.038330078,0.037353516,0.037109375,0.036376953,0.036865234,0.042236328,0.044433594,0.04321289,0.041992188,0.040527344,0.040527344,0.03955078,0.03930664,0.03857422,0.0390625,0.041015625,0.04321289,0.042236328,0.041015625,0.03955078,0.03930664,0.03857422,0.038085938,0.037597656,0.038085938,0.039794922,0.041992188,0.041015625,0.03955078,0.038085938,0.038085938,0.037109375,0.036865234,0.036132812,0.036621094,0.038330078,0.040527344,0.03955078,0.038085938,0.036865234,0.036621094,0.035888672,0.03540039,0.03466797,0.03540039,0.038330078,0.040527344,0.03930664,0.038085938,0.036621094,0.036621094,0.03564453,0.03540039,0.03466797,0.03515625,0.037353516,0.03955078,0.03857422,0.037109375,0.035888672,0.03564453,0.03491211,0.034423828,0.033691406,0.034423828,0.037109375,0.03930664,0.038085938,0.036865234,0.03540039,0.03540039,0.034423828,0.034179688,0.033447266,0.033935547,0.036376953,0.03857422,0.037597656,0.036132812,0.03466797,0.03466797,0.033691406,0.033447266,0.032714844,0.033203125,0.036865234,0.0390625,0.038085938,0.036621094,0.03540039,0.03515625,0.034423828,0.033935547,0.033203125,0.033935547,0.042236328,0.044433594,0.04321289,0.041992188,0.040527344,0.040527344,0.03955078,0.03930664,0.03857422,0.0390625,0.044433594,0.04638672,0.045410156,0.044189453,0.04272461,0.04248047,0.041748047,0.041503906,0.040771484,0.041259766,0.04321289,0.045410156,0.044433594,0.04296875,0.041748047,0.041503906,0.040771484,0.040283203,0.03955078,0.040283203,0.041992188,0.044189453,0.04296875,0.041748047,0.040283203,0.040283203,0.03930664,0.0390625,0.038330078,0.03881836,0.040527344,0.04272461,0.041748047,0.040283203,0.0390625,0.03881836,0.038085938,0.037597656,0.036865234,0.037597656,0.040527344,0.04248047,0.041503906,0.040283203,0.03881836,0.03857422,0.037841797,0.037597656,0.036865234,0.037353516,0.03955078,0.041748047,0.040771484,0.03930664,0.038085938,0.037841797,0.037109375,0.036621094,0.035888672,0.036621094,0.03930664,0.041503906,0.040283203,0.0390625,0.037597656,0.037597656,0.036621094,0.036376953,0.03564453,0.036132812,0.03857422,0.040771484,0.03955078,0.038330078,0.036865234,0.036865234,0.035888672,0.03564453,0.03491211,0.03540039,0.0390625,0.041259766,0.040283203,0.03881836,0.037597656,0.037353516,0.036621094,0.036132812,0.03540039,0.036132812,0.041015625,0.04321289,0.042236328,0.041015625,0.03955078,0.03930664,0.03857422,0.038085938,0.037597656,0.038085938,0.04321289,0.045410156,0.044433594,0.04296875,0.041748047,0.041503906,0.040771484,0.040283203,0.03955078,0.040283203,0.042236328,0.044433594,0.04345703,0.041992188,0.040527344,0.040527344,0.03955078,0.03930664,0.03857422,0.0390625,0.041015625,0.04296875,0.041992188,0.040771484,0.03930664,0.0390625,0.038330078,0.038085938,0.037353516,0.037841797,0.03955078,0.041748047,0.040527344,0.03930664,0.037841797,0.037841797,0.036865234,0.036621094,0.035888672,0.036376953,0.03930664,0.041503906,0.040527344,0.0390625,0.037841797,0.037597656,0.036865234,0.036376953,0.03564453,0.036376953,0.03857422,0.040771484,0.03955078,0.038330078,0.036865234,0.036865234,0.035888672,0.03564453,0.03491211,0.03540039,0.038085938,0.040283203,0.03930664,0.038085938,0.036621094,0.036376953,0.03564453,0.03515625,0.03466797,0.03515625,0.037597656,0.03955078,0.03857422,0.037353516,0.035888672,0.03564453,0.03491211,0.03466797,0.033935547,0.034423828,0.038085938,0.040283203,0.0390625,0.037841797,0.036376953,0.036376953,0.03540039,0.03515625,0.034423828,0.03491211,0.039794922,0.041992188,0.041015625,0.03955078,0.038085938,0.038085938,0.037109375,0.036865234,0.036132812,0.036621094,0.041992188,0.044189453,0.04296875,0.041748047,0.040283203,0.040283203,0.03930664,0.0390625,0.038330078,0.03881836,0.041015625,0.04296875,0.041992188,0.040771484,0.03930664,0.0390625,0.038330078,0.038085938,0.037353516,0.037841797,0.03955078,0.041748047,0.040771484,0.03955078,0.038085938,0.037841797,0.037109375,0.036621094,0.036132812,0.036621094,0.038085938,0.040283203,0.03930664,0.038085938,0.036621094,0.036376953,0.03564453,0.03515625,0.03466797,0.03515625,0.038085938,0.040283203,0.0390625,0.037841797,0.036376953,0.036376953,0.03540039,0.03515625,0.034423828,0.03491211,0.037109375,0.03930664,0.038330078,0.037109375,0.03564453,0.03540039,0.03466797,0.034179688,0.033691406,0.034179688,0.036865234,0.0390625,0.038085938,0.036621094,0.03515625,0.03515625,0.034179688,0.033935547,0.033203125,0.033691406,0.036132812,0.038330078,0.037353516,0.036132812,0.03466797,0.034423828,0.033691406,0.033203125,0.032714844,0.033203125,0.036621094,0.03881836,0.037841797,0.036621094,0.03515625,0.03491211,0.034179688,0.033691406,0.033203125,0.033691406,0.038330078,0.040527344,0.03955078,0.038085938,0.036865234,0.036621094,0.035888672,0.03540039,0.03466797,0.03540039,0.040527344,0.04272461,0.041748047,0.040283203,0.0390625,0.03881836,0.038085938,0.037597656,0.036865234,0.037597656,0.03955078,0.041748047,0.040527344,0.03930664,0.037841797,0.037841797,0.036865234,0.036621094,0.035888672,0.036376953,0.038085938,0.040283203,0.03930664,0.038085938,0.036621094,0.036376953,0.03564453,0.03515625,0.03466797,0.03515625,0.036865234,0.0390625,0.037841797,0.036621094,0.03515625,0.03515625,0.034179688,0.033935547,0.033203125,0.033691406,0.036621094,0.03881836,0.037841797,0.036376953,0.03515625,0.03491211,0.034179688,0.033691406,0.032958984,0.033691406,0.035888672,0.038085938,0.036865234,0.03564453,0.034179688,0.034179688,0.033203125,0.032958984,0.032226562,0.032714844,0.03540039,0.037597656,0.036621094,0.03515625,0.033935547,0.033691406,0.032958984,0.032470703,0.03173828,0.032470703,0.03466797,0.036865234,0.035888672,0.03466797,0.033203125,0.032958984,0.032226562,0.03173828,0.03112793,0.03173828,0.03540039,0.037597656,0.036376953,0.03515625,0.033691406,0.033691406,0.032714844,0.032470703,0.03173828,0.032226562,0.038330078,0.040527344,0.03930664,0.038085938,0.036621094,0.036621094,0.03564453,0.03540039,0.03466797,0.03515625,0.040527344,0.04248047,0.041503906,0.040283203,0.03881836,0.03857422,0.037841797,0.037597656,0.036865234,0.037353516,0.03930664,0.041503906,0.040527344,0.0390625,0.037841797,0.037597656,0.036865234,0.036376953,0.03564453,0.036376953,0.038085938,0.040283203,0.0390625,0.037841797,0.036376953,0.036376953,0.03540039,0.03515625,0.034423828,0.03491211,0.036621094,0.03881836,0.037841797,0.036376953,0.03515625,0.03491211,0.034179688,0.033691406,0.032958984,0.033691406,0.036621094,0.03857422,0.037597656,0.036376953,0.03491211,0.03466797,0.033935547,0.033691406,0.032958984,0.033447266,0.03564453,0.037841797,0.036865234,0.03540039,0.034179688,0.033935547,0.033203125,0.032714844,0.031982422,0.032714844,0.03540039,0.037597656,0.036376953,0.03515625,0.033691406,0.033691406,0.032714844,0.032470703,0.03173828,0.032226562,0.03466797,0.036865234,0.03564453,0.034423828,0.032958984,0.032958984,0.031982422,0.03173828,0.03100586,0.03149414,0.03515625,0.037353516,0.036376953,0.03491211,0.033691406,0.033447266,0.032714844,0.032226562,0.03149414,0.032226562,0.037353516,0.03955078,0.03857422,0.037109375,0.035888672,0.03564453,0.03491211,0.034423828,0.033691406,0.034423828,0.03955078,0.041748047,0.040771484,0.03930664,0.038085938,0.037841797,0.037109375,0.036621094,0.035888672,0.036621094,0.03857422,0.040771484,0.03955078,0.038330078,0.036865234,0.036865234,0.035888672,0.03564453,0.03491211,0.03540039,0.037109375,0.03930664,0.038330078,0.037109375,0.03564453,0.03540039,0.03466797,0.034179688,0.033691406,0.034179688,0.035888672,0.038085938,0.036865234,0.03564453,0.034179688,0.034179688,0.033203125,0.032958984,0.032226562,0.032714844,0.03564453,0.037841797,0.036865234,0.03540039,0.034179688,0.033935547,0.033203125,0.032714844,0.031982422,0.032714844,0.03491211,0.037109375,0.035888672,0.03466797,0.033203125,0.033203125,0.032226562,0.031982422,0.03125,0.03173828,0.034423828,0.036621094,0.03564453,0.034179688,0.032958984,0.032714844,0.031982422,0.03149414,0.030883789,0.03149414,0.033691406,0.035888672,0.03491211,0.033691406,0.032226562,0.031982422,0.03125,0.030883789,0.030151367,0.030761719,0.034423828,0.036621094,0.03540039,0.034179688,0.032714844,0.032714844,0.03173828,0.03149414,0.030761719,0.03125,0.037109375,0.03930664,0.038085938,0.036865234,0.03540039,0.03540039,0.034423828,0.034179688,0.033447266,0.033935547,0.03930664,0.041503906,0.040283203,0.0390625,0.037597656,0.037597656,0.036621094,0.036376953,0.03564453,0.036132812,0.038085938,0.040283203,0.03930664,0.038085938,0.036621094,0.036376953,0.03564453,0.03515625,0.03466797,0.03515625,0.036865234,0.0390625,0.038085938,0.036621094,0.03515625,0.03515625,0.034179688,0.033935547,0.033203125,0.033691406,0.03540039,0.037597656,0.036621094,0.03515625,0.033935547,0.033691406,0.032958984,0.032470703,0.03173828,0.032470703,0.03540039,0.037597656,0.036376953,0.03515625,0.033691406,0.033691406,0.032714844,0.032470703,0.03173828,0.032226562,0.034423828,0.036621094,0.03564453,0.034179688,0.032958984,0.032714844,0.031982422,0.03149414,0.030883789,0.03149414,0.034179688,0.036376953,0.03515625,0.033935547,0.032470703,0.032470703,0.03149414,0.03125,0.030517578,0.03112793,0.033447266,0.03564453,0.03466797,0.033203125,0.03173828,0.03173828,0.030883789,0.030517578,0.029907227,0.030395508,0.033935547,0.036132812,0.03515625,0.033691406,0.032470703,0.032226562,0.03149414,0.03112793,0.030395508,0.030883789,0.036376953,0.03857422,0.037597656,0.036132812,0.03466797,0.03466797,0.033691406,0.033447266,0.032714844,0.033203125,0.03857422,0.040771484,0.03955078,0.038330078,0.036865234,0.036865234,0.035888672,0.03564453,0.03491211,0.03540039,0.037597656,0.03955078,0.03857422,0.037353516,0.035888672,0.03564453,0.03491211,0.03466797,0.033935547,0.034423828,0.036132812,0.038330078,0.037353516,0.036132812,0.03466797,0.034423828,0.033691406,0.033203125,0.032714844,0.033203125,0.03466797,0.036865234,0.035888672,0.03466797,0.033203125,0.032958984,0.032226562,0.03173828,0.03112793,0.03173828,0.03466797,0.036865234,0.03564453,0.034423828,0.032958984,0.032958984,0.031982422,0.03173828,0.03100586,0.03149414,0.033691406,0.035888672,0.03491211,0.033691406,0.032226562,0.031982422,0.03125,0.030883789,0.030151367,0.030761719,0.033447266,0.03564453,0.03466797,0.033203125,0.03173828,0.03173828,0.030883789,0.030517578,0.029907227,0.030395508,0.032714844,0.03491211,0.033935547,0.032714844,0.03112793,0.03100586,0.030151367,0.029907227,0.029174805,0.029663086,0.033203125,0.03540039,0.034423828,0.033203125,0.03173828,0.03149414,0.030761719,0.030395508,0.029663086,0.030273438,0.036865234,0.0390625,0.038085938,0.036621094,0.03540039,0.03515625,0.034423828,0.033935547,0.033203125,0.033935547,0.0390625,0.041259766,0.040283203,0.03881836,0.037597656,0.037353516,0.036621094,0.036132812,0.03540039,0.036132812,0.038085938,0.040283203,0.0390625,0.037841797,0.036376953,0.036376953,0.03540039,0.03515625,0.034423828,0.03491211,0.036621094,0.03881836,0.037841797,0.036621094,0.03515625,0.03491211,0.034179688,0.033691406,0.033203125,0.033691406,0.03540039,0.037597656,0.036376953,0.03515625,0.033691406,0.033691406,0.032714844,0.032470703,0.03173828,0.032226562,0.03515625,0.037353516,0.036376953,0.03491211,0.033691406,0.033447266,0.032714844,0.032226562,0.03149414,0.032226562,0.034423828,0.036621094,0.03540039,0.034179688,0.032714844,0.032714844,0.03173828,0.03149414,0.030761719,0.03125,0.033935547,0.036132812,0.03515625,0.033691406,0.032470703,0.032226562,0.03149414,0.03112793,0.030395508,0.030883789,0.033203125,0.03540039,0.034423828,0.033203125,0.03173828,0.03149414,0.030761719,0.030395508,0.029663086,0.030273438,0.033935547,0.036132812,0.03491211,0.033691406,0.032226562,0.032226562,0.03125,0.030883789,0.030273438,0.030761719
lion,-0.096191406,-0.12011719,-0.115234375,-0.109375,-0.095703125,-0.1015625,-0.091796875,-0.08886719,-0.08300781,-0.088378906,-0.096191406,-0.10839844,-0.10546875,-0.10253906,-0.095703125,-0.09863281,-0.09375,-0.09277344,-0.08984375,-0.092285156,-0.10839844,-0.12011719,-0.11767578,-0.114746094,-0.107910156,-0.110839844,-0.10595703,-0.10449219,-0.1015625,-0.10449219,-0.10546875,-0.11767578,-0.115234375,-0.11230469,-0.10546875,-0.10839844,-0.103515625,-0.10205078,-0.099121094,-0.1015625,-0.10253906,-0.114746094,-0.11230469,-0.109375,-0.10253906,-0.10546875,-0.10058594,-0.099121094,-0.096191406,-0.09863281,-0.095703125,-0.107910156,-0.10546875,-0.10253906,-0.095703125,-0.09863281,-0.09375,-0.092285156,-0.08935547,-0.091796875,-0.09863281,-0.110839844,-0.10839844,-0.10546875,-0.09863281,-0.1015625,-0.09667969,-0.095214844,-0.092285156,-0.09472656,-0.09375,-0.10595703,-0.103515625,-0.10058594,-0.09375,-0.09667969,-0.091796875,-0.09033203,-0.087402344,-0.08984375,-0.09277344,-0.10449219,-0.10205078,-0.099121094,-0.092285156,-0.095214844,-0.09033203,-0.08886719,-0.0859375,-0.08886719,-0.08984375,-0.1015625,-0.099121094,-0.096191406,-0.08935547,-0.092285156,-0.087402344,-0.0859375,-0.08300781,-0.0859375,-0.092285156,-0.10449219,-0.1015625,-0.09863281,-0.091796875,-0.09472656,-0.08984375,-0.08886719,-0.0859375,-0.088378906,-0.096191406,-0.104003906,-0.10253906,-0.10058594,-0.096191406,-0.09814453,-0.09472656,-0.09375,-0.091796875,-0.09375,-0.104003906,-0.11230469,-0.11035156,-0.10839844,-0.104003906,-0.10595703,-0.10253906,-0.1015625,-0.099609375,-0.1015625,-0.10253906,-0.11035156,-0.10888672,-0.106933594,-0.10253906,-0.10449219,-0.10107422,-0.100097656,-0.09814453,-0.100097656,-0.10058594,-0.10839844,-0.106933594,-0.10498047,-0.10058594,-0.10253906,-0.099121094,-0.09814453,-0.096191406,-0.09814453,-0.096191406,-0.104003906,-0.10253906,-0.10058594,-0.095703125,-0.09765625,-0.09472656,-0.09375,-0.091796875,-0.09326172,-0.09814453,-0.10595703,-0.10449219,-0.10253906,-0.09765625,-0.099609375,-0.09667969,-0.095703125,-0.09375,-0.095214844,-0.09472656,-0.10253906,-0.10107422,-0.099121094,-0.09472656,-0.09667969,-0.09326172,-0.092285156,-0.09033203,-0.092285156,-0.09375,-0.1015625,-0.100097656,-0.09814453,-0.09375,-0.095703125,-0.092285156,-0.091308594,-0.08935547,-0.091308594,-0.091796875,-0.099609375,-0.09814453,-0.096191406,-0.091796875,-0.09375,-0.09033203,-0.08935547,-0.087402344,-0.08935547,-0.09375,-0.1015625,-0.100097656,-0.09814453,-0.09326172,-0.095214844,-0.092285156,-0.091308594,-0.08935547,-0.09082031,-0.104003906,-0.11230469,-0.11035156,-0.10839844,-0.104003906,-0.10595703,-0.10253906,-0.1015625,-0.099609375,-0.1015625,-0.11230469,-0.12011719,-0.118652344,-0.11669922,-0.111816406,-0.11376953,-0.110839844,-0.10986328,-0.107910156,-0.109375,-0.11035156,-0.118652344,-0.11669922,-0.114746094,-0.11035156,-0.11230469,-0.10888672,-0.107910156,-0.10595703,-0.107910156,-0.10839844,-0.11669922,-0.114746094,-0.11279297,-0.10839844,-0.11035156,-0.106933594,-0.10595703,-0.104003906,-0.10595703,-0.104003906,-0.111816406,-0.11035156,-0.10839844,-0.104003906,-0.10595703,-0.10253906,-0.1015625,-0.099609375,-0.1015625,-0.10595703,-0.11376953,-0.11230469,-0.11035156,-0.10595703,-0.107910156,-0.10449219,-0.103515625,-0.1015625,-0.103515625,-0.10253906,-0.110839844,-0.10888672,-0.106933594,-0.10253906,-0.10449219,-0.10107422,-0.100097656,-0.09814453,-0.100097656,-0.1015625,-0.10986328,-0.107910156,-0.10595703,-0.1015625,-0.103515625,-0.100097656,-0.099121094,-0.09716797,-0.099121094,-0.099609375,-0.107910156,-0.10595703,-0.104003906,-0.099609375,-0.1015625,-0.09814453,-0.09716797,-0.095214844,-0.09716797,-0.1015625,-0.109375,-0.107910156,-0.10595703,-0.1015625,-0.103515625,-0.100097656,-0.099121094,-0.09716797,-0.099121094,-0.10253906,-0.11035156,-0.10888672,-0.106933594,-0.10253906,-0.10449219,-0.10107422,-0.100097656,-0.09814453,-0.100097656,-0.11035156,-0.118652344,-0.11669922,-0.114746094,-0.11035156,-0.11230469,-0.10888672,-0.107910156,-0.10595703,-0.107910156,-0.10888672,-0.11669922,-0.115234375,-0.11328125,-0.10888672,-0.110839844,-0.107421875,-0.10644531,-0.10449219,-0.10644531,-0.106933594,-0.114746094,-0.11328125,-0.111328125,-0.106933594,-0.10888672,-0.10546875,-0.10449219,-0.10253906,-0.10449219,-0.10253906,-0.11035156,-0.10888672,-0.106933594,-0.10205078,-0.104003906,-0.10107422,-0.100097656,-0.09814453,-0.099609375,-0.10449219,-0.11230469,-0.110839844,-0.10888672,-0.104003906,-0.10595703,-0.103027344,-0.10205078,-0.100097656,-0.1015625,-0.10107422,-0.10888672,-0.107421875,-0.10546875,-0.10107422,-0.103027344,-0.099609375,-0.09863281,-0.09667969,-0.09863281,-0.100097656,-0.107910156,-0.10644531,-0.10449219,-0.100097656,-0.10205078,-0.09863281,-0.09765625,-0.095703125,-0.09765625,-0.09814453,-0.10595703,-0.10449219,-0.10253906,-0.09814453,-0.100097656,-0.09667969,-0.095703125,-0.09375,-0.095703125,-0.100097656,-0.107910156,-0.10644531,-0.10449219,-0.099609375,-0.1015625,-0.09863281,-0.09765625,-0.095703125,-0.09716797,-0.10058594,-0.10839844,-0.106933594,-0.10498047,-0.10058594,-0.10253906,-0.099121094,-0.09814453,-0.096191406,-0.09814453,-0.10839844,-0.11669922,-0.114746094,-0.11279297,-0.10839844,-0.11035156,-0.106933594,-0.10595703,-0.104003906,-0.10595703,-0.106933594,-0.114746094,-0.11328125,-0.111328125,-0.106933594,-0.10888672,-0.10546875,-0.10449219,-0.10253906,-0.10449219,-0.10498047,-0.11279297,-0.111328125,-0.109375,-0.10498047,-0.106933594,-0.103515625,-0.10253906,-0.10058594,-0.10253906,-0.10058594,-0.10839844,-0.106933594,-0.10498047,-0.100097656,-0.10205078,-0.099121094,-0.09814453,-0.096191406,-0.09765625,-0.10253906,-0.11035156,-0.10888672,-0.106933594,-0.10205078,-0.104003906,-0.10107422,-0.100097656,-0.09814453,-0.099609375,-0.099121094,-0.106933594,-0.10546875,-0.103515625,-0.099121094,-0.10107422,-0.09765625,-0.09667969,-0.09472656,-0.09667969,-0.09814453,-0.10595703,-0.10449219,-0.10253906,-0.09814453,-0.100097656,-0.09667969,-0.095703125,-0.09375,-0.095703125,-0.096191406,-0.104003906,-0.10253906,-0.10058594,-0.096191406,-0.09814453,-0.09472656,-0.09375,-0.091796875,-0.09375,-0.09814453,-0.10595703,-0.10449219,-0.10253906,-0.09765625,-0.099609375,-0.09667969,-0.095703125,-0.09375,-0.095214844,-0.096191406,-0.104003906,-0.10253906,-0.10058594,-0.095703125,-0.09765625,-0.09472656,-0.09375,-0.091796875,-0.09326172,-0.104003906,-0.111816406,-0.11035156,-0.10839844,-0.104003906,-0.10595703,-0.10253906,-0.1015625,-0.099609375,-0.1015625,-0.10253906,-0.11035156,-0.10888672,-0.106933594,-0.10205078,-0.104003906,-0.10107422,-0.100097656,-0.09814453,-0.099609375,-0.10058594,-0.10839844,-0.106933594,-0.10498047,-0.100097656,-0.10205078,-0.099121094,-0.09814453,-0.096191406,-0.09765625,-0.095703125,-0.104003906,-0.10205078,-0.100097656,-0.095703125,-0.09765625,-0.09423828,-0.09326172,-0.091308594,-0.09326172,-0.09765625,-0.10595703,-0.104003906,-0.10205078,-0.09765625,-0.099609375,-0.096191406,-0.095214844,-0.09326172,-0.095214844,-0.09472656,-0.10253906,-0.10107422,-0.099121094,-0.09423828,-0.096191406,-0.09326172,-0.092285156,-0.09033203,-0.091796875,-0.09375,-0.1015625,-0.100097656,-0.09814453,-0.09326172,-0.095214844,-0.092285156,-0.091308594,-0.08935547,-0.09082031,-0.091796875,-0.099609375,-0.09814453,-0.096191406,-0.091308594,-0.09326172,-0.09033203,-0.08935547,-0.087402344,-0.08886719,-0.09326172,-0.1015625,-0.099609375,-0.09765625,-0.09326172,-0.095214844,-0.091796875,-0.09082031,-0.08886719,-0.09082031,-0.09814453,-0.10595703,-0.10449219,-0.10253906,-0.09765625,-0.099609375,-0.09667969,-0.095703125,-0.09375,-0.095214844,-0.10595703,-0.11376953,-0.11230469,-0.11035156,-0.10595703,-0.107910156,-0.10449219,-0.103515625,-0.1015625,-0.103515625,-0.10449219,-0.11230469,-0.110839844,-0.10888672,-0.104003906,-0.10595703,-0.103027344,-0.10205078,-0.100097656,-0.1015625,-0.10253906,-0.11035156,-0.10888672,-0.106933594,-0.10205078,-0.104003906,-0.10107422,-0.100097656,-0.09814453,-0.099609375,-0.09765625,-0.10595703,-0.104003906,-0.10205078,-0.09765625,-0.099609375,-0.096191406,-0.095214844,-0.09326172,-0.095214844,-0.099609375,-0.107910156,-0.10595703,-0.104003906,-0.099609375,-0.1015625,-0.09814453,-0.09716797,-0.095214844,-0.09716797,-0.09667969,-0.10449219,-0.103027344,-0.10107422,-0.096191406,-0.09814453,-0.095214844,-0.09423828,-0.092285156,-0.09375,-0.095703125,-0.103515625,-0.10205078,-0.100097656,-0.095214844,-0.09716797,-0.09423828,-0.09326172,-0.091308594,-0.09277344,-0.09375,-0.1015625,-0.100097656,-0.09814453,-0.09326172,-0.095214844,-0.092285156,-0.091308594,-0.08935547,-0.09082031,-0.095214844,-0.103515625,-0.1015625,-0.099609375,-0.095214844,-0.09716797,-0.09375,-0.09277344,-0.09082031,-0.09277344,-0.09472656,-0.10253906,-0.10107422,-0.099121094,-0.09472656,-0.09667969,-0.09326172,-0.092285156,-0.09033203,-0.092285156,-0.10253906,-0.110839844,-0.10888672,-0.106933594,-0.10253906,-0.10449219,-0.10107422,-0.100097656,-0.09814453,-0.100097656,-0.10107422,-0.10888672,-0.107421875,-0.10546875,-0.10107422,-0.103027344,-0.099609375,-0.09863281,-0.09667969,-0.09863281,-0.099121094,-0.106933594,-0.10546875,-0.103515625,-0.099121094,-0.10107422,-0.09765625,-0.09667969,-0.09472656,-0.09667969,-0.09472656,-0.10253906,-0.10107422,-0.099121094,-0.09423828,-0.096191406,-0.09326172,-0.092285156,-0.09033203,-0.091796875,-0.09667969,-0.10449219,-0.103027344,-0.10107422,-0.096191406,-0.09814453,-0.095214844,-0.09423828,-0.092285156,-0.09375,-0.09326172,-0.10107422,-0.099609375,-0.09765625,-0.09326172,-0.095214844,-0.091796875,-0.09082031,-0.08886719,-0.09082031,-0.092285156,-0.100097656,-0.09863281,-0.09667969,-0.092285156,-0.09423828,-0.09082031,-0.08984375,-0.087890625,-0.08984375,-0.09033203,-0.09814453,-0.09667969,-0.09472656,-0.09033203,-0.092285156,-0.08886719,-0.087890625,-0.0859375,-0.087890625,-0.092285156,-0.100097656,-0.09863281,-0.09667969,-0.091796875,-0.09375,-0.09082031,-0.08984375,-0.087890625,-0.08935547,-0.09375,-0.1015625,-0.100097656,-0.09814453,-0.09375,-0.095703125,-0.092285156,-0.091308594,-0.08935547,-0.091308594,-0.1015625,-0.10986328,-0.107910156,-0.10595703,-0.1015625,-0.103515625,-0.100097656,-0.099121094,-0.09716797,-0.099121094,-0.100097656,-0.107910156,-0.10644531,-0.10449219,-0.100097656,-0.10205078,-0.09863281,-0.09765625,-0.095703125,-0.09765625,-0.09814453,-0.10595703,-0.10449219,-0.10253906,-0.09814453,-0.100097656,-0.09667969,-0.095703125,-0.09375,-0.095703125,-0.09375,-0.1015625,-0.100097656,-0.09814453,-0.09326172,-0.095214844,-0.092285156,-0.091308594,-0.08935547,-0.09082031,-0.095703125,-0.103515625,-0.10205078,-0.100097656,-0.095214844,-0.09716797,-0.09423828,-0.09326172,-0.091308594,-0.09277344,-0.092285156,-0.100097656,-0.09863281,-0.09667969,-0.092285156,-0.09423828,-0.09082031,-0.08984375,-0.087890625,-0.08984375,-0.091308594,-0.099121094,-0.09765625,-0.095703125,-0.091308594,-0.09326172,-0.08984375,-0.08886719,-0.08691406,-0.08886719,-0.08935547,-0.09716797,-0.095703125,-0.09375,-0.08935547,-0.091308594,-0.087890625,-0.08691406,-0.08496094,-0.08691406,-0.091308594,-0.099121094,-0.09765625,-0.095703125,-0.09082031,-0.09277344,-0.08984375,-0.08886719,-0.08691406,-0.088378906,-0.091796875,-0.099609375,-0.09814453,-0.096191406,-0.091796875,-0.09375,-0.09033203,-0.08935547,-0.087402344,-0.08935547,-0.099609375,-0.107910156,-0.10595703,-0.104003906,-0.099609375,-0.1015625,-0.09814453,-0.09716797,-0.095214844,-0.09716797,-0.09814453,-0.10595703,-0.10449219,-0.10253906,-0.09814453,-0.100097656,-0.09667969,-0.095703125,-0.09375,-0.095703125,-0.096191406,-0.104003906,-0.10253906,-0.10058594,-0.096191406,-0.09814453,-0.09472656,-0.09375,-0.091796875,-0.09375,-0.091796875,-0.099609375,-0.09814453,-0.096191406,-0.091308594,-0.09326172,-0.09033203,-0.08935547,-0.087402344,-0.08886719,-0.09375,-0.1015625,-0.100097656,-0.09814453,-0.09326172,-0.095214844,-0.092285156,-0.091308594,-0.08935547,-0.09082031,-0.09033203,-0.09814453,-0.09667969,-0.09472656,-0.09033203,-0.092285156,-0.08886719,-0.087890625,-0.0859375,-0.087890625,-0.08935547,-0.09716797,-0.095703125,-0.09375,-0.08935547,-0.091308594,-0.087890625,-0.08691406,-0.08496094,-0.08691406,-0.087402344,-0.095214844,-0.09375,-0.091796875,-0.087402344,-0.08935547,-0.0859375,-0.08496094,-0.08300781,-0.08496094,-0.08935547,-0.09716797,-0.095703125,-0.09375,-0.08886719,-0.09082031,-0.087890625,-0.08691406,-0.08496094,-0.08642578,-0.09375,-0.1015625,-0.100097656,-0.09814453,-0.09326172,-0.095214844,-0.092285156,-0.091308594,-0.08935547,-0.09082031,-0.1015625,-0.109375,-0.107910156,-0.10595703,-0.1015625,-0.103515625,-0.100097656,-0.099121094,-0.09716797,-0.099121094,-0.100097656,-0.107910156,-0.10644531,-0.10449219,-0.099609375,-0.1015625,-0.09863281,-0.09765625,-0.095703125,-0.09716797,-0.09814453,-0.10595703,-0.10449219,-0.10253906,-0.09765625,-0.099609375,-0.09667969,-0.095703125,-0.09375,-0.095214844,-0.09326172,-0.1015625,-0.099609375,-0.09765625,-0.09326172,-0.095214844,-0.091796875,-0.09082031,-0.08886719,-0.09082031,-0.095214844,-0.103515625,-0.1015625,-0.099609375,-0.095214844,-0.09716797,-0.09375,-0.09277344,-0.09082031,-0.09277344,-0.092285156,-0.100097656,-0.09863281,-0.09667969,-0.091796875,-0.09375,-0.09082031,-0.08984375,-0.087890625,-0.08935547,-0.091308594,-0.099121094,-0.09765625,-0.095703125,-0.09082031,-0.09277344,-0.08984375,-0.08886719,-0.08691406,-0.088378906,-0.08935547,-0.09716797,-0.095703125,-0.09375,-0.08886719,-0.09082031,-0.087890625,-0.08691406,-0.08496094,-0.08642578,-0.09082031,-0.099121094,-0.09716797,-0.095214844,-0.09082031,-0.09277344,-0.08935547,-0.088378906,-0.08642578,-0.088378906
kangaroo,-0.006958008,-0.0065307617,-0.004333496,-0.0066833496,-0.0050354004,-0.007080078,-0.007537842,-0.008422852,-0.0076293945,-0.008544922,-0.006958008,-0.0067443848,-0.005645752,-0.0068359375,-0.0059814453,-0.007019043,-0.007232666,-0.0076904297,-0.007293701,-0.007751465,-0.0067443848,-0.0065307617,-0.005432129,-0.0066223145,-0.00579834,-0.00680542,-0.0070495605,-0.007507324,-0.007080078,-0.007537842,-0.005645752,-0.005432129,-0.004333496,-0.0055236816,-0.0046691895,-0.005706787,-0.00592041,-0.0064086914,-0.0059814453,-0.006439209,-0.0068359375,-0.0066223145,-0.0055236816,-0.0066833496,-0.005859375,-0.0068969727,-0.0071105957,-0.0075683594,-0.007171631,-0.0076293945,-0.0059814453,-0.00579834,-0.0046691895,-0.005859375,-0.0050354004,-0.0060424805,-0.006286621,-0.0067443848,-0.0063171387,-0.0067749023,-0.007019043,-0.00680542,-0.005706787,-0.0068969727,-0.0060424805,-0.007080078,-0.0073242188,-0.0077819824,-0.0073547363,-0.0078125,-0.007232666,-0.0070495605,-0.00592041,-0.0071105957,-0.006286621,-0.0073242188,-0.007537842,-0.0079956055,-0.0075683594,-0.008056641,-0.0076904297,-0.007507324,-0.0064086914,-0.0075683594,-0.0067443848,-0.0077819824,-0.0079956055,-0.008422852,-0.008056641,-0.008483887,-0.007293701,-0.007080078,-0.0059814453,-0.007171631,-0.0063171387,-0.0073547363,-0.0075683594,-0.008056641,-0.0076293945,-0.008056641,-0.007751465,-0.007537842,-0.006439209,-0.0076293945,-0.0067749023,-0.0078125,-0.008056641,-0.008483887,-0.008056641,-0.008544922,-0.006958008,-0.00680542,-0.006072998,-0.006866455,-0.0063171387,-0.0069885254,-0.0071411133,-0.007446289,-0.007171631,-0.0074768066,-0.00680542,-0.0066833496,-0.0059509277,-0.006713867,-0.006164551,-0.006866455,-0.007019043,-0.0073242188,-0.0070495605,-0.0073547363,-0.006072998,-0.0059509277,-0.005218506,-0.0059814453,-0.005432129,-0.006134033,-0.006286621,-0.006591797,-0.0063171387,-0.0066223145,-0.006866455,-0.006713867,-0.0059814453,-0.0067749023,-0.006225586,-0.0068969727,-0.0070495605,-0.0073547363,-0.007080078,-0.007385254,-0.0063171387,-0.006164551,-0.005432129,-0.006225586,-0.0056762695,-0.0063476562,-0.006500244,-0.00680542,-0.0065307617,-0.0068359375,-0.0069885254,-0.006866455,-0.006134033,-0.0068969727,-0.0063476562,-0.0070495605,-0.0072021484,-0.007507324,-0.007232666,-0.007537842,-0.0071411133,-0.007019043,-0.006286621,-0.0070495605,-0.006500244,-0.0072021484,-0.0073547363,-0.007659912,-0.007385254,-0.0076904297,-0.007446289,-0.0073242188,-0.006591797,-0.0073547363,-0.00680542,-0.007507324,-0.007659912,-0.00793457,-0.0076904297,-0.0079956055,-0.007171631,-0.0070495605,-0.0063171387,-0.007080078,-0.0065307617,-0.007232666,-0.007385254,-0.0076904297,-0.0074157715,-0.0077209473,-0.0074768066,-0.0073547363,-0.0066223145,-0.007385254,-0.0068359375,-0.007537842,-0.0076904297,-0.0079956055,-0.0077209473,-0.0079956055,-0.00680542,-0.0066833496,-0.0059509277,-0.006713867,-0.006164551,-0.006866455,-0.007019043,-0.0073242188,-0.0070495605,-0.0073547363,-0.0066833496,-0.0065307617,-0.00579834,-0.006591797,-0.0060424805,-0.006713867,-0.006866455,-0.007171631,-0.0068969727,-0.0072021484,-0.0059509277,-0.00579834,-0.005065918,-0.005859375,-0.0053100586,-0.0059814453,-0.006134033,-0.006439209,-0.006164551,-0.0064697266,-0.006713867,-0.006591797,-0.005859375,-0.006652832,-0.006072998,-0.0067749023,-0.0069274902,-0.007232666,-0.006958008,-0.0072631836,-0.006164551,-0.0060424805,-0.0053100586,-0.006072998,-0.0055236816,-0.006225586,-0.006378174,-0.0066833496,-0.0064086914,-0.006713867,-0.006866455,-0.006713867,-0.0059814453,-0.0067749023,-0.006225586,-0.0068969727,-0.0070495605,-0.0073547363,-0.007080078,-0.007385254,-0.007019043,-0.006866455,-0.006134033,-0.0069274902,-0.006378174,-0.0070495605,-0.0072021484,-0.007507324,-0.007232666,-0.007537842,-0.0073242188,-0.007171631,-0.006439209,-0.007232666,-0.0066833496,-0.0073547363,-0.007507324,-0.0078125,-0.007537842,-0.007873535,-0.0070495605,-0.0068969727,-0.006164551,-0.006958008,-0.0064086914,-0.007080078,-0.007232666,-0.007537842,-0.0072631836,-0.0075683594,-0.0073547363,-0.0072021484,-0.0064697266,-0.0072631836,-0.006713867,-0.007385254,-0.007537842,-0.007873535,-0.0075683594,-0.007873535,-0.006072998,-0.0059509277,-0.005218506,-0.0059814453,-0.005432129,-0.006134033,-0.006286621,-0.006591797,-0.0063171387,-0.0066223145,-0.0059509277,-0.00579834,-0.005065918,-0.005859375,-0.0053100586,-0.0059814453,-0.006134033,-0.006439209,-0.006164551,-0.0064697266,-0.005218506,-0.005065918,-0.004333496,-0.005126953,-0.0045776367,-0.0052490234,-0.0054016113,-0.005706787,-0.005432129,-0.0057373047,-0.0059814453,-0.005859375,-0.005126953,-0.00592041,-0.005340576,-0.0060424805,-0.0061950684,-0.006500244,-0.006225586,-0.0065307617,-0.005432129,-0.0053100586,-0.0045776367,-0.005340576,-0.0047912598,-0.005493164,-0.005645752,-0.0059509277,-0.0056762695,-0.0059814453,-0.006134033,-0.0059814453,-0.0052490234,-0.0060424805,-0.005493164,-0.006164551,-0.0063171387,-0.0066223145,-0.0063476562,-0.006652832,-0.006286621,-0.006134033,-0.0054016113,-0.0061950684,-0.005645752,-0.0063171387,-0.0064697266,-0.0067749023,-0.006500244,-0.00680542,-0.006591797,-0.006439209,-0.005706787,-0.006500244,-0.0059509277,-0.0066223145,-0.0067749023,-0.007080078,-0.00680542,-0.0071105957,-0.0063171387,-0.006164551,-0.005432129,-0.006225586,-0.0056762695,-0.0063476562,-0.006500244,-0.00680542,-0.0065307617,-0.0068359375,-0.0066223145,-0.0064697266,-0.0057373047,-0.0065307617,-0.0059814453,-0.006652832,-0.00680542,-0.0071105957,-0.0068359375,-0.0071411133,-0.006866455,-0.006713867,-0.0059814453,-0.0067749023,-0.006225586,-0.0068969727,-0.0070495605,-0.0073547363,-0.007080078,-0.007385254,-0.006713867,-0.006591797,-0.005859375,-0.006652832,-0.006072998,-0.0067749023,-0.0069274902,-0.007232666,-0.006958008,-0.0072631836,-0.0059814453,-0.005859375,-0.005126953,-0.00592041,-0.005340576,-0.0060424805,-0.0061950684,-0.006500244,-0.006225586,-0.0065307617,-0.0067749023,-0.006652832,-0.00592041,-0.0066833496,-0.006134033,-0.0068359375,-0.0069885254,-0.007293701,-0.007019043,-0.0073242188,-0.006225586,-0.006072998,-0.005340576,-0.006134033,-0.005584717,-0.0062561035,-0.0064086914,-0.006713867,-0.006439209,-0.0067443848,-0.0068969727,-0.0067749023,-0.0060424805,-0.0068359375,-0.0062561035,-0.006958008,-0.0071105957,-0.0074157715,-0.0071411133,-0.007446289,-0.0070495605,-0.0069274902,-0.0061950684,-0.0069885254,-0.0064086914,-0.0071105957,-0.0072631836,-0.0075683594,-0.007293701,-0.007598877,-0.0073547363,-0.007232666,-0.006500244,-0.007293701,-0.006713867,-0.0074157715,-0.0075683594,-0.007873535,-0.007598877,-0.007873535,-0.007080078,-0.006958008,-0.006225586,-0.007019043,-0.006439209,-0.0071411133,-0.007293701,-0.007598877,-0.0073242188,-0.0076293945,-0.007385254,-0.0072631836,-0.0065307617,-0.0073242188,-0.0067443848,-0.007446289,-0.007598877,-0.007873535,-0.0076293945,-0.00793457,-0.0063171387,-0.006164551,-0.005432129,-0.006225586,-0.0056762695,-0.0063476562,-0.006500244,-0.00680542,-0.0065307617,-0.0068359375,-0.006164551,-0.0060424805,-0.0053100586,-0.006072998,-0.0055236816,-0.006225586,-0.006378174,-0.0066833496,-0.0064086914,-0.006713867,-0.005432129,-0.0053100586,-0.0045776367,-0.005340576,-0.0047912598,-0.005493164,-0.005645752,-0.0059509277,-0.0056762695,-0.0059814453,-0.006225586,-0.006072998,-0.005340576,-0.006134033,-0.005584717,-0.0062561035,-0.0064086914,-0.006713867,-0.006439209,-0.0067443848,-0.0056762695,-0.0055236816,-0.0047912598,-0.005584717,-0.0050354004,-0.005706787,-0.005859375,-0.006164551,-0.0058898926,-0.0061950684,-0.0063476562,-0.006225586,-0.005493164,-0.0062561035,-0.005706787,-0.0064086914,-0.0065612793,-0.006866455,-0.006591797,-0.0068969727,-0.006500244,-0.006378174,-0.005645752,-0.0064086914,-0.005859375,-0.0065612793,-0.006713867,-0.007019043,-0.0067443848,-0.0070495605,-0.00680542,-0.0066833496,-0.0059509277,-0.006713867,-0.006164551,-0.006866455,-0.007019043,-0.0073242188,-0.0070495605,-0.0073547363,-0.0065307617,-0.0064086914,-0.0056762695,-0.006439209,-0.0058898926,-0.006591797,-0.0067443848,-0.0070495605,-0.0067749023,-0.007080078,-0.0068359375,-0.006713867,-0.0059814453,-0.0067443848,-0.0061950684,-0.0068969727,-0.0070495605,-0.0073547363,-0.007080078,-0.007385254,-0.0069885254,-0.006866455,-0.006134033,-0.0068969727,-0.0063476562,-0.0070495605,-0.0072021484,-0.007507324,-0.007232666,-0.007537842,-0.006866455,-0.006713867,-0.0059814453,-0.0067749023,-0.006225586,-0.0068969727,-0.0070495605,-0.0073547363,-0.007080078,-0.007385254,-0.006134033,-0.0059814453,-0.0052490234,-0.0060424805,-0.005493164,-0.006164551,-0.0063171387,-0.0066223145,-0.0063476562,-0.006652832,-0.0068969727,-0.0067749023,-0.0060424805,-0.0068359375,-0.0062561035,-0.006958008,-0.0071105957,-0.0074157715,-0.0071411133,-0.007446289,-0.0063476562,-0.006225586,-0.005493164,-0.0062561035,-0.005706787,-0.0064086914,-0.0065612793,-0.006866455,-0.006591797,-0.0068969727,-0.0070495605,-0.0068969727,-0.006164551,-0.006958008,-0.0064086914,-0.007080078,-0.007232666,-0.007537842,-0.0072631836,-0.0075683594,-0.0072021484,-0.0070495605,-0.0063171387,-0.0071105957,-0.0065612793,-0.007232666,-0.007385254,-0.0076904297,-0.0074157715,-0.0077209473,-0.007507324,-0.0073547363,-0.0066223145,-0.0074157715,-0.006866455,-0.007537842,-0.0076904297,-0.0079956055,-0.0077209473,-0.008056641,-0.007232666,-0.007080078,-0.0063476562,-0.0071411133,-0.006591797,-0.0072631836,-0.0074157715,-0.0077209473,-0.007446289,-0.007751465,-0.007537842,-0.007385254,-0.006652832,-0.007446289,-0.0068969727,-0.0075683594,-0.0077209473,-0.008056641,-0.007751465,-0.008056641,-0.0071411133,-0.007019043,-0.006286621,-0.0070495605,-0.006500244,-0.0072021484,-0.0073547363,-0.007659912,-0.007385254,-0.0076904297,-0.007019043,-0.006866455,-0.006134033,-0.0069274902,-0.006378174,-0.0070495605,-0.0072021484,-0.007507324,-0.007232666,-0.007537842,-0.006286621,-0.006134033,-0.0054016113,-0.0061950684,-0.005645752,-0.0063171387,-0.0064697266,-0.0067749023,-0.006500244,-0.00680542,-0.0070495605,-0.0069274902,-0.0061950684,-0.0069885254,-0.0064086914,-0.0071105957,-0.0072631836,-0.0075683594,-0.007293701,-0.007598877,-0.006500244,-0.006378174,-0.005645752,-0.0064086914,-0.005859375,-0.0065612793,-0.006713867,-0.007019043,-0.0067443848,-0.0070495605,-0.0072021484,-0.0070495605,-0.0063171387,-0.0071105957,-0.0065612793,-0.007232666,-0.007385254,-0.0076904297,-0.0074157715,-0.0077209473,-0.0073547363,-0.0072021484,-0.0064697266,-0.0072631836,-0.006713867,-0.007385254,-0.007537842,-0.0078125,-0.0075683594,-0.007873535,-0.007659912,-0.007507324,-0.0067749023,-0.0075683594,-0.007019043,-0.0076904297,-0.0078125,-0.008178711,-0.007873535,-0.008178711,-0.007385254,-0.007232666,-0.006500244,-0.007293701,-0.0067443848,-0.0074157715,-0.0075683594,-0.007873535,-0.007598877,-0.00793457,-0.0076904297,-0.007537842,-0.00680542,-0.007598877,-0.0070495605,-0.0077209473,-0.007873535,-0.008178711,-0.00793457,-0.008178711,-0.007446289,-0.0073242188,-0.006591797,-0.0073547363,-0.00680542,-0.007507324,-0.007659912,-0.00793457,-0.0076904297,-0.0079956055,-0.0073242188,-0.007171631,-0.006439209,-0.007232666,-0.0066833496,-0.0073547363,-0.007507324,-0.0078125,-0.007537842,-0.007873535,-0.006591797,-0.006439209,-0.005706787,-0.006500244,-0.0059509277,-0.0066223145,-0.0067749023,-0.007080078,-0.00680542,-0.0071105957,-0.0073547363,-0.007232666,-0.006500244,-0.007293701,-0.006713867,-0.0074157715,-0.0075683594,-0.007873535,-0.007598877,-0.007873535,-0.00680542,-0.0066833496,-0.0059509277,-0.006713867,-0.006164551,-0.006866455,-0.007019043,-0.0073242188,-0.0070495605,-0.0073547363,-0.007507324,-0.0073547363,-0.0066223145,-0.0074157715,-0.006866455,-0.007537842,-0.0076904297,-0.0079956055,-0.0077209473,-0.008056641,-0.007659912,-0.007507324,-0.0067749023,-0.0075683594,-0.007019043,-0.0076904297,-0.0078125,-0.008178711,-0.007873535,-0.008178711,-0.00793457,-0.0078125,-0.007080078,-0.007873535,-0.0073242188,-0.0079956055,-0.008178711,-0.008422852,-0.008178711,-0.008483887,-0.0076904297,-0.007537842,-0.00680542,-0.007598877,-0.0070495605,-0.0077209473,-0.007873535,-0.008178711,-0.00793457,-0.008178711,-0.0079956055,-0.007873535,-0.0071105957,-0.007873535,-0.0073547363,-0.008056641,-0.008178711,-0.008483887,-0.008178711,-0.008544922,-0.007171631,-0.0070495605,-0.0063171387,-0.007080078,-0.0065307617,-0.007232666,-0.007385254,-0.0076904297,-0.0074157715,-0.0077209473,-0.0070495605,-0.0068969727,-0.006164551,-0.006958008,-0.0064086914,-0.007080078,-0.007232666,-0.007537842,-0.0072631836,-0.0075683594,-0.0063171387,-0.006164551,-0.005432129,-0.006225586,-0.0056762695,-0.0063476562,-0.006500244,-0.00680542,-0.0065307617,-0.0068359375,-0.007080078,-0.006958008,-0.006225586,-0.007019043,-0.006439209,-0.0071411133,-0.007293701,-0.007598877,-0.0073242188,-0.0076293945,-0.0065307617,-0.0064086914,-0.0056762695,-0.006439209,-0.0058898926,-0.006591797,-0.0067443848,-0.0070495605,-0.0067749023,-0.007080078,-0.007232666,-0.007080078,-0.0063476562,-0.0071411133,-0.006591797,-0.0072631836,-0.0074157715,-0.0077209473,-0.007446289,-0.007751465,-0.007385254,-0.007232666,-0.006500244,-0.007293701,-0.0067443848,-0.0074157715,-0.0075683594,-0.007873535,-0.007598877,-0.00793457,-0.0076904297,-0.007537842,-0.00680542,-0.007598877,-0.0070495605,-0.0077209473,-0.007873535,-0.008178711,-0.00793457,-0.008178711,-0.0074157715,-0.0072631836,-0.0065307617,-0.0073242188,-0.0067749023,-0.007446289,-0.007598877,-0.00793457,-0.0076293945,-0.00793457,-0.0077209473,-0.0075683594,-0.0068359375,-0.0076293945,-0.007080078,-0.007751465,-0.00793457,-0.008178711,-0.00793457,-0.008239746,-0.0074768066,-0.0073547363,-0.0066223145,-0.007385254,-0.0068359375,-0.007537842,-0.0076904297,-0.0079956055,-0.0077209473,-0.0079956055,-0.0073547363,-0.0072021484,-0.0064697266,-0.0072631836,-0.006713867,-0.007385254,-0.007537842,-0.007873535,-0.0075683594,-0.007873535,-0.0066223145,-0.0064697266,-0.0057373047,-0.0065307617,-0.0059814453,-0.006652832,-0.00680542,-0.0071105957,-0.0068359375,-0.0071411133,-0.007385254,-0.0072631836,-0.0065307617,-0.0073242188,-0.0067443848,-0.007446289,-0.007598877,-0.007873535,-0.0076293945,-0.00793457,-0.0068359375,-0.006713867,-0.0059814453,-0.0067443848,-0.0061950684,-0.0068969727,-0.0070495605,-0.0073547363,-0.007080078,-0.007385254,-0.007537842,-0.007385254,-0.006652832,-0.007446289,-0.0068969727,-0.0075683594,-0.0077209473,-0.008056641,-0.007751465,-0.008056641,-0.0076904297,-0.007537842,-0.00680542,-0.007598877,-0.0070495605,-0.0077209473,-0.007873535,-0.008178711,-0.00793457,-0.008178711,-0.0079956055,-0.007873535,-0.0071105957,-0.007873535,-0.0073547363,-0.008056641,-0.008178711,-0.008483887,-0.008178711,-0.008544922,-0.0077209473,-0.0075683594,-0.0068359375,-0.0076293945,-0.007080078,-0.007751465,-0.00793457,-0.008178711,-0.00793457,-0.008239746,-0.0079956055,-0.007873535,-0.0071411133,-0.00793457,-0.007385254,-0.008056641,-0.008178711,-0.008544922,-0.008239746,-0.008544922
penguin,0.010009766,0.014160156,0.012207031,0.010009766,0.008544922,0.0068359375,0.009521484,0.008056641,0.011474609,0.0078125,0.010009766,0.012084961,0.011108398,0.010009766,0.009277344,0.008422852,0.009765625,0.009033203,0.0107421875,0.008911133,0.012084961,0.014160156,0.013183594,0.012084961,0.011352539,0.010498047,0.01184082,0.011108398,0.012817383,0.010986328,0.011108398,0.013183594,0.012207031,0.011108398,0.010375977,0.009521484,0.010864258,0.010131836,0.01184082,0.010009766,0.010009766,0.012084961,0.011108398,0.010009766,0.009277344,0.008422852,0.009765625,0.009033203,0.0107421875,0.008911133,0.009277344,0.011352539,0.010375977,0.009277344,0.008544922,0.0076904297,0.009033203,0.008300781,0.010009766,0.008178711,0.008422852,0.010498047,0.009521484,0.008422852,0.0076904297,0.0068359375,0.008178711,0.007446289,0.009155273,0.0073242188,0.009765625,0.01184082,0.010864258,0.009765625,0.009033203,0.008178711,0.009521484,0.0087890625,0.010498047,0.008666992,0.009033203,0.011108398,0.010131836,0.009033203,0.008300781,0.007446289,0.0087890625,0.008056641,0.009765625,0.00793457,0.0107421875,0.012817383,0.01184082,0.0107421875,0.010009766,0.009155273,0.010498047,0.009765625,0.011474609,0.009643555,0.008911133,0.010986328,0.010009766,0.008911133,0.008178711,0.0073242188,0.008666992,0.00793457,0.009643555,0.0078125,0.010009766,0.011413574,0.0107421875,0.010009766,0.009521484,0.008972168,0.00982666,0.009338379,0.010498047,0.009277344,0.011413574,0.012756348,0.012145996,0.011413574,0.010925293,0.010314941,0.011230469,0.0107421875,0.0119018555,0.010681152,0.0107421875,0.012145996,0.011474609,0.0107421875,0.010253906,0.00970459,0.010559082,0.010070801,0.011230469,0.010009766,0.010009766,0.011413574,0.0107421875,0.010009766,0.009521484,0.008972168,0.00982666,0.009338379,0.010498047,0.009277344,0.009521484,0.010925293,0.010253906,0.009521484,0.009033203,0.008483887,0.009338379,0.008850098,0.010009766,0.0087890625,0.008972168,0.010314941,0.00970459,0.008972168,0.008483887,0.007873535,0.0087890625,0.008300781,0.009460449,0.008239746,0.00982666,0.011230469,0.010559082,0.00982666,0.009338379,0.0087890625,0.00970459,0.009216309,0.010314941,0.009094238,0.009338379,0.0107421875,0.010070801,0.009338379,0.008850098,0.008300781,0.009216309,0.008728027,0.00982666,0.008605957,0.010498047,0.0119018555,0.011230469,0.010498047,0.010009766,0.009460449,0.010314941,0.00982666,0.010986328,0.009765625,0.009277344,0.010681152,0.010009766,0.009277344,0.0087890625,0.008239746,0.009094238,0.008605957,0.009765625,0.008544922,0.011413574,0.012756348,0.012145996,0.011413574,0.010925293,0.010314941,0.011230469,0.0107421875,0.0119018555,0.010681152,0.012756348,0.014160156,0.0134887695,0.012756348,0.012268066,0.01171875,0.012634277,0.012145996,0.013244629,0.012023926,0.012145996,0.0134887695,0.012878418,0.012145996,0.011657715,0.011047363,0.011962891,0.011474609,0.012634277,0.011413574,0.011413574,0.012756348,0.012145996,0.011413574,0.010925293,0.010314941,0.011230469,0.0107421875,0.0119018555,0.010681152,0.010925293,0.012268066,0.011657715,0.010925293,0.010437012,0.00982666,0.0107421875,0.010253906,0.011413574,0.010192871,0.010314941,0.01171875,0.011047363,0.010314941,0.00982666,0.009277344,0.010192871,0.00970459,0.010803223,0.0095825195,0.011230469,0.012634277,0.011962891,0.011230469,0.0107421875,0.010192871,0.011047363,0.010559082,0.01171875,0.010498047,0.0107421875,0.012145996,0.011474609,0.0107421875,0.010253906,0.00970459,0.010559082,0.010070801,0.011230469,0.010009766,0.0119018555,0.013244629,0.012634277,0.0119018555,0.011413574,0.010803223,0.01171875,0.011230469,0.012390137,0.011169434,0.010681152,0.012023926,0.011413574,0.010681152,0.010192871,0.0095825195,0.010498047,0.010009766,0.011169434,0.0099487305,0.0107421875,0.012145996,0.011474609,0.0107421875,0.010253906,0.00970459,0.010559082,0.010070801,0.011230469,0.010009766,0.012145996,0.0134887695,0.012878418,0.012145996,0.011657715,0.011047363,0.011962891,0.011474609,0.012634277,0.011413574,0.011474609,0.012878418,0.012207031,0.011474609,0.010986328,0.010437012,0.011291504,0.010803223,0.011962891,0.0107421875,0.0107421875,0.012145996,0.011474609,0.0107421875,0.010253906,0.00970459,0.010559082,0.010070801,0.011230469,0.010009766,0.010253906,0.011657715,0.010986328,0.010253906,0.009765625,0.009216309,0.010070801,0.0095825195,0.0107421875,0.009521484,0.00970459,0.011047363,0.010437012,0.00970459,0.009216309,0.008605957,0.009521484,0.009033203,0.010192871,0.008972168,0.010559082,0.011962891,0.011291504,0.010559082,0.010070801,0.009521484,0.010437012,0.0099487305,0.011047363,0.00982666,0.010070801,0.011474609,0.010803223,0.010070801,0.0095825195,0.009033203,0.0099487305,0.009460449,0.010559082,0.009338379,0.011230469,0.012634277,0.011962891,0.011230469,0.0107421875,0.010192871,0.011047363,0.010559082,0.01171875,0.010498047,0.010009766,0.011413574,0.0107421875,0.010009766,0.009521484,0.008972168,0.00982666,0.009338379,0.010498047,0.009277344,0.010009766,0.011413574,0.0107421875,0.010009766,0.009521484,0.008972168,0.00982666,0.009338379,0.010498047,0.009277344,0.011413574,0.012756348,0.012145996,0.011413574,0.010925293,0.010314941,0.011230469,0.0107421875,0.0119018555,0.010681152,0.0107421875,0.012145996,0.011474609,0.0107421875,0.010253906,0.00970459,0.010559082,0.010070801,0.011230469,0.010009766,0.010009766,0.011413574,0.0107421875,0.010009766,0.009521484,0.008972168,0.00982666,0.009338379,0.010498047,0.009277344,0.009521484,0.010925293,0.010253906,0.009521484,0.009033203,0.008483887,0.009338379,0.008850098,0.010009766,0.0087890625,0.008972168,0.010314941,0.00970459,0.008972168,0.008483887,0.007873535,0.0087890625,0.008300781,0.009460449,0.008239746,0.00982666,0.011230469,0.010559082,0.00982666,0.009338379,0.0087890625,0.00970459,0.009216309,0.010314941,0.009094238,0.009338379,0.0107421875,0.010070801,0.009338379,0.008850098,0.008300781,0.009216309,0.008728027,0.00982666,0.008605957,0.010498047,0.0119018555,0.011230469,0.010498047,0.010009766,0.009460449,0.010314941,0.00982666,0.010986328,0.009765625,0.009277344,0.010681152,0.010009766,0.009277344,0.0087890625,0.008239746,0.009094238,0.008605957,0.009765625,0.008544922,0.009521484,0.010925293,0.010253906,0.009521484,0.009033203,0.008483887,0.009338379,0.008850098,0.010009766,0.0087890625,0.010925293,0.012268066,0.011657715,0.010925293,0.010437012,0.00982666,0.0107421875,0.010253906,0.011413574,0.010192871,0.010253906,0.011657715,0.010986328,0.010253906,0.009765625,0.009216309,0.010070801,0.0095825195,0.0107421875,0.009521484,0.009521484,0.010925293,0.010253906,0.009521484,0.009033203,0.008483887,0.009338379,0.008850098,0.010009766,0.0087890625,0.009033203,0.010437012,0.009765625,0.009033203,0.008544922,0.0079956055,0.008850098,0.008361816,0.009521484,0.008300781,0.008483887,0.00982666,0.009216309,0.008483887,0.0079956055,0.0074157715,0.008300781,0.0078125,0.008972168,0.0077209473,0.009338379,0.0107421875,0.010070801,0.009338379,0.008850098,0.008300781,0.009216309,0.008728027,0.00982666,0.008605957,0.008850098,0.010253906,0.0095825195,0.008850098,0.008361816,0.0078125,0.008728027,0.008239746,0.009338379,0.008117676,0.010009766,0.011413574,0.0107421875,0.010009766,0.009521484,0.008972168,0.00982666,0.009338379,0.010498047,0.009277344,0.0087890625,0.010192871,0.009521484,0.0087890625,0.008300781,0.0077209473,0.008605957,0.008117676,0.009277344,0.008056641,0.008972168,0.010314941,0.00970459,0.008972168,0.008483887,0.007873535,0.0087890625,0.008300781,0.009460449,0.008239746,0.010314941,0.01171875,0.011047363,0.010314941,0.00982666,0.009277344,0.010192871,0.00970459,0.010803223,0.0095825195,0.00970459,0.011047363,0.010437012,0.00970459,0.009216309,0.008605957,0.009521484,0.009033203,0.010192871,0.008972168,0.008972168,0.010314941,0.00970459,0.008972168,0.008483887,0.007873535,0.0087890625,0.008300781,0.009460449,0.008239746,0.008483887,0.00982666,0.009216309,0.008483887,0.0079956055,0.0074157715,0.008300781,0.0078125,0.008972168,0.0077209473,0.007873535,0.009277344,0.008605957,0.007873535,0.0074157715,0.0068359375,0.0077209473,0.007232666,0.008361816,0.007171631,0.0087890625,0.010192871,0.009521484,0.0087890625,0.008300781,0.0077209473,0.008605957,0.008117676,0.009277344,0.008056641,0.008300781,0.00970459,0.009033203,0.008300781,0.0078125,0.007232666,0.008117676,0.007659912,0.0087890625,0.0075683594,0.009460449,0.010803223,0.010192871,0.009460449,0.008972168,0.008361816,0.009277344,0.0087890625,0.0099487305,0.008728027,0.008239746,0.0095825195,0.008972168,0.008239746,0.0077209473,0.007171631,0.008056641,0.0075683594,0.008728027,0.0074768066,0.00982666,0.011230469,0.010559082,0.00982666,0.009338379,0.0087890625,0.00970459,0.009216309,0.010314941,0.009094238,0.011230469,0.012634277,0.011962891,0.011230469,0.0107421875,0.010192871,0.011047363,0.010559082,0.01171875,0.010498047,0.010559082,0.011962891,0.011291504,0.010559082,0.010070801,0.009521484,0.010437012,0.0099487305,0.011047363,0.00982666,0.00982666,0.011230469,0.010559082,0.00982666,0.009338379,0.0087890625,0.00970459,0.009216309,0.010314941,0.009094238,0.009338379,0.0107421875,0.010070801,0.009338379,0.008850098,0.008300781,0.009216309,0.008728027,0.00982666,0.008605957,0.0087890625,0.010192871,0.009521484,0.0087890625,0.008300781,0.0077209473,0.008605957,0.008117676,0.009277344,0.008056641,0.00970459,0.011047363,0.010437012,0.00970459,0.009216309,0.008605957,0.009521484,0.009033203,0.010192871,0.008972168,0.009216309,0.010559082,0.0099487305,0.009216309,0.008728027,0.008117676,0.009033203,0.008544922,0.00970459,0.008483887,0.010314941,0.01171875,0.011047363,0.010314941,0.00982666,0.009277344,0.010192871,0.00970459,0.010803223,0.0095825195,0.009094238,0.010498047,0.00982666,0.009094238,0.008605957,0.008056641,0.008972168,0.008483887,0.0095825195,0.008361816,0.009338379,0.0107421875,0.010070801,0.009338379,0.008850098,0.008300781,0.009216309,0.008728027,0.00982666,0.008605957,0.0107421875,0.012145996,0.011474609,0.0107421875,0.010253906,0.00970459,0.010559082,0.010070801,0.011230469,0.010009766,0.010070801,0.011474609,0.010803223,0.010070801,0.0095825195,0.009033203,0.0099487305,0.009460449,0.010559082,0.009338379,0.009338379,0.0107421875,0.010070801,0.009338379,0.008850098,0.008300781,0.009216309,0.008728027,0.00982666,0.008605957,0.008850098,0.010253906,0.0095825195,0.008850098,0.008361816,0.0078125,0.008728027,0.008239746,0.009338379,0.008117676,0.008300781,0.00970459,0.009033203,0.008300781,0.0078125,0.007232666,0.008117676,0.007659912,0.0087890625,0.0075683594,0.009216309,0.010559082,0.0099487305,0.009216309,0.008728027,0.008117676,0.009033203,0.008544922,0.00970459,0.008483887,0.008728027,0.010070801,0.009460449,0.008728027,0.008239746,0.007659912,0.008544922,0.008056641,0.009216309,0.0079956055,0.00982666,0.011230469,0.010559082,0.00982666,0.009338379,0.0087890625,0.00970459,0.009216309,0.010314941,0.009094238,0.008605957,0.010009766,0.009338379,0.008605957,0.008117676,0.0075683594,0.008483887,0.0079956055,0.009094238,0.007873535,0.010498047,0.0119018555,0.011230469,0.010498047,0.010009766,0.009460449,0.010314941,0.00982666,0.010986328,0.009765625,0.0119018555,0.013244629,0.012634277,0.0119018555,0.011413574,0.010803223,0.01171875,0.011230469,0.012390137,0.011169434,0.011230469,0.012634277,0.011962891,0.011230469,0.0107421875,0.010192871,0.011047363,0.010559082,0.01171875,0.010498047,0.010498047,0.0119018555,0.011230469,0.010498047,0.010009766,0.009460449,0.010314941,0.00982666,0.010986328,0.009765625,0.010009766,0.011413574,0.0107421875,0.010009766,0.009521484,0.008972168,0.00982666,0.009338379,0.010498047,0.009277344,0.009460449,0.010803223,0.010192871,0.009460449,0.008972168,0.008361816,0.009277344,0.0087890625,0.0099487305,0.008728027,0.010314941,0.01171875,0.011047363,0.010314941,0.00982666,0.009277344,0.010192871,0.00970459,0.010803223,0.0095825195,0.00982666,0.011230469,0.010559082,0.00982666,0.009338379,0.0087890625,0.00970459,0.009216309,0.010314941,0.009094238,0.010986328,0.012390137,0.01171875,0.010986328,0.010498047,0.0099487305,0.010803223,0.010314941,0.011474609,0.010253906,0.009765625,0.011169434,0.010498047,0.009765625,0.009277344,0.008728027,0.0095825195,0.009094238,0.010253906,0.009033203,0.009277344,0.010681152,0.010009766,0.009277344,0.0087890625,0.008239746,0.009094238,0.008605957,0.009765625,0.008544922,0.010681152,0.012023926,0.011413574,0.010681152,0.010192871,0.0095825195,0.010498047,0.010009766,0.011169434,0.0099487305,0.010009766,0.011413574,0.0107421875,0.010009766,0.009521484,0.008972168,0.00982666,0.009338379,0.010498047,0.009277344,0.009277344,0.010681152,0.010009766,0.009277344,0.0087890625,0.008239746,0.009094238,0.008605957,0.009765625,0.008544922,0.0087890625,0.010192871,0.009521484,0.0087890625,0.008300781,0.0077209473,0.008605957,0.008117676,0.009277344,0.008056641,0.008239746,0.0095825195,0.008972168,0.008239746,0.0077209473,0.007171631,0.008056641,0.0075683594,0.008728027,0.0074768066,0.009094238,0.010498047,0.00982666,0.009094238,0.008605957,0.008056641,0.008972168,0.008483887,0.0095825195,0.008361816,0.008605957,0.010009766,0.009338379,0.008605957,0.008117676,0.0075683594,0.008483887,0.0079956055,0.009094238,0.007873535,0.009765625,0.011169434,0.010498047,0.009765625,0.009277344,0.008728027,0.0095825195,0.009094238,0.010253906,0.009033203,0.008544922,0.0099487305,0.009277344,0.008544922,0.008056641,0.0074768066,0.008361816,0.007873535,0.009033203,0.0078125
giraffe,0.018676758,0.020629883,0.021606445,0.018554688,0.017211914,0.015197754,0.015991211,0.016601562,0.016235352,0.014831543,0.018676758,0.01965332,0.020141602,0.018676758,0.017944336,0.016967773,0.017333984,0.017700195,0.017456055,0.016845703,0.01965332,0.020629883,0.021118164,0.01965332,0.018920898,0.017944336,0.018310547,0.018676758,0.018432617,0.017822266,0.020141602,0.021118164,0.021606445,0.020019531,0.01940918,0.018432617,0.018798828,0.019042969,0.018920898,0.018188477,0.018676758,0.01965332,0.020019531,0.018554688,0.017822266,0.016845703,0.017333984,0.017578125,0.017333984,0.016723633,0.017944336,0.018920898,0.01940918,0.017822266,0.017211914,0.016235352,0.016601562,0.016845703,0.016723633,0.015991211,0.016967773,0.017944336,0.018432617,0.016845703,0.016235352,0.015197754,0.015625,0.01586914,0.01574707,0.015014648,0.017333984,0.018310547,0.018798828,0.017333984,0.016601562,0.015625,0.015991211,0.016357422,0.016113281,0.0154418945,0.017700195,0.018676758,0.019042969,0.017578125,0.016845703,0.01586914,0.016357422,0.016601562,0.016357422,0.01574707,0.017456055,0.018432617,0.018920898,0.017333984,0.016723633,0.01574707,0.016113281,0.016357422,0.016235352,0.015563965,0.016845703,0.017822266,0.018188477,0.016723633,0.015991211,0.015014648,0.0154418945,0.01574707,0.015563965,0.014831543,0.018676758,0.01940918,0.01965332,0.018676758,0.018188477,0.017578125,0.017822266,0.018066406,0.017944336,0.017456055,0.01940918,0.020019531,0.020263672,0.01928711,0.018798828,0.018188477,0.018432617,0.018676758,0.018554688,0.018066406,0.01965332,0.020263672,0.020629883,0.01965332,0.019165039,0.018554688,0.018798828,0.018920898,0.018798828,0.018432617,0.018676758,0.01928711,0.01965332,0.018554688,0.018188477,0.017456055,0.017822266,0.017944336,0.017822266,0.017333984,0.018188477,0.018798828,0.019165039,0.018188477,0.017700195,0.017089844,0.017333984,0.017456055,0.017333984,0.016967773,0.017578125,0.018188477,0.018554688,0.017456055,0.017089844,0.016357422,0.016601562,0.016845703,0.016723633,0.016235352,0.017822266,0.018432617,0.018798828,0.017822266,0.017333984,0.016601562,0.016967773,0.017089844,0.016967773,0.016479492,0.018066406,0.018676758,0.018920898,0.017944336,0.017456055,0.016845703,0.017089844,0.017333984,0.017211914,0.016723633,0.017944336,0.018554688,0.018798828,0.017822266,0.017333984,0.016723633,0.016967773,0.017211914,0.017089844,0.016601562,0.017456055,0.018066406,0.018432617,0.017333984,0.016967773,0.016235352,0.016479492,0.016723633,0.016601562,0.016113281,0.01940918,0.020019531,0.020263672,0.01928711,0.018798828,0.018188477,0.018432617,0.018676758,0.018554688,0.018066406,0.020019531,0.020629883,0.020996094,0.020019531,0.01953125,0.018798828,0.019165039,0.01928711,0.019165039,0.018676758,0.020263672,0.020996094,0.021240234,0.020263672,0.01977539,0.019165039,0.01940918,0.01965332,0.01953125,0.019042969,0.01928711,0.020019531,0.020263672,0.01928711,0.018798828,0.018188477,0.018432617,0.018554688,0.018432617,0.018066406,0.018798828,0.01953125,0.01977539,0.018798828,0.018310547,0.017700195,0.017944336,0.018188477,0.018066406,0.017578125,0.018188477,0.018798828,0.019165039,0.018188477,0.017700195,0.017089844,0.017333984,0.017456055,0.017333984,0.016967773,0.018432617,0.019165039,0.01940918,0.018432617,0.017944336,0.017333984,0.017578125,0.017822266,0.017700195,0.017211914,0.018676758,0.01928711,0.01965332,0.018554688,0.018188477,0.017456055,0.017822266,0.017944336,0.017822266,0.017333984,0.018554688,0.019165039,0.01953125,0.018432617,0.018066406,0.017333984,0.017700195,0.017822266,0.017700195,0.017211914,0.018066406,0.018676758,0.019042969,0.018066406,0.017578125,0.016967773,0.017211914,0.017333984,0.017211914,0.016845703,0.01965332,0.020263672,0.020629883,0.01965332,0.019165039,0.018554688,0.018798828,0.018920898,0.018798828,0.018432617,0.020263672,0.020996094,0.021240234,0.020263672,0.01977539,0.019165039,0.01940918,0.01965332,0.01953125,0.019042969,0.020629883,0.021240234,0.021606445,0.020507812,0.020141602,0.01940918,0.01977539,0.019897461,0.01977539,0.01928711,0.01965332,0.020263672,0.020507812,0.01953125,0.019042969,0.018432617,0.018676758,0.018920898,0.018798828,0.018310547,0.019165039,0.01977539,0.020141602,0.019042969,0.018676758,0.017944336,0.018310547,0.018432617,0.018310547,0.017822266,0.018554688,0.019165039,0.01940918,0.018432617,0.017944336,0.017333984,0.017578125,0.017822266,0.017700195,0.017211914,0.018798828,0.01940918,0.01977539,0.018676758,0.018310547,0.017578125,0.017822266,0.018066406,0.017944336,0.017456055,0.018920898,0.01965332,0.019897461,0.018920898,0.018432617,0.017822266,0.018066406,0.018310547,0.018188477,0.017700195,0.018798828,0.01953125,0.01977539,0.018798828,0.018310547,0.017700195,0.017944336,0.018188477,0.018066406,0.017578125,0.018432617,0.019042969,0.01928711,0.018310547,0.017822266,0.017211914,0.017456055,0.017700195,0.017578125,0.017089844,0.018676758,0.01928711,0.01965332,0.018554688,0.018188477,0.017456055,0.017822266,0.017944336,0.017822266,0.017333984,0.01928711,0.020019531,0.020263672,0.01928711,0.018798828,0.018188477,0.018432617,0.018554688,0.018432617,0.018066406,0.01965332,0.020263672,0.020507812,0.01953125,0.019042969,0.018432617,0.018676758,0.018920898,0.018798828,0.018310547,0.018554688,0.01928711,0.01953125,0.018554688,0.018066406,0.017456055,0.017700195,0.017944336,0.017822266,0.017333984,0.018188477,0.018798828,0.019042969,0.018066406,0.017578125,0.016967773,0.017211914,0.017456055,0.017333984,0.016845703,0.017456055,0.018188477,0.018432617,0.017456055,0.016967773,0.016357422,0.016601562,0.016845703,0.016723633,0.016235352,0.017822266,0.018432617,0.018676758,0.017700195,0.017211914,0.016601562,0.016845703,0.017089844,0.016967773,0.016479492,0.017944336,0.018554688,0.018920898,0.017944336,0.017456055,0.016845703,0.017089844,0.017211914,0.017089844,0.016723633,0.017822266,0.018432617,0.018798828,0.017822266,0.017333984,0.016723633,0.016967773,0.017089844,0.016967773,0.016601562,0.017333984,0.018066406,0.018310547,0.017333984,0.016845703,0.016235352,0.016479492,0.016723633,0.016601562,0.016113281,0.018188477,0.018798828,0.019165039,0.018188477,0.017700195,0.017089844,0.017333984,0.017456055,0.017333984,0.016967773,0.018798828,0.01953125,0.01977539,0.018798828,0.018310547,0.017700195,0.017944336,0.018188477,0.018066406,0.017578125,0.019165039,0.01977539,0.020141602,0.019042969,0.018676758,0.017944336,0.018310547,0.018432617,0.018310547,0.017822266,0.018188477,0.018798828,0.019042969,0.018066406,0.017578125,0.016967773,0.017211914,0.017456055,0.017333984,0.016845703,0.017700195,0.018310547,0.018676758,0.017578125,0.017211914,0.016479492,0.016845703,0.016967773,0.016845703,0.016357422,0.017089844,0.017700195,0.017944336,0.016967773,0.016479492,0.01586914,0.016113281,0.016357422,0.016235352,0.01574707,0.017333984,0.017944336,0.018310547,0.017211914,0.016845703,0.016113281,0.016357422,0.016601562,0.016479492,0.015991211,0.017456055,0.018188477,0.018432617,0.017456055,0.016967773,0.016357422,0.016601562,0.016845703,0.016723633,0.016235352,0.017333984,0.018066406,0.018310547,0.017333984,0.016845703,0.016235352,0.016479492,0.016723633,0.016601562,0.016113281,0.016967773,0.017578125,0.017822266,0.016845703,0.016357422,0.01574707,0.015991211,0.016235352,0.016113281,0.015625,0.017578125,0.018188477,0.018554688,0.017456055,0.017089844,0.016357422,0.016601562,0.016845703,0.016723633,0.016235352,0.018188477,0.018798828,0.019165039,0.018188477,0.017700195,0.017089844,0.017333984,0.017456055,0.017333984,0.016967773,0.018554688,0.019165039,0.01940918,0.018432617,0.017944336,0.017333984,0.017578125,0.017822266,0.017700195,0.017211914,0.017456055,0.018188477,0.018432617,0.017456055,0.016967773,0.016357422,0.016601562,0.016845703,0.016723633,0.016235352,0.017089844,0.017700195,0.017944336,0.016967773,0.016479492,0.01586914,0.016113281,0.016357422,0.016235352,0.01574707,0.016357422,0.017089844,0.017333984,0.016357422,0.01586914,0.015197754,0.01550293,0.015625,0.015563965,0.015075684,0.016601562,0.017333984,0.017578125,0.016601562,0.016113281,0.01550293,0.01574707,0.015991211,0.01586914,0.015380859,0.016845703,0.017456055,0.017822266,0.016845703,0.016357422,0.015625,0.015991211,0.016113281,0.015991211,0.015563965,0.016723633,0.017333984,0.017700195,0.016723633,0.016235352,0.015563965,0.01586914,0.015991211,0.01586914,0.0154418945,0.016235352,0.016967773,0.017211914,0.016235352,0.01574707,0.015075684,0.015380859,0.015563965,0.0154418945,0.014953613,0.017822266,0.018432617,0.018798828,0.017822266,0.017333984,0.016601562,0.016967773,0.017089844,0.016967773,0.016479492,0.018432617,0.019165039,0.01940918,0.018432617,0.017944336,0.017333984,0.017578125,0.017822266,0.017700195,0.017211914,0.018798828,0.01940918,0.01977539,0.018676758,0.018310547,0.017578125,0.017822266,0.018066406,0.017944336,0.017456055,0.017822266,0.018432617,0.018676758,0.017700195,0.017211914,0.016601562,0.016845703,0.017089844,0.016967773,0.016479492,0.017333984,0.017944336,0.018310547,0.017211914,0.016845703,0.016113281,0.016357422,0.016601562,0.016479492,0.015991211,0.016601562,0.017333984,0.017578125,0.016601562,0.016113281,0.01550293,0.01574707,0.015991211,0.01586914,0.015380859,0.016967773,0.017578125,0.017822266,0.016845703,0.016357422,0.01574707,0.015991211,0.016235352,0.016113281,0.015625,0.017089844,0.017822266,0.018066406,0.017089844,0.016601562,0.015991211,0.016235352,0.016357422,0.016235352,0.01586914,0.016967773,0.017700195,0.017944336,0.016967773,0.016479492,0.01586914,0.016113281,0.016235352,0.016113281,0.01574707,0.016479492,0.017211914,0.017456055,0.016479492,0.015991211,0.015380859,0.015625,0.01586914,0.01574707,0.015258789,0.018066406,0.018676758,0.018920898,0.017944336,0.017456055,0.016845703,0.017089844,0.017333984,0.017211914,0.016723633,0.018676758,0.01928711,0.01965332,0.018554688,0.018188477,0.017456055,0.017822266,0.017944336,0.017822266,0.017333984,0.018920898,0.01965332,0.019897461,0.018920898,0.018432617,0.017822266,0.018066406,0.018310547,0.018188477,0.017700195,0.017944336,0.018554688,0.018920898,0.017944336,0.017456055,0.016845703,0.017089844,0.017211914,0.017089844,0.016723633,0.017456055,0.018188477,0.018432617,0.017456055,0.016967773,0.016357422,0.016601562,0.016845703,0.016723633,0.016235352,0.016845703,0.017456055,0.017822266,0.016845703,0.016357422,0.015625,0.015991211,0.016113281,0.015991211,0.015563965,0.017089844,0.017822266,0.018066406,0.017089844,0.016601562,0.015991211,0.016235352,0.016357422,0.016235352,0.01586914,0.017333984,0.017944336,0.018310547,0.017211914,0.016845703,0.016113281,0.016357422,0.016601562,0.016479492,0.015991211,0.017211914,0.017822266,0.018188477,0.017089844,0.016723633,0.015991211,0.016235352,0.016479492,0.016357422,0.01586914,0.016723633,0.017333984,0.017700195,0.016723633,0.016235352,0.015563965,0.01586914,0.015991211,0.01586914,0.0154418945,0.017944336,0.018554688,0.018798828,0.017822266,0.017333984,0.016723633,0.016967773,0.017211914,0.017089844,0.016601562,0.018554688,0.019165039,0.01953125,0.018432617,0.018066406,0.017333984,0.017700195,0.017822266,0.017700195,0.017211914,0.018798828,0.01953125,0.01977539,0.018798828,0.018310547,0.017700195,0.017944336,0.018188477,0.018066406,0.017578125,0.017822266,0.018432617,0.018798828,0.017822266,0.017333984,0.016723633,0.016967773,0.017089844,0.016967773,0.016601562,0.017333984,0.018066406,0.018310547,0.017333984,0.016845703,0.016235352,0.016479492,0.016723633,0.016601562,0.016113281,0.016723633,0.017333984,0.017700195,0.016723633,0.016235352,0.015563965,0.01586914,0.015991211,0.01586914,0.0154418945,0.016967773,0.017700195,0.017944336,0.016967773,0.016479492,0.01586914,0.016113281,0.016235352,0.016113281,0.01574707,0.017211914,0.017822266,0.018188477,0.017089844,0.016723633,0.015991211,0.016235352,0.016479492,0.016357422,0.01586914,0.017089844,0.017700195,0.018066406,0.016967773,0.016601562,0.01586914,0.016113281,0.016357422,0.016235352,0.01574707,0.016601562,0.017211914,0.017578125,0.016601562,0.016113281,0.0154418945,0.01574707,0.01586914,0.01574707,0.015319824,0.017456055,0.018066406,0.018432617,0.017333984,0.016967773,0.016235352,0.016479492,0.016723633,0.016601562,0.016113281,0.018066406,0.018676758,0.019042969,0.018066406,0.017578125,0.016967773,0.017211914,0.017333984,0.017211914,0.016845703,0.018432617,0.019042969,0.01928711,0.018310547,0.017822266,0.017211914,0.017456055,0.017700195,0.017578125,0.017089844,0.017333984,0.018066406,0.018310547,0.017333984,0.016845703,0.016235352,0.016479492,0.016723633,0.016601562,0.016113281,0.016967773,0.017578125,0.017822266,0.016845703,0.016357422,0.01574707,0.015991211,0.016235352,0.016113281,0.015625,0.016235352,0.016967773,0.017211914,0.016235352,0.01574707,0.015075684,0.015380859,0.015563965,0.0154418945,0.014953613,0.016479492,0.017211914,0.017456055,0.016479492,0.015991211,0.015380859,0.015625,0.01586914,0.01574707,0.015258789,0.016723633,0.017333984,0.017700195,0.016723633,0.016235352,0.015563965,0.01586914,0.015991211,0.01586914,0.0154418945,0.016601562,0.017211914,0.017578125,0.016601562,0.016113281,0.0154418945,0.01574707,0.01586914,0.01574707,0.015319824,0.016113281,0.016845703,0.017089844,0.016113281,0.015625,0.014953613,0.015258789,0.0154418945,0.015319824,0.014831543
