,0,1,2,3,4,5,6,7,8,9,00,01,02,03,04,05,06,07,08,09,10,11,12,13,14,15,16,17,18,19,20,21,22,23,24,25,26,27,28,29,30,31,32,33,34,35,36,37,38,39,40,41,42,43,44,45,46,47,48,49,50,51,52,53,54,55,56,57,58,59,60,61,62,63,64,65,66,67,68,69,70,71,72,73,74,75,76,77,78,79,80,81,82,83,84,85,86,87,88,89,90,91,92,93,94,95,96,97,98,99,000,001,002,003,004,005,006,007,008,009,010,011,012,013,014,015,016,017,018,019,020,021,022,023,024,025,026,027,028,029,030,031,032,033,034,035,036,037,038,039,040,041,042,043,044,045,046,047,048,049,050,051,052,053,054,055,056,057,058,059,060,061,062,063,064,065,066,067,068,069,070,071,072,073,074,075,076,077,078,079,080,081,082,083,084,085,086,087,088,089,090,091,092,093,094,095,096,097,098,099,100,101,102,103,104,105,106,107,108,109,110,111,112,113,114,115,116,117,118,119,120,121,122,123,124,125,126,127,128,129,130,131,132,133,134,135,136,137,138,139,140,141,142,143,144,145,146,147,148,149,150,151,152,153,154,155,156,157,158,159,160,161,162,163,164,165,166,167,168,169,170,171,172,173,174,175,176,177,178,179,180,181,182,183,184,185,186,187,188,189,190,191,192,193,194,195,196,197,198,199,200,201,202,203,204,205,206,207,208,209,210,211,212,213,214,215,216,217,218,219,220,221,222,223,224,225,226,227,228,229,230,231,232,233,234,235,236,237,238,239,240,241,242,243,244,245,246,247,248,249,250,251,252,253,254,255,256,257,258,259,260,261,262,263,264,265,266,267,268,269,270,271,272,273,274,275,276,277,278,279,280,281,282,283,284,285,286,287,288,289,290,291,292,293,294,295,296,297,298,299,300,301,302,303,304,305,306,307,308,309,310,311,312,313,314,315,316,317,318,319,320,321,322,323,324,325,326,327,328,329,330,331,332,333,334,335,336,337,338,339,340,341,342,343,344,345,346,347,348,349,350,351,352,353,354,355,356,357,358,359,360,361,362,363,364,365,366,367,368,369,370,371,372,373,374,375,376,377,378,379,380,381,382,383,384,385,386,387,388,389,390,391,392,393,394,395,396,397,398,399,400,401,402,403,404,405,406,407,408,409,410,411,412,413,414,415,416,417,418,419,420,421,422,423,424,425,426,427,428,429,430,431,432,433,434,435,436,437,438,439,440,441,442,443,444,445,446,447,448,449,450,451,452,453,454,455,456,457,458,459,460,461,462,463,464,465,466,467,468,469,470,471,472,473,474,475,476,477,478,479,480,481,482,483,484,485,486,487,488,489,490,491,492,493,494,495,496,497,498,499,500,501,502,503,504,505,506,507,508,509,510,511,512,513,514,515,516,517,518,519,520,521,522,523,524,525,526,527,528,529,530,531,532,533,534,535,536,537,538,539,540,541,542,543,544,545,546,547,548,549,550,551,552,553,554,555,556,557,558,559,560,561,562,563,564,565,566,567,568,569,570,571,572,573,574,575,576,577,578,579,580,581,582,583,584,585,586,587,588,589,590,591,592,593,594,595,596,597,598,599,600,601,602,603,604,605,606,607,608,609,610,611,612,613,614,615,616,617,618,619,620,621,622,623,624,625,626,627,628,629,630,631,632,633,634,635,636,637,638,639,640,641,642,643,644,645,646,647,648,649,650,651,652,653,654,655,656,657,658,659,660,661,662,663,664,665,666,667,668,669,670,671,672,673,674,675,676,677,678,679,680,681,682,683,684,685,686,687,688,689,690,691,692,693,694,695,696,697,698,699,700,701,702,703,704,705,706,707,708,709,710,711,712,713,714,715,716,717,718,719,720,721,722,723,724,725,726,727,728,729,730,731,732,733,734,735,736,737,738,739,740,741,742,743,744,745,746,747,748,749,750,751,752,753,754,755,756,757,758,759,760,761,762,763,764,765,766,767,768,769,770,771,772,773,774,775,776,777,778,779,780,781,782,783,784,785,786,787,788,789,790,791,792,793,794,795,796,797,798,799,800,801,802,803,804,805,806,807,808,809,810,811,812,813,814,815,816,817,818,819,820,821,822,823,824,825,826,827,828,829,830,831,832,833,834,835,836,837,838,839,840,841,842,843,844,845,846,847,848,849,850,851,852,853,854,855,856,857,858,859,860,861,862,863,864,865,866,867,868,869,870,871,872,873,874,875,876,877,878,879,880,881,882,883,884,885,886,887,888,889,890,891,892,893,894,895,896,897,898,899,900,901,902,903,904,905,906,907,908,909,910,911,912,913,914,915,916,917,918,919,920,921,922,923,924,925,926,927,928,929,930,931,932,933,934,935,936,937,938,939,940,941,942,943,944,945,946,947,948,949,950,951,952,953,954,955,956,957,958,959,960,961,962,963,964,965,966,967,968,969,970,971,972,973,974,975,976,977,978,979,980,981,982,983,984,985,986,987,988,989,990,991,992,993,994,995,996,997,998,999
elephant,-0.04321289,-0.049804688,-0.051757812,-0.044433594,-0.045898438,-0.04248047,-0.039794922,-0.03564453,-0.036132812,-0.03515625,-0.04321289,-0.04638672,-0.04736328,-0.043945312,-0.044677734,-0.04296875,-0.041503906,-0.03955078,-0.039794922,-0.03930664,-0.04638672,-0.049804688,-0.05078125,-0.04711914,-0.047851562,-0.046142578,-0.044921875,-0.04272461,-0.04296875,-0.04248047,-0.04736328,-0.05078125,-0.051757812,-0.048095703,-0.048828125,-0.04711914,-0.045898438,-0.043701172,-0.043945312,-0.04345703,-0.043945312,-0.04711914,-0.048095703,-0.044433594,-0.045410156,-0.04345703,-0.042236328,-0.040039062,-0.040527344,-0.040039062,-0.044677734,-0.047851562,-0.048828125,-0.045410156,-0.045898438,-0.044433594,-0.04296875,-0.041015625,-0.041015625,-0.040771484,-0.04296875,-0.046142578,-0.04711914,-0.04345703,-0.044433594,-0.04248047,-0.041259766,-0.0390625,-0.03955078,-0.0390625,-0.041503906,-0.044921875,-0.045898438,-0.042236328,-0.04296875,-0.041259766,-0.039794922,-0.037841797,-0.038085938,-0.037597656,-0.03955078,-0.04272461,-0.043701172,-0.040039062,-0.041015625,-0.0390625,-0.037841797,-0.03564453,-0.036132812,-0.03564453,-0.039794922,-0.04296875,-0.043945312,-0.040527344,-0.041015625,-0.03955078,-0.038085938,-0.036132812,-0.036132812,-0.035888672,-0.03930664,-0.04248047,-0.04345703,-0.040039062,-0.040771484,-0.0390625,-0.037597656,-0.03564453,-0.035888672,-0.03540039,-0.04321289,-0.045410156,-0.046142578,-0.043701172,-0.044189453,-0.04296875,-0.041992188,-0.040771484,-0.041015625,-0.040527344,-0.045410156,-0.047607422,-0.048339844,-0.045898438,-0.04638672,-0.045166016,-0.044189453,-0.04296875,-0.04296875,-0.04272461,-0.046142578,-0.048339844,-0.049072266,-0.04663086,-0.04711914,-0.045898438,-0.044921875,-0.04345703,-0.043701172,-0.04345703,-0.043701172,-0.045898438,-0.04663086,-0.044189453,-0.044677734,-0.04345703,-0.04248047,-0.041015625,-0.041259766,-0.041015625,-0.044189453,-0.04638672,-0.04711914,-0.044677734,-0.045166016,-0.043945312,-0.04296875,-0.041503906,-0.041748047,-0.041503906,-0.04296875,-0.045166016,-0.045898438,-0.04345703,-0.043945312,-0.04272461,-0.041992188,-0.040527344,-0.040771484,-0.040283203,-0.041992188,-0.044189453,-0.044921875,-0.04248047,-0.04296875,-0.041992188,-0.041015625,-0.03955078,-0.039794922,-0.03955078,-0.040771484,-0.04296875,-0.04345703,-0.041015625,-0.041503906,-0.040527344,-0.03955078,-0.038085938,-0.038330078,-0.038085938,-0.041015625,-0.04296875,-0.043701172,-0.041259766,-0.041748047,-0.040771484,-0.039794922,-0.038330078,-0.03857422,-0.038330078,-0.040527344,-0.04272461,-0.04345703,-0.041015625,-0.041503906,-0.040283203,-0.03955078,-0.038085938,-0.038330078,-0.037841797,-0.045410156,-0.047607422,-0.048339844,-0.045898438,-0.04638672,-0.045166016,-0.044189453,-0.04296875,-0.04296875,-0.04272461,-0.047607422,-0.049804688,-0.05053711,-0.048095703,-0.048583984,-0.04736328,-0.04638672,-0.045166016,-0.045410156,-0.044921875,-0.048339844,-0.05053711,-0.05126953,-0.048828125,-0.049316406,-0.048095703,-0.04711914,-0.045898438,-0.045898438,-0.045654297,-0.045898438,-0.048095703,-0.048828125,-0.04638672,-0.046875,-0.045654297,-0.044677734,-0.04345703,-0.04345703,-0.04321289,-0.04638672,-0.048583984,-0.049316406,-0.046875,-0.04736328,-0.046142578,-0.045166016,-0.043945312,-0.043945312,-0.043701172,-0.045166016,-0.04736328,-0.048095703,-0.045654297,-0.046142578,-0.044921875,-0.043945312,-0.04272461,-0.04296875,-0.04248047,-0.044189453,-0.04638672,-0.04711914,-0.044677734,-0.045166016,-0.043945312,-0.04321289,-0.041748047,-0.041992188,-0.041503906,-0.04296875,-0.045166016,-0.045898438,-0.04345703,-0.043945312,-0.04272461,-0.041748047,-0.040283203,-0.040527344,-0.040283203,-0.04296875,-0.045410156,-0.045898438,-0.04345703,-0.043945312,-0.04296875,-0.041992188,-0.040527344,-0.040771484,-0.040527344,-0.04272461,-0.044921875,-0.045654297,-0.04321289,-0.043701172,-0.04248047,-0.041503906,-0.040283203,-0.040527344,-0.040039062,-0.046142578,-0.048339844,-0.049072266,-0.04663086,-0.04711914,-0.045898438,-0.044921875,-0.04345703,-0.043701172,-0.04345703,-0.048339844,-0.05053711,-0.05126953,-0.048828125,-0.049316406,-0.048095703,-0.04711914,-0.045898438,-0.045898438,-0.045654297,-0.049072266,-0.05126953,-0.051757812,-0.049316406,-0.049804688,-0.048828125,-0.047851562,-0.04638672,-0.04663086,-0.04638672,-0.04663086,-0.048828125,-0.049316406,-0.046875,-0.04736328,-0.04638672,-0.045410156,-0.043945312,-0.044189453,-0.043945312,-0.04711914,-0.049316406,-0.049804688,-0.04736328,-0.047851562,-0.046875,-0.045898438,-0.044433594,-0.044677734,-0.044433594,-0.045898438,-0.048095703,-0.048828125,-0.04638672,-0.046875,-0.045654297,-0.044677734,-0.04345703,-0.04345703,-0.04321289,-0.044921875,-0.04711914,-0.047851562,-0.045410156,-0.045898438,-0.044677734,-0.043945312,-0.04248047,-0.04272461,-0.042236328,-0.04345703,-0.045898438,-0.04638672,-0.043945312,-0.044433594,-0.04345703,-0.04248047,-0.041015625,-0.041259766,-0.041015625,-0.043701172,-0.045898438,-0.04663086,-0.044189453,-0.044677734,-0.04345703,-0.04272461,-0.041259766,-0.041503906,-0.041015625,-0.04345703,-0.045654297,-0.04638672,-0.043945312,-0.044433594,-0.04321289,-0.042236328,-0.041015625,-0.041015625,-0.040771484,-0.043701172,-0.045898438,-0.04663086,-0.044189453,-0.044677734,-0.04345703,-0.04248047,-0.041015625,-0.041259766,-0.041015625,-0.045898438,-0.048095703,-0.048828125,-0.04638672,-0.046875,-0.045654297,-0.044677734,-0.04345703,-0.04345703,-0.04321289,-0.04663086,-0.048828125,-0.049316406,-0.046875,-0.04736328,-0.04638672,-0.045410156,-0.043945312,-0.044189453,-0.043945312,-0.044189453,-0.04638672,-0.046875,-0.044433594,-0.044921875,-0.043945312,-0.04296875,-0.041503906,-0.041748047,-0.041503906,-0.044677734,-0.046875,-0.04736328,-0.044921875,-0.045410156,-0.044433594,-0.04345703,-0.041992188,-0.042236328,-0.041992188,-0.04345703,-0.045654297,-0.04638672,-0.043945312,-0.044433594,-0.04321289,-0.042236328,-0.041015625,-0.041015625,-0.040771484,-0.04248047,-0.044677734,-0.045410156,-0.04296875,-0.04345703,-0.042236328,-0.041503906,-0.040039062,-0.040283203,-0.039794922,-0.041015625,-0.04345703,-0.043945312,-0.041503906,-0.041992188,-0.041015625,-0.040039062,-0.03857422,-0.03881836,-0.03857422,-0.041259766,-0.04345703,-0.044189453,-0.041748047,-0.042236328,-0.041015625,-0.040283203,-0.03881836,-0.0390625,-0.03857422,-0.041015625,-0.04321289,-0.043945312,-0.041503906,-0.041992188,-0.040771484,-0.039794922,-0.03857422,-0.03857422,-0.038330078,-0.044189453,-0.04638672,-0.04711914,-0.044677734,-0.045166016,-0.043945312,-0.04296875,-0.041503906,-0.041748047,-0.041503906,-0.04638672,-0.048583984,-0.049316406,-0.046875,-0.04736328,-0.046142578,-0.045166016,-0.043945312,-0.043945312,-0.043701172,-0.04711914,-0.049316406,-0.049804688,-0.04736328,-0.047851562,-0.046875,-0.045898438,-0.044433594,-0.044677734,-0.044433594,-0.044677734,-0.046875,-0.04736328,-0.044921875,-0.045410156,-0.044433594,-0.04345703,-0.041992188,-0.042236328,-0.041992188,-0.045166016,-0.04736328,-0.047851562,-0.045410156,-0.045898438,-0.044921875,-0.043945312,-0.04248047,-0.04272461,-0.04248047,-0.043945312,-0.046142578,-0.046875,-0.044433594,-0.044921875,-0.043701172,-0.04272461,-0.041503906,-0.041503906,-0.041259766,-0.04296875,-0.045166016,-0.045898438,-0.04345703,-0.043945312,-0.04272461,-0.041992188,-0.040527344,-0.040771484,-0.040283203,-0.041503906,-0.043945312,-0.044433594,-0.041992188,-0.04248047,-0.041503906,-0.040527344,-0.0390625,-0.03930664,-0.0390625,-0.041748047,-0.043945312,-0.044677734,-0.042236328,-0.04272461,-0.041503906,-0.040771484,-0.03930664,-0.03955078,-0.0390625,-0.041503906,-0.043701172,-0.044433594,-0.041992188,-0.04248047,-0.041259766,-0.040283203,-0.0390625,-0.0390625,-0.03881836,-0.04296875,-0.045166016,-0.045898438,-0.04345703,-0.043945312,-0.04272461,-0.041992188,-0.040527344,-0.040771484,-0.040283203,-0.045166016,-0.04736328,-0.048095703,-0.045654297,-0.046142578,-0.044921875,-0.043945312,-0.04272461,-0.04296875,-0.04248047,-0.045898438,-0.048095703,-0.048828125,-0.04638672,-0.046875,-0.045654297,-0.044677734,-0.04345703,-0.04345703,-0.04321289,-0.04345703,-0.045654297,-0.04638672,-0.043945312,-0.044433594,-0.04321289,-0.042236328,-0.041015625,-0.041015625,-0.040771484,-0.043945312,-0.046142578,-0.046875,-0.044433594,-0.044921875,-0.043701172,-0.04272461,-0.041503906,-0.041503906,-0.041259766,-0.04272461,-0.044921875,-0.045654297,-0.04321289,-0.043701172,-0.04248047,-0.041748047,-0.040283203,-0.040527344,-0.040039062,-0.041992188,-0.043945312,-0.044677734,-0.042236328,-0.04272461,-0.041748047,-0.040771484,-0.03930664,-0.03955078,-0.03930664,-0.040527344,-0.04272461,-0.04345703,-0.041015625,-0.041503906,-0.040283203,-0.03930664,-0.038085938,-0.038085938,-0.037841797,-0.040771484,-0.04296875,-0.04345703,-0.041015625,-0.041503906,-0.040527344,-0.03955078,-0.038085938,-0.038330078,-0.038085938,-0.040283203,-0.04248047,-0.04321289,-0.040771484,-0.041259766,-0.040039062,-0.03930664,-0.037841797,-0.038085938,-0.037597656,-0.041992188,-0.044189453,-0.044921875,-0.04248047,-0.04296875,-0.041992188,-0.041015625,-0.03955078,-0.039794922,-0.03955078,-0.044189453,-0.04638672,-0.04711914,-0.044677734,-0.045166016,-0.043945312,-0.04321289,-0.041748047,-0.041992188,-0.041503906,-0.044921875,-0.04711914,-0.047851562,-0.045410156,-0.045898438,-0.044677734,-0.043945312,-0.04248047,-0.04272461,-0.042236328,-0.04248047,-0.044677734,-0.045410156,-0.04296875,-0.04345703,-0.042236328,-0.041503906,-0.040039062,-0.040283203,-0.039794922,-0.04296875,-0.045166016,-0.045898438,-0.04345703,-0.043945312,-0.04272461,-0.041992188,-0.040527344,-0.040771484,-0.040283203,-0.041992188,-0.043945312,-0.044677734,-0.042236328,-0.04272461,-0.041748047,-0.040771484,-0.03930664,-0.03955078,-0.03930664,-0.041015625,-0.04321289,-0.043945312,-0.041503906,-0.041992188,-0.040771484,-0.039794922,-0.038330078,-0.03857422,-0.038330078,-0.03955078,-0.041748047,-0.04248047,-0.040039062,-0.040527344,-0.03930664,-0.038330078,-0.037109375,-0.037109375,-0.036865234,-0.039794922,-0.041992188,-0.04272461,-0.040283203,-0.040771484,-0.03955078,-0.03857422,-0.037109375,-0.037353516,-0.037109375,-0.03955078,-0.041503906,-0.042236328,-0.039794922,-0.040283203,-0.03930664,-0.038330078,-0.036865234,-0.037109375,-0.036865234,-0.040771484,-0.04296875,-0.04345703,-0.041015625,-0.041503906,-0.040527344,-0.03955078,-0.038085938,-0.038330078,-0.038085938,-0.04296875,-0.045166016,-0.045898438,-0.04345703,-0.043945312,-0.04272461,-0.041748047,-0.040283203,-0.040527344,-0.040283203,-0.04345703,-0.045898438,-0.04638672,-0.043945312,-0.044433594,-0.04345703,-0.04248047,-0.041015625,-0.041259766,-0.041015625,-0.041015625,-0.04345703,-0.043945312,-0.041503906,-0.041992188,-0.041015625,-0.040039062,-0.03857422,-0.03881836,-0.03857422,-0.041503906,-0.043945312,-0.044433594,-0.041992188,-0.04248047,-0.041503906,-0.040527344,-0.0390625,-0.03930664,-0.0390625,-0.040527344,-0.04272461,-0.04345703,-0.041015625,-0.041503906,-0.040283203,-0.03930664,-0.038085938,-0.038085938,-0.037841797,-0.03955078,-0.041748047,-0.04248047,-0.040039062,-0.040527344,-0.03930664,-0.038330078,-0.037109375,-0.037109375,-0.036865234,-0.038085938,-0.040283203,-0.041015625,-0.03857422,-0.0390625,-0.038085938,-0.037109375,-0.03564453,-0.035888672,-0.03564453,-0.038330078,-0.040527344,-0.041259766,-0.03881836,-0.03930664,-0.038085938,-0.037109375,-0.035888672,-0.036132812,-0.03564453,-0.038085938,-0.040283203,-0.041015625,-0.03857422,-0.0390625,-0.037841797,-0.036865234,-0.03564453,-0.03564453,-0.03540039,-0.041015625,-0.04296875,-0.043701172,-0.041259766,-0.041748047,-0.040771484,-0.039794922,-0.038330078,-0.03857422,-0.038330078,-0.04296875,-0.045410156,-0.045898438,-0.04345703,-0.043945312,-0.04296875,-0.041992188,-0.040527344,-0.040771484,-0.040527344,-0.043701172,-0.045898438,-0.04663086,-0.044189453,-0.044677734,-0.04345703,-0.04272461,-0.041259766,-0.041503906,-0.041015625,-0.041259766,-0.04345703,-0.044189453,-0.041748047,-0.042236328,-0.041015625,-0.040283203,-0.03881836,-0.0390625,-0.03857422,-0.041748047,-0.043945312,-0.044677734,-0.042236328,-0.04272461,-0.041503906,-0.040771484,-0.03930664,-0.03955078,-0.0390625,-0.040771484,-0.04296875,-0.04345703,-0.041015625,-0.041503906,-0.040527344,-0.03955078,-0.038085938,-0.038330078,-0.038085938,-0.039794922,-0.041992188,-0.04272461,-0.040283203,-0.040771484,-0.03955078,-0.03857422,-0.037109375,-0.037353516,-0.037109375,-0.038330078,-0.040527344,-0.041259766,-0.03881836,-0.03930664,-0.038085938,-0.037109375,-0.035888672,-0.036132812,-0.03564453,-0.03857422,-0.040771484,-0.041503906,-0.0390625,-0.03955078,-0.038330078,-0.037353516,-0.036132812,-0.036132812,-0.035888672,-0.038330078,-0.040527344,-0.041015625,-0.03857422,-0.0390625,-0.038085938,-0.037109375,-0.03564453,-0.035888672,-0.03564453,-0.040527344,-0.04272461,-0.04345703,-0.041015625,-0.041503906,-0.040283203,-0.03955078,-0.038085938,-0.038330078,-0.037841797,-0.04272461,-0.044921875,-0.045654297,-0.04321289,-0.043701172,-0.04248047,-0.041503906,-0.040283203,-0.040527344,-0.040039062,-0.04345703,-0.045654297,-0.04638672,-0.043945312,-0.044433594,-0.04321289,-0.042236328,-0.041015625,-0.041015625,-0.040771484,-0.041015625,-0.04321289,-0.043945312,-0.041503906,-0.041992188,-0.040771484,-0.039794922,-0.03857422,-0.03857422,-0.038330078,-0.041503906,-0.043701172,-0.044433594,-0.041992188,-0.04248047,-0.041259766,-0.040283203,-0.0390625,-0.0390625,-0.03881836,-0.040283203,-0.04248047,-0.04321289,-0.040771484,-0.041259766,-0.040039062,-0.03930664,-0.037841797,-0.038085938,-0.037597656,-0.03955078,-0.041503906,-0.042236328,-0.039794922,-0.040283203,-0.03930664,-0.038330078,-0.036865234,-0.037109375,-0.036865234,-0.038085938,-0.040283203,-0.041015625,-0.03857422,-0.0390625,-0.037841797,-0.036865234,-0.03564453,-0.03564453,-0.03540039,-0.038330078,-0.040527344,-0.041015625,-0.03857422,-0.0390625,-0.038085938,-0.037109375,-0.03564453,-0.035888672,-0.03564453,-0.037841797,-0.040039062,-0.040771484,-0.038330078,-0.03881836,-0.037597656,-0.036865234,-0.03540039,-0.03564453,-0.03515625
dolphin,0.020629883,0.021972656,0.020385742,0.021850586,0.020141602,0.018920898,0.018554688,0.016235352,0.015380859,0.016845703,0.020629883,0.021362305,0.020507812,0.021118164,0.020385742,0.01977539,0.01953125,0.018432617,0.018066406,0.018676758,0.021362305,0.022094727,0.021240234,0.021850586,0.021118164,0.020507812,0.020385742,0.019165039,0.018798828,0.01953125,0.020507812,0.021240234,0.020385742,0.020996094,0.020263672,0.01965332,0.01953125,0.018310547,0.017944336,0.018676758,0.021118164,0.021850586,0.020996094,0.021606445,0.020874023,0.020263672,0.020141602,0.018920898,0.018554688,0.01928711,0.020385742,0.021118164,0.020263672,0.020874023,0.020141602,0.01953125,0.01940918,0.018188477,0.017822266,0.018554688,0.01977539,0.020507812,0.01965332,0.020263672,0.01953125,0.018920898,0.018676758,0.017578125,0.017211914,0.017822266,0.01953125,0.020385742,0.01953125,0.020141602,0.01940918,0.018676758,0.018554688,0.017333984,0.016967773,0.017700195,0.018432617,0.019165039,0.018310547,0.018920898,0.018188477,0.017578125,0.017333984,0.016235352,0.01586914,0.016479492,0.018066406,0.018798828,0.017944336,0.018554688,0.017822266,0.017211914,0.016967773,0.01586914,0.0154418945,0.016113281,0.018676758,0.01953125,0.018676758,0.01928711,0.018554688,0.017822266,0.017700195,0.016479492,0.016113281,0.016845703,0.020629883,0.020996094,0.020507812,0.020996094,0.020507812,0.020019531,0.019897461,0.019165039,0.018798828,0.01928711,0.020996094,0.021484375,0.020996094,0.021484375,0.020874023,0.020507812,0.020385742,0.01953125,0.01928711,0.01977539,0.020507812,0.020996094,0.020507812,0.020996094,0.020385742,0.020019531,0.019897461,0.019042969,0.018798828,0.01928711,0.020996094,0.021484375,0.020996094,0.021362305,0.020874023,0.020385742,0.020263672,0.01953125,0.01928711,0.01977539,0.020507812,0.020874023,0.020385742,0.020874023,0.020263672,0.019897461,0.01977539,0.019042969,0.018676758,0.019165039,0.020019531,0.020507812,0.020019531,0.020385742,0.019897461,0.01940918,0.01928711,0.018554688,0.018310547,0.018798828,0.019897461,0.020385742,0.019897461,0.020263672,0.01977539,0.01928711,0.01928711,0.018432617,0.018188477,0.018676758,0.019165039,0.01953125,0.019042969,0.01953125,0.019042969,0.018554688,0.018432617,0.017700195,0.017333984,0.017822266,0.018798828,0.01928711,0.018798828,0.01928711,0.018676758,0.018310547,0.018188477,0.017333984,0.017089844,0.017578125,0.01928711,0.01977539,0.01928711,0.01977539,0.019165039,0.018798828,0.018676758,0.017822266,0.017578125,0.018066406,0.020996094,0.021484375,0.020996094,0.021484375,0.020874023,0.020507812,0.020385742,0.01953125,0.01928711,0.01977539,0.021484375,0.021972656,0.021484375,0.021972656,0.021362305,0.020996094,0.020874023,0.020019531,0.01977539,0.020263672,0.020996094,0.021484375,0.020996094,0.021362305,0.020874023,0.020385742,0.020263672,0.01953125,0.01928711,0.01977539,0.021484375,0.021972656,0.021362305,0.021850586,0.021362305,0.020874023,0.020751953,0.020019531,0.01977539,0.020263672,0.020874023,0.021362305,0.020874023,0.021362305,0.020751953,0.020385742,0.020263672,0.01940918,0.019165039,0.01965332,0.020507812,0.020996094,0.020385742,0.020874023,0.020385742,0.019897461,0.01977539,0.019042969,0.018798828,0.01928711,0.020385742,0.020874023,0.020263672,0.020751953,0.020263672,0.01977539,0.01965332,0.018920898,0.018676758,0.019165039,0.01953125,0.020019531,0.01953125,0.020019531,0.01940918,0.019042969,0.018920898,0.018066406,0.017822266,0.018310547,0.01928711,0.01977539,0.01928711,0.01977539,0.019165039,0.018798828,0.018676758,0.017822266,0.017578125,0.018066406,0.01977539,0.020263672,0.01977539,0.020263672,0.01965332,0.01928711,0.019165039,0.018310547,0.018066406,0.018554688,0.020507812,0.020996094,0.020507812,0.020996094,0.020385742,0.020019531,0.019897461,0.019042969,0.018798828,0.01928711,0.020996094,0.021484375,0.020996094,0.021362305,0.020874023,0.020385742,0.020263672,0.01953125,0.01928711,0.01977539,0.020507812,0.020996094,0.020385742,0.020874023,0.020385742,0.019897461,0.01977539,0.019042969,0.018798828,0.01928711,0.020996094,0.021362305,0.020874023,0.021362305,0.020751953,0.020385742,0.020263672,0.01953125,0.019165039,0.01965332,0.020385742,0.020874023,0.020385742,0.020751953,0.020263672,0.01977539,0.01977539,0.018920898,0.018676758,0.019165039,0.020019531,0.020385742,0.019897461,0.020385742,0.01977539,0.01940918,0.01928711,0.018554688,0.018188477,0.018676758,0.019897461,0.020263672,0.01977539,0.020263672,0.01977539,0.01928711,0.019165039,0.018432617,0.018066406,0.018554688,0.019042969,0.01953125,0.019042969,0.01953125,0.018920898,0.018554688,0.018432617,0.017578125,0.017333984,0.017822266,0.018798828,0.01928711,0.018798828,0.019165039,0.018676758,0.018188477,0.018066406,0.017333984,0.017089844,0.017578125,0.01928711,0.01977539,0.01928711,0.01965332,0.019165039,0.018676758,0.018554688,0.017822266,0.017578125,0.018066406,0.020996094,0.021484375,0.020996094,0.021362305,0.020874023,0.020385742,0.020263672,0.01953125,0.01928711,0.01977539,0.021484375,0.021972656,0.021362305,0.021850586,0.021362305,0.020874023,0.020751953,0.020019531,0.01977539,0.020263672,0.020996094,0.021362305,0.020874023,0.021362305,0.020751953,0.020385742,0.020263672,0.01953125,0.019165039,0.01965332,0.021362305,0.021850586,0.021362305,0.021850586,0.021240234,0.020874023,0.020751953,0.019897461,0.01965332,0.020141602,0.020874023,0.021362305,0.020751953,0.021240234,0.020751953,0.020263672,0.020141602,0.01940918,0.019165039,0.01965332,0.020385742,0.020874023,0.020385742,0.020874023,0.020263672,0.019897461,0.01977539,0.018920898,0.018676758,0.019165039,0.020263672,0.020751953,0.020263672,0.020751953,0.020141602,0.01977539,0.01965332,0.018798828,0.018554688,0.019042969,0.01953125,0.020019531,0.01953125,0.019897461,0.01940918,0.018920898,0.018798828,0.018066406,0.017822266,0.018310547,0.01928711,0.01977539,0.019165039,0.01965332,0.019165039,0.018676758,0.018554688,0.017822266,0.017578125,0.018066406,0.01977539,0.020263672,0.01965332,0.020141602,0.01965332,0.019165039,0.019042969,0.018310547,0.018066406,0.018554688,0.020507812,0.020874023,0.020385742,0.020874023,0.020263672,0.019897461,0.01977539,0.019042969,0.018676758,0.019165039,0.020874023,0.021362305,0.020874023,0.021362305,0.020751953,0.020385742,0.020263672,0.01940918,0.019165039,0.01965332,0.020385742,0.020874023,0.020385742,0.020751953,0.020263672,0.01977539,0.01977539,0.018920898,0.018676758,0.019165039,0.020874023,0.021362305,0.020751953,0.021240234,0.020751953,0.020263672,0.020141602,0.01940918,0.019165039,0.01965332,0.020263672,0.020751953,0.020263672,0.020751953,0.020141602,0.01977539,0.01965332,0.018798828,0.018554688,0.019042969,0.019897461,0.020385742,0.01977539,0.020263672,0.01977539,0.01928711,0.019165039,0.018432617,0.018188477,0.018676758,0.01977539,0.020263672,0.01977539,0.020141602,0.01965332,0.019165039,0.019042969,0.018310547,0.018066406,0.018554688,0.019042969,0.01940918,0.018920898,0.01940918,0.018798828,0.018432617,0.018310547,0.017578125,0.017211914,0.017700195,0.018676758,0.019165039,0.018676758,0.019165039,0.018554688,0.018188477,0.018066406,0.017211914,0.016967773,0.017456055,0.019165039,0.01965332,0.019165039,0.01965332,0.019042969,0.018676758,0.018554688,0.017700195,0.017456055,0.017944336,0.020019531,0.020507812,0.020019531,0.020385742,0.019897461,0.01940918,0.01928711,0.018554688,0.018310547,0.018798828,0.020507812,0.020996094,0.020385742,0.020874023,0.020385742,0.019897461,0.01977539,0.019042969,0.018798828,0.01928711,0.020019531,0.020385742,0.019897461,0.020385742,0.01977539,0.01940918,0.01928711,0.018554688,0.018188477,0.018676758,0.020385742,0.020874023,0.020385742,0.020874023,0.020263672,0.019897461,0.01977539,0.018920898,0.018676758,0.019165039,0.019897461,0.020385742,0.01977539,0.020263672,0.01977539,0.01928711,0.019165039,0.018432617,0.018188477,0.018676758,0.01940918,0.019897461,0.01940918,0.019897461,0.01928711,0.018920898,0.018798828,0.017944336,0.017700195,0.018188477,0.01928711,0.01977539,0.01928711,0.01977539,0.019165039,0.018798828,0.018676758,0.017822266,0.017578125,0.018066406,0.018554688,0.019042969,0.018554688,0.018920898,0.018432617,0.017944336,0.017822266,0.017089844,0.016845703,0.017333984,0.018310547,0.018798828,0.018188477,0.018676758,0.018188477,0.017700195,0.017578125,0.016845703,0.016601562,0.017089844,0.018798828,0.01928711,0.018676758,0.019165039,0.018676758,0.018188477,0.018066406,0.017333984,0.017089844,0.017578125,0.019897461,0.020385742,0.019897461,0.020263672,0.01977539,0.01928711,0.01928711,0.018432617,0.018188477,0.018676758,0.020385742,0.020874023,0.020263672,0.020751953,0.020263672,0.01977539,0.01965332,0.018920898,0.018676758,0.019165039,0.019897461,0.020263672,0.01977539,0.020263672,0.01977539,0.01928711,0.019165039,0.018432617,0.018066406,0.018554688,0.020263672,0.020751953,0.020263672,0.020751953,0.020141602,0.01977539,0.01965332,0.018798828,0.018554688,0.019042969,0.01977539,0.020263672,0.01977539,0.020141602,0.01965332,0.019165039,0.019042969,0.018310547,0.018066406,0.018554688,0.01928711,0.01977539,0.01928711,0.01977539,0.019165039,0.018798828,0.018676758,0.017822266,0.017578125,0.018066406,0.01928711,0.01965332,0.019165039,0.01965332,0.019042969,0.018676758,0.018554688,0.017822266,0.017456055,0.017944336,0.018432617,0.018920898,0.018432617,0.018798828,0.018310547,0.017822266,0.017822266,0.016967773,0.016723633,0.017211914,0.018188477,0.018676758,0.018066406,0.018554688,0.018066406,0.017578125,0.017456055,0.016723633,0.016479492,0.016967773,0.018676758,0.019165039,0.018554688,0.019042969,0.018554688,0.018066406,0.017944336,0.017211914,0.016967773,0.017456055,0.019165039,0.01953125,0.019042969,0.01953125,0.019042969,0.018554688,0.018432617,0.017700195,0.017333984,0.017822266,0.01953125,0.020019531,0.01953125,0.020019531,0.01940918,0.019042969,0.018920898,0.018066406,0.017822266,0.018310547,0.019042969,0.01953125,0.019042969,0.01953125,0.018920898,0.018554688,0.018432617,0.017578125,0.017333984,0.017822266,0.01953125,0.020019531,0.01953125,0.019897461,0.01940918,0.018920898,0.018798828,0.018066406,0.017822266,0.018310547,0.019042969,0.01940918,0.018920898,0.01940918,0.018798828,0.018432617,0.018310547,0.017578125,0.017211914,0.017700195,0.018554688,0.019042969,0.018554688,0.018920898,0.018432617,0.017944336,0.017822266,0.017089844,0.016845703,0.017333984,0.018432617,0.018920898,0.018432617,0.018798828,0.018310547,0.017822266,0.017822266,0.016967773,0.016723633,0.017211914,0.017700195,0.018066406,0.017578125,0.018066406,0.017578125,0.017089844,0.016967773,0.016235352,0.01586914,0.016357422,0.017333984,0.017822266,0.017333984,0.017822266,0.017211914,0.016845703,0.016723633,0.01586914,0.015625,0.016113281,0.017822266,0.018310547,0.017822266,0.018310547,0.017700195,0.017333984,0.017211914,0.016357422,0.016113281,0.016601562,0.018798828,0.01928711,0.018798828,0.01928711,0.018676758,0.018310547,0.018188477,0.017333984,0.017089844,0.017578125,0.01928711,0.01977539,0.01928711,0.01977539,0.019165039,0.018798828,0.018676758,0.017822266,0.017578125,0.018066406,0.018798828,0.01928711,0.018798828,0.019165039,0.018676758,0.018188477,0.018066406,0.017333984,0.017089844,0.017578125,0.01928711,0.01977539,0.019165039,0.01965332,0.019165039,0.018676758,0.018554688,0.017822266,0.017578125,0.018066406,0.018676758,0.019165039,0.018676758,0.019165039,0.018554688,0.018188477,0.018066406,0.017211914,0.016967773,0.017456055,0.018310547,0.018798828,0.018188477,0.018676758,0.018188477,0.017700195,0.017578125,0.016845703,0.016601562,0.017089844,0.018188477,0.018676758,0.018066406,0.018554688,0.018066406,0.017578125,0.017456055,0.016723633,0.016479492,0.016967773,0.017333984,0.017822266,0.017333984,0.017822266,0.017211914,0.016845703,0.016723633,0.01586914,0.015625,0.016113281,0.017089844,0.017578125,0.017089844,0.017578125,0.016967773,0.016601562,0.016479492,0.015625,0.015380859,0.01586914,0.017578125,0.018066406,0.017578125,0.018066406,0.017456055,0.017089844,0.016967773,0.016113281,0.01586914,0.016357422,0.01928711,0.01977539,0.01928711,0.01977539,0.019165039,0.018798828,0.018676758,0.017822266,0.017578125,0.018066406,0.01977539,0.020263672,0.01977539,0.020263672,0.01965332,0.01928711,0.019165039,0.018310547,0.018066406,0.018554688,0.01928711,0.01977539,0.01928711,0.01965332,0.019165039,0.018676758,0.018554688,0.017822266,0.017578125,0.018066406,0.01977539,0.020263672,0.01965332,0.020141602,0.01965332,0.019165039,0.019042969,0.018310547,0.018066406,0.018554688,0.019165039,0.01965332,0.019165039,0.01965332,0.019042969,0.018676758,0.018554688,0.017700195,0.017456055,0.017944336,0.018798828,0.01928711,0.018676758,0.019165039,0.018676758,0.018188477,0.018066406,0.017333984,0.017089844,0.017578125,0.018676758,0.019165039,0.018554688,0.019042969,0.018554688,0.018066406,0.017944336,0.017211914,0.016967773,0.017456055,0.017822266,0.018310547,0.017822266,0.018310547,0.017700195,0.017333984,0.017211914,0.016357422,0.016113281,0.016601562,0.017578125,0.018066406,0.017578125,0.018066406,0.017456055,0.017089844,0.016967773,0.016113281,0.01586914,0.016357422,0.018066406,0.018554688,0.018066406,0.018554688,0.017944336,0.017578125,0.017456055,0.016601562,0.016357422,0.016845703
panda,0.017944336,0.024658203,0.021606445,0.021240234,0.01953125,0.020263672,0.016845703,0.016601562,0.017089844,0.012756348,0.017944336,0.021240234,0.01977539,0.01953125,0.018798828,0.019165039,0.017456055,0.017333984,0.017578125,0.015380859,0.021240234,0.024658203,0.023071289,0.022949219,0.022094727,0.022460938,0.020751953,0.020629883,0.020874023,0.018676758,0.01977539,0.023071289,0.021606445,0.021484375,0.020629883,0.020996094,0.01928711,0.019042969,0.01928711,0.017211914,0.01953125,0.022949219,0.021484375,0.021240234,0.020385742,0.020751953,0.019042969,0.018920898,0.019165039,0.016967773,0.018798828,0.022094727,0.020629883,0.020385742,0.01953125,0.020019531,0.018310547,0.018066406,0.018310547,0.016113281,0.019165039,0.022460938,0.020996094,0.020751953,0.020019531,0.020263672,0.018554688,0.018432617,0.018676758,0.016601562,0.017456055,0.020751953,0.01928711,0.019042969,0.018310547,0.018554688,0.016845703,0.016723633,0.016967773,0.014831543,0.017333984,0.020629883,0.019042969,0.018920898,0.018066406,0.018432617,0.016723633,0.016601562,0.016845703,0.0146484375,0.017578125,0.020874023,0.01928711,0.019165039,0.018310547,0.018676758,0.016967773,0.016845703,0.017089844,0.014892578,0.015380859,0.018676758,0.017211914,0.016967773,0.016113281,0.016601562,0.014831543,0.0146484375,0.014892578,0.012756348,0.017944336,0.020141602,0.019165039,0.019042969,0.018432617,0.018798828,0.017578125,0.017456055,0.017700195,0.016235352,0.020141602,0.022338867,0.021362305,0.021240234,0.020751953,0.020996094,0.01977539,0.01977539,0.019897461,0.018432617,0.019165039,0.021362305,0.020385742,0.020263672,0.01965332,0.020019531,0.018798828,0.018676758,0.018920898,0.017456055,0.019042969,0.021240234,0.020263672,0.020141602,0.01953125,0.01977539,0.018676758,0.018554688,0.018798828,0.017333984,0.018432617,0.020751953,0.01965332,0.01953125,0.019042969,0.01928711,0.018066406,0.018066406,0.018188477,0.016723633,0.018798828,0.020996094,0.020019531,0.01977539,0.01928711,0.01953125,0.018310547,0.018310547,0.018432617,0.016967773,0.017578125,0.01977539,0.018798828,0.018676758,0.018066406,0.018310547,0.017211914,0.017089844,0.017333984,0.01586914,0.017456055,0.01977539,0.018676758,0.018554688,0.018066406,0.018310547,0.017089844,0.017089844,0.017211914,0.01574707,0.017700195,0.019897461,0.018920898,0.018798828,0.018188477,0.018432617,0.017333984,0.017211914,0.017333984,0.01586914,0.016235352,0.018432617,0.017456055,0.017333984,0.016723633,0.016967773,0.01586914,0.01574707,0.01586914,0.014465332,0.020141602,0.022338867,0.021362305,0.021240234,0.020751953,0.020996094,0.01977539,0.01977539,0.019897461,0.018432617,0.022338867,0.024658203,0.02355957,0.0234375,0.022949219,0.02319336,0.021972656,0.021972656,0.022094727,0.020629883,0.021362305,0.02355957,0.022583008,0.022460938,0.021972656,0.022216797,0.020996094,0.020996094,0.021118164,0.01965332,0.021240234,0.0234375,0.022460938,0.022338867,0.021728516,0.022094727,0.020874023,0.020751953,0.020996094,0.01953125,0.020751953,0.022949219,0.021972656,0.021728516,0.021240234,0.021484375,0.020263672,0.020263672,0.020385742,0.018920898,0.020996094,0.02319336,0.022216797,0.022094727,0.021484375,0.021728516,0.020629883,0.020507812,0.020629883,0.01928711,0.01977539,0.021972656,0.020996094,0.020874023,0.020263672,0.020629883,0.01940918,0.01928711,0.01953125,0.018066406,0.01977539,0.021972656,0.020996094,0.020751953,0.020263672,0.020507812,0.01928711,0.01928711,0.01940918,0.017944336,0.019897461,0.022094727,0.021118164,0.020996094,0.020385742,0.020629883,0.01953125,0.01940918,0.01953125,0.018188477,0.018432617,0.020629883,0.01965332,0.01953125,0.018920898,0.01928711,0.018066406,0.017944336,0.018188477,0.016723633,0.019165039,0.021362305,0.020385742,0.020263672,0.01965332,0.020019531,0.018798828,0.018676758,0.018920898,0.017456055,0.021362305,0.02355957,0.022583008,0.022460938,0.021972656,0.022216797,0.020996094,0.020996094,0.021118164,0.01965332,0.020385742,0.022583008,0.021606445,0.021484375,0.020874023,0.021240234,0.020019531,0.019897461,0.020141602,0.018676758,0.020263672,0.022460938,0.021484375,0.021362305,0.020751953,0.020996094,0.019897461,0.01977539,0.020019531,0.018554688,0.01965332,0.021972656,0.020874023,0.020751953,0.020263672,0.020507812,0.01928711,0.01928711,0.01940918,0.017944336,0.020019531,0.022216797,0.021240234,0.020996094,0.020507812,0.020751953,0.01953125,0.01953125,0.01965332,0.018188477,0.018798828,0.020996094,0.020019531,0.019897461,0.01928711,0.01953125,0.018432617,0.018310547,0.018554688,0.017089844,0.018676758,0.020996094,0.019897461,0.01977539,0.01928711,0.01953125,0.018310547,0.018310547,0.018432617,0.016967773,0.018920898,0.021118164,0.020141602,0.020019531,0.01940918,0.01965332,0.018554688,0.018432617,0.018554688,0.017089844,0.017456055,0.01965332,0.018676758,0.018554688,0.017944336,0.018188477,0.017089844,0.016967773,0.017089844,0.01574707,0.019042969,0.021240234,0.020263672,0.020141602,0.01953125,0.01977539,0.018676758,0.018554688,0.018798828,0.017333984,0.021240234,0.0234375,0.022460938,0.022338867,0.021728516,0.022094727,0.020874023,0.020751953,0.020996094,0.01953125,0.020263672,0.022460938,0.021484375,0.021362305,0.020751953,0.020996094,0.019897461,0.01977539,0.020019531,0.018554688,0.020141602,0.022338867,0.021362305,0.021240234,0.020629883,0.020996094,0.01977539,0.01965332,0.019897461,0.018432617,0.01953125,0.021728516,0.020751953,0.020629883,0.020141602,0.020385742,0.019165039,0.019165039,0.01928711,0.017822266,0.01977539,0.022094727,0.020996094,0.020996094,0.020385742,0.020629883,0.01953125,0.01940918,0.01953125,0.018066406,0.018676758,0.020874023,0.019897461,0.01977539,0.019165039,0.01953125,0.018310547,0.018188477,0.018432617,0.016967773,0.018554688,0.020751953,0.01977539,0.01965332,0.019165039,0.01940918,0.018188477,0.018188477,0.018310547,0.016845703,0.018798828,0.020996094,0.020019531,0.019897461,0.01928711,0.01953125,0.018432617,0.018310547,0.018432617,0.017089844,0.017333984,0.01953125,0.018554688,0.018432617,0.017822266,0.018066406,0.016967773,0.016845703,0.017089844,0.015563965,0.018432617,0.020751953,0.01965332,0.01953125,0.019042969,0.01928711,0.018066406,0.018066406,0.018188477,0.016723633,0.020751953,0.022949219,0.021972656,0.021728516,0.021240234,0.021484375,0.020263672,0.020263672,0.020385742,0.018920898,0.01965332,0.021972656,0.020874023,0.020751953,0.020263672,0.020507812,0.01928711,0.01928711,0.01940918,0.017944336,0.01953125,0.021728516,0.020751953,0.020629883,0.020141602,0.020385742,0.019165039,0.019165039,0.01928711,0.017822266,0.019042969,0.021240234,0.020263672,0.020141602,0.01953125,0.01977539,0.018676758,0.018554688,0.018676758,0.017333984,0.01928711,0.021484375,0.020507812,0.020385742,0.01977539,0.020019531,0.018920898,0.018798828,0.019042969,0.017578125,0.018066406,0.020263672,0.01928711,0.019165039,0.018676758,0.018920898,0.017700195,0.017700195,0.017822266,0.016357422,0.018066406,0.020263672,0.01928711,0.019165039,0.018554688,0.018798828,0.017700195,0.017578125,0.017700195,0.016357422,0.018188477,0.020385742,0.01940918,0.01928711,0.018676758,0.019042969,0.017822266,0.017700195,0.017944336,0.016479492,0.016723633,0.018920898,0.017944336,0.017822266,0.017333984,0.017578125,0.016357422,0.016357422,0.016479492,0.015014648,0.018798828,0.020996094,0.020019531,0.01977539,0.01928711,0.01953125,0.018310547,0.018310547,0.018432617,0.016967773,0.020996094,0.02319336,0.022216797,0.022094727,0.021484375,0.021728516,0.020629883,0.020507812,0.020629883,0.01928711,0.020019531,0.022216797,0.021240234,0.020996094,0.020507812,0.020751953,0.01953125,0.01953125,0.01965332,0.018188477,0.01977539,0.022094727,0.020996094,0.020996094,0.020385742,0.020629883,0.01953125,0.01940918,0.01953125,0.018066406,0.01928711,0.021484375,0.020507812,0.020385742,0.01977539,0.020019531,0.018920898,0.018798828,0.019042969,0.017578125,0.01953125,0.021728516,0.020751953,0.020629883,0.020019531,0.020263672,0.019165039,0.019042969,0.01928711,0.017822266,0.018310547,0.020629883,0.01953125,0.01953125,0.018920898,0.019165039,0.018066406,0.017944336,0.018066406,0.016601562,0.018310547,0.020507812,0.01953125,0.01940918,0.018798828,0.019042969,0.017944336,0.017822266,0.018066406,0.016601562,0.018432617,0.020629883,0.01965332,0.01953125,0.019042969,0.01928711,0.018066406,0.018066406,0.018188477,0.016723633,0.016967773,0.01928711,0.018188477,0.018066406,0.017578125,0.017822266,0.016601562,0.016601562,0.016723633,0.015258789,0.017578125,0.01977539,0.018798828,0.018676758,0.018066406,0.018310547,0.017211914,0.017089844,0.017333984,0.01586914,0.01977539,0.021972656,0.020996094,0.020874023,0.020263672,0.020629883,0.01940918,0.01928711,0.01953125,0.018066406,0.018798828,0.020996094,0.020019531,0.019897461,0.01928711,0.01953125,0.018432617,0.018310547,0.018554688,0.017089844,0.018676758,0.020874023,0.019897461,0.01977539,0.019165039,0.01953125,0.018310547,0.018188477,0.018432617,0.016967773,0.018066406,0.020263672,0.01928711,0.019165039,0.018676758,0.018920898,0.017700195,0.017700195,0.017822266,0.016357422,0.018310547,0.020629883,0.01953125,0.01953125,0.018920898,0.019165039,0.018066406,0.017944336,0.018066406,0.016601562,0.017211914,0.01940918,0.018432617,0.018310547,0.017700195,0.018066406,0.016845703,0.016723633,0.016967773,0.01550293,0.017089844,0.01928711,0.018310547,0.018188477,0.017700195,0.017944336,0.016723633,0.016723633,0.016845703,0.015380859,0.017333984,0.01953125,0.018554688,0.018432617,0.017822266,0.018066406,0.016967773,0.016845703,0.016967773,0.015563965,0.01586914,0.018066406,0.017089844,0.016967773,0.016357422,0.016601562,0.01550293,0.015380859,0.015563965,0.014099121,0.017456055,0.01977539,0.018676758,0.018554688,0.018066406,0.018310547,0.017089844,0.017089844,0.017211914,0.01574707,0.01977539,0.021972656,0.020996094,0.020751953,0.020263672,0.020507812,0.01928711,0.01928711,0.01940918,0.017944336,0.018676758,0.020996094,0.019897461,0.01977539,0.01928711,0.01953125,0.018310547,0.018310547,0.018432617,0.016967773,0.018554688,0.020751953,0.01977539,0.01965332,0.019165039,0.01940918,0.018188477,0.018188477,0.018310547,0.016845703,0.018066406,0.020263672,0.01928711,0.019165039,0.018554688,0.018798828,0.017700195,0.017578125,0.017700195,0.016357422,0.018310547,0.020507812,0.01953125,0.01940918,0.018798828,0.019042969,0.017944336,0.017822266,0.018066406,0.016601562,0.017089844,0.01928711,0.018310547,0.018188477,0.017700195,0.017944336,0.016723633,0.016723633,0.016845703,0.015380859,0.017089844,0.01928711,0.018310547,0.018188477,0.017578125,0.017822266,0.016723633,0.016601562,0.016723633,0.015319824,0.017211914,0.01940918,0.018432617,0.018310547,0.017700195,0.018066406,0.016845703,0.016723633,0.016967773,0.01550293,0.01574707,0.017944336,0.016967773,0.016845703,0.016357422,0.016601562,0.015380859,0.015319824,0.01550293,0.014038086,0.017700195,0.019897461,0.018920898,0.018798828,0.018188477,0.018432617,0.017333984,0.017211914,0.017333984,0.01586914,0.019897461,0.022094727,0.021118164,0.020996094,0.020385742,0.020629883,0.01953125,0.01940918,0.01953125,0.018188477,0.018920898,0.021118164,0.020141602,0.020019531,0.01940918,0.01965332,0.018554688,0.018432617,0.018554688,0.017089844,0.018798828,0.020996094,0.020019531,0.019897461,0.01928711,0.01953125,0.018432617,0.018310547,0.018432617,0.017089844,0.018188477,0.020385742,0.01940918,0.01928711,0.018676758,0.019042969,0.017822266,0.017700195,0.017944336,0.016479492,0.018432617,0.020629883,0.01965332,0.01953125,0.019042969,0.01928711,0.018066406,0.018066406,0.018188477,0.016723633,0.017333984,0.01953125,0.018554688,0.018432617,0.017822266,0.018066406,0.016967773,0.016845703,0.016967773,0.015563965,0.017211914,0.01940918,0.018432617,0.018310547,0.017700195,0.018066406,0.016845703,0.016723633,0.016967773,0.01550293,0.017333984,0.01953125,0.018554688,0.018432617,0.017944336,0.018188477,0.016967773,0.016967773,0.017089844,0.015625,0.01586914,0.018188477,0.017089844,0.017089844,0.016479492,0.016723633,0.015563965,0.01550293,0.015625,0.014221191,0.016235352,0.018432617,0.017456055,0.017333984,0.016723633,0.016967773,0.01586914,0.01574707,0.01586914,0.014465332,0.018432617,0.020629883,0.01965332,0.01953125,0.018920898,0.01928711,0.018066406,0.017944336,0.018188477,0.016723633,0.017456055,0.01965332,0.018676758,0.018554688,0.017944336,0.018188477,0.017089844,0.016967773,0.017089844,0.01574707,0.017333984,0.01953125,0.018554688,0.018432617,0.017822266,0.018066406,0.016967773,0.016845703,0.017089844,0.015563965,0.016723633,0.018920898,0.017944336,0.017822266,0.017333984,0.017578125,0.016357422,0.016357422,0.016479492,0.015014648,0.016967773,0.01928711,0.018188477,0.018066406,0.017578125,0.017822266,0.016601562,0.016601562,0.016723633,0.015258789,0.01586914,0.018066406,0.017089844,0.016967773,0.016357422,0.016601562,0.01550293,0.015380859,0.015563965,0.014099121,0.01574707,0.017944336,0.016967773,0.016845703,0.016357422,0.016601562,0.015380859,0.015319824,0.01550293,0.014038086,0.01586914,0.018188477,0.017089844,0.017089844,0.016479492,0.016723633,0.015563965,0.01550293,0.015625,0.014221191,0.014465332,0.016723633,0.01574707,0.015563965,0.015014648,0.015258789,0.014099121,0.014038086,0.014221191,0.012756348
lion,-0.052978516,-0.064941406,-0.0703125,-0.0625,-0.056640625,-0.056640625,-0.05493164,-0.04638672,-0.048095703,-0.045410156,-0.052978516,-0.05908203,-0.061523438,-0.057617188,-0.0546875,-0.0546875,-0.053955078,-0.049804688,-0.05053711,-0.049316406,-0.05908203,-0.064941406,-0.06738281,-0.06347656,-0.060791016,-0.060791016,-0.060058594,-0.055664062,-0.056640625,-0.05517578,-0.061523438,-0.06738281,-0.0703125,-0.06640625,-0.06347656,-0.06347656,-0.0625,-0.05834961,-0.05908203,-0.057861328,-0.057617188,-0.06347656,-0.06640625,-0.0625,-0.059570312,-0.059570312,-0.05859375,-0.05444336,-0.05517578,-0.053955078,-0.0546875,-0.060791016,-0.06347656,-0.059570312,-0.056640625,-0.056640625,-0.055664062,-0.051513672,-0.052246094,-0.05102539,-0.0546875,-0.060791016,-0.06347656,-0.059570312,-0.056640625,-0.056640625,-0.055664062,-0.051513672,-0.052246094,-0.05102539,-0.053955078,-0.060058594,-0.0625,-0.05859375,-0.055664062,-0.055664062,-0.05493164,-0.05078125,-0.051513672,-0.05029297,-0.049804688,-0.055664062,-0.05834961,-0.05444336,-0.051513672,-0.051513672,-0.05078125,-0.04638672,-0.04736328,-0.045898438,-0.05053711,-0.056640625,-0.05908203,-0.05517578,-0.052246094,-0.052246094,-0.051513672,-0.04736328,-0.048095703,-0.046875,-0.049316406,-0.05517578,-0.057861328,-0.053955078,-0.05102539,-0.05102539,-0.05029297,-0.045898438,-0.046875,-0.045410156,-0.052978516,-0.056884766,-0.05883789,-0.056152344,-0.05419922,-0.05419922,-0.053710938,-0.05078125,-0.05126953,-0.05053711,-0.056884766,-0.061035156,-0.0625,-0.060058594,-0.05810547,-0.05810547,-0.057617188,-0.0546875,-0.055419922,-0.05444336,-0.05883789,-0.0625,-0.064453125,-0.06201172,-0.060058594,-0.060058594,-0.059326172,-0.056640625,-0.057128906,-0.056152344,-0.056152344,-0.060058594,-0.06201172,-0.059326172,-0.057373047,-0.057373047,-0.056884766,-0.053955078,-0.05444336,-0.053710938,-0.05419922,-0.05810547,-0.060058594,-0.057373047,-0.055419922,-0.055419922,-0.05493164,-0.052001953,-0.052490234,-0.051757812,-0.05419922,-0.05810547,-0.060058594,-0.057373047,-0.055419922,-0.055419922,-0.05493164,-0.052001953,-0.052490234,-0.051757812,-0.053710938,-0.057617188,-0.059326172,-0.056884766,-0.05493164,-0.05493164,-0.05419922,-0.051513672,-0.052001953,-0.05102539,-0.05078125,-0.0546875,-0.056640625,-0.053955078,-0.052001953,-0.052001953,-0.051513672,-0.048583984,-0.049072266,-0.048339844,-0.05126953,-0.055419922,-0.057128906,-0.05444336,-0.052490234,-0.052490234,-0.052001953,-0.049072266,-0.049804688,-0.048828125,-0.05053711,-0.05444336,-0.056152344,-0.053710938,-0.051757812,-0.051757812,-0.05102539,-0.048339844,-0.048828125,-0.047851562,-0.056884766,-0.061035156,-0.0625,-0.060058594,-0.05810547,-0.05810547,-0.057617188,-0.0546875,-0.055419922,-0.05444336,-0.061035156,-0.064941406,-0.06689453,-0.063964844,-0.06225586,-0.06225586,-0.061523438,-0.05883789,-0.059326172,-0.05834961,-0.0625,-0.06689453,-0.068359375,-0.06591797,-0.063964844,-0.063964844,-0.06347656,-0.060546875,-0.061035156,-0.060302734,-0.060058594,-0.063964844,-0.06591797,-0.06347656,-0.061279297,-0.061279297,-0.060791016,-0.057861328,-0.05859375,-0.057617188,-0.05810547,-0.06225586,-0.063964844,-0.061279297,-0.059326172,-0.059326172,-0.05883789,-0.055908203,-0.056640625,-0.055664062,-0.05810547,-0.06225586,-0.063964844,-0.061279297,-0.059326172,-0.059326172,-0.05883789,-0.055908203,-0.056640625,-0.055664062,-0.057617188,-0.061523438,-0.06347656,-0.060791016,-0.05883789,-0.05883789,-0.05834961,-0.055419922,-0.055908203,-0.05517578,-0.0546875,-0.05883789,-0.060546875,-0.057861328,-0.055908203,-0.055908203,-0.055419922,-0.052490234,-0.053222656,-0.052246094,-0.055419922,-0.059326172,-0.061035156,-0.05859375,-0.056640625,-0.056640625,-0.055908203,-0.053222656,-0.053710938,-0.052734375,-0.05444336,-0.05834961,-0.060302734,-0.057617188,-0.055664062,-0.055664062,-0.05517578,-0.052246094,-0.052734375,-0.052001953,-0.05883789,-0.0625,-0.064453125,-0.06201172,-0.060058594,-0.060058594,-0.059326172,-0.056640625,-0.057128906,-0.056152344,-0.0625,-0.06689453,-0.068359375,-0.06591797,-0.063964844,-0.063964844,-0.06347656,-0.060546875,-0.061035156,-0.060302734,-0.064453125,-0.068359375,-0.0703125,-0.067871094,-0.06591797,-0.06591797,-0.06542969,-0.06225586,-0.06298828,-0.06201172,-0.06201172,-0.06591797,-0.067871094,-0.064941406,-0.06298828,-0.06298828,-0.0625,-0.059814453,-0.060302734,-0.059326172,-0.060058594,-0.063964844,-0.06591797,-0.06298828,-0.061279297,-0.061279297,-0.060546875,-0.057861328,-0.05834961,-0.057373047,-0.060058594,-0.063964844,-0.06591797,-0.06298828,-0.061279297,-0.061279297,-0.060546875,-0.057861328,-0.05834961,-0.057373047,-0.059326172,-0.06347656,-0.06542969,-0.0625,-0.060546875,-0.060546875,-0.060058594,-0.057128906,-0.057861328,-0.056884766,-0.056640625,-0.060546875,-0.06225586,-0.059814453,-0.057861328,-0.057861328,-0.057128906,-0.05444336,-0.05493164,-0.053955078,-0.057128906,-0.061035156,-0.06298828,-0.060302734,-0.05834961,-0.05834961,-0.057861328,-0.05493164,-0.055419922,-0.0546875,-0.056152344,-0.060302734,-0.06201172,-0.059326172,-0.057373047,-0.057373047,-0.056884766,-0.053955078,-0.0546875,-0.053710938,-0.056152344,-0.060058594,-0.06201172,-0.059326172,-0.057373047,-0.057373047,-0.056884766,-0.053955078,-0.05444336,-0.053710938,-0.060058594,-0.063964844,-0.06591797,-0.06347656,-0.061279297,-0.061279297,-0.060791016,-0.057861328,-0.05859375,-0.057617188,-0.06201172,-0.06591797,-0.067871094,-0.064941406,-0.06298828,-0.06298828,-0.0625,-0.059814453,-0.060302734,-0.059326172,-0.059326172,-0.06347656,-0.064941406,-0.0625,-0.060546875,-0.060546875,-0.060058594,-0.057128906,-0.057617188,-0.056884766,-0.057373047,-0.061279297,-0.06298828,-0.060546875,-0.05859375,-0.05859375,-0.05810547,-0.05517578,-0.055664062,-0.05493164,-0.057373047,-0.061279297,-0.06298828,-0.060546875,-0.05859375,-0.05859375,-0.05810547,-0.05517578,-0.055664062,-0.05493164,-0.056884766,-0.060791016,-0.0625,-0.060058594,-0.05810547,-0.05810547,-0.057373047,-0.0546875,-0.05517578,-0.05419922,-0.053955078,-0.057861328,-0.059814453,-0.057128906,-0.05517578,-0.05517578,-0.0546875,-0.051757812,-0.052246094,-0.051513672,-0.05444336,-0.05859375,-0.060302734,-0.057617188,-0.055664062,-0.055664062,-0.05517578,-0.052246094,-0.052978516,-0.052001953,-0.053710938,-0.057617188,-0.059326172,-0.056884766,-0.05493164,-0.05493164,-0.05419922,-0.051513672,-0.052001953,-0.05102539,-0.05419922,-0.05810547,-0.060058594,-0.057373047,-0.055419922,-0.055419922,-0.05493164,-0.052001953,-0.052490234,-0.051757812,-0.05810547,-0.06225586,-0.063964844,-0.061279297,-0.059326172,-0.059326172,-0.05883789,-0.055908203,-0.056640625,-0.055664062,-0.060058594,-0.063964844,-0.06591797,-0.06298828,-0.061279297,-0.061279297,-0.060546875,-0.057861328,-0.05834961,-0.057373047,-0.057373047,-0.061279297,-0.06298828,-0.060546875,-0.05859375,-0.05859375,-0.05810547,-0.05517578,-0.055664062,-0.05493164,-0.055419922,-0.059326172,-0.061279297,-0.05859375,-0.056640625,-0.056640625,-0.056152344,-0.053222656,-0.053710938,-0.052978516,-0.055419922,-0.059326172,-0.061279297,-0.05859375,-0.056640625,-0.056640625,-0.056152344,-0.053222656,-0.053710938,-0.052978516,-0.05493164,-0.05883789,-0.060546875,-0.05810547,-0.056152344,-0.056152344,-0.055419922,-0.052734375,-0.053222656,-0.052246094,-0.052001953,-0.055908203,-0.057861328,-0.05517578,-0.053222656,-0.053222656,-0.052734375,-0.049804688,-0.05029297,-0.049560547,-0.052490234,-0.056640625,-0.05834961,-0.055664062,-0.053710938,-0.053710938,-0.053222656,-0.05029297,-0.05102539,-0.050048828,-0.051757812,-0.055664062,-0.057373047,-0.05493164,-0.052978516,-0.052978516,-0.052246094,-0.049560547,-0.050048828,-0.049072266,-0.05419922,-0.05810547,-0.060058594,-0.057373047,-0.055419922,-0.055419922,-0.05493164,-0.052001953,-0.052490234,-0.051757812,-0.05810547,-0.06225586,-0.063964844,-0.061279297,-0.059326172,-0.059326172,-0.05883789,-0.055908203,-0.056640625,-0.055664062,-0.060058594,-0.063964844,-0.06591797,-0.06298828,-0.061279297,-0.061279297,-0.060546875,-0.057861328,-0.05834961,-0.057373047,-0.057373047,-0.061279297,-0.06298828,-0.060546875,-0.05859375,-0.05859375,-0.05810547,-0.05517578,-0.055664062,-0.05493164,-0.055419922,-0.059326172,-0.061279297,-0.05859375,-0.056640625,-0.056640625,-0.056152344,-0.053222656,-0.053710938,-0.052978516,-0.055419922,-0.059326172,-0.061279297,-0.05859375,-0.056640625,-0.056640625,-0.056152344,-0.053222656,-0.053710938,-0.052978516,-0.05493164,-0.05883789,-0.060546875,-0.05810547,-0.056152344,-0.056152344,-0.055419922,-0.052734375,-0.053222656,-0.052246094,-0.052001953,-0.055908203,-0.057861328,-0.05517578,-0.053222656,-0.053222656,-0.052734375,-0.049804688,-0.05029297,-0.049560547,-0.052490234,-0.056640625,-0.05834961,-0.055664062,-0.053710938,-0.053710938,-0.053222656,-0.05029297,-0.05102539,-0.050048828,-0.051757812,-0.055664062,-0.057373047,-0.05493164,-0.052978516,-0.052978516,-0.052246094,-0.049560547,-0.050048828,-0.049072266,-0.053710938,-0.057617188,-0.059326172,-0.056884766,-0.05493164,-0.05493164,-0.05419922,-0.051513672,-0.052001953,-0.05102539,-0.057617188,-0.061523438,-0.06347656,-0.060791016,-0.05883789,-0.05883789,-0.05834961,-0.055419922,-0.055908203,-0.05517578,-0.059326172,-0.06347656,-0.06542969,-0.0625,-0.060546875,-0.060546875,-0.060058594,-0.057128906,-0.057861328,-0.056884766,-0.056884766,-0.060791016,-0.0625,-0.060058594,-0.05810547,-0.05810547,-0.057373047,-0.0546875,-0.05517578,-0.05419922,-0.05493164,-0.05883789,-0.060546875,-0.05810547,-0.056152344,-0.056152344,-0.055419922,-0.052734375,-0.053222656,-0.052246094,-0.05493164,-0.05883789,-0.060546875,-0.05810547,-0.056152344,-0.056152344,-0.055419922,-0.052734375,-0.053222656,-0.052246094,-0.05419922,-0.05834961,-0.060058594,-0.057373047,-0.055419922,-0.055419922,-0.05493164,-0.052001953,-0.052734375,-0.051757812,-0.051513672,-0.055419922,-0.057128906,-0.0546875,-0.052734375,-0.052734375,-0.052001953,-0.049316406,-0.049804688,-0.048828125,-0.052001953,-0.055908203,-0.057861328,-0.05517578,-0.053222656,-0.053222656,-0.052734375,-0.049804688,-0.05029297,-0.049560547,-0.05102539,-0.05517578,-0.056884766,-0.05419922,-0.052246094,-0.052246094,-0.051757812,-0.048828125,-0.049560547,-0.048583984,-0.05078125,-0.0546875,-0.056640625,-0.053955078,-0.052001953,-0.052001953,-0.051513672,-0.048583984,-0.049072266,-0.048339844,-0.0546875,-0.05883789,-0.060546875,-0.057861328,-0.055908203,-0.055908203,-0.055419922,-0.052490234,-0.053222656,-0.052246094,-0.056640625,-0.060546875,-0.06225586,-0.059814453,-0.057861328,-0.057861328,-0.057128906,-0.05444336,-0.05493164,-0.053955078,-0.053955078,-0.057861328,-0.059814453,-0.057128906,-0.05517578,-0.05517578,-0.0546875,-0.051757812,-0.052246094,-0.051513672,-0.052001953,-0.055908203,-0.057861328,-0.05517578,-0.053222656,-0.053222656,-0.052734375,-0.049804688,-0.05029297,-0.049560547,-0.052001953,-0.055908203,-0.057861328,-0.05517578,-0.053222656,-0.053222656,-0.052734375,-0.049804688,-0.05029297,-0.049560547,-0.051513672,-0.055419922,-0.057128906,-0.0546875,-0.052734375,-0.052734375,-0.052001953,-0.049316406,-0.049804688,-0.048828125,-0.048583984,-0.052490234,-0.05444336,-0.051757812,-0.049804688,-0.049804688,-0.049316406,-0.04638672,-0.046875,-0.046142578,-0.049072266,-0.053222656,-0.05493164,-0.052246094,-0.05029297,-0.05029297,-0.049804688,-0.046875,-0.047607422,-0.04663086,-0.048339844,-0.052246094,-0.053955078,-0.051513672,-0.049560547,-0.049560547,-0.048828125,-0.046142578,-0.04663086,-0.045654297,-0.05126953,-0.055419922,-0.057128906,-0.05444336,-0.052490234,-0.052490234,-0.052001953,-0.049072266,-0.049804688,-0.048828125,-0.055419922,-0.059326172,-0.061035156,-0.05859375,-0.056640625,-0.056640625,-0.055908203,-0.053222656,-0.053710938,-0.052734375,-0.057128906,-0.061035156,-0.06298828,-0.060302734,-0.05834961,-0.05834961,-0.057861328,-0.05493164,-0.055419922,-0.0546875,-0.05444336,-0.05859375,-0.060302734,-0.057617188,-0.055664062,-0.055664062,-0.05517578,-0.052246094,-0.052978516,-0.052001953,-0.052490234,-0.056640625,-0.05834961,-0.055664062,-0.053710938,-0.053710938,-0.053222656,-0.05029297,-0.05102539,-0.050048828,-0.052490234,-0.056640625,-0.05834961,-0.055664062,-0.053710938,-0.053710938,-0.053222656,-0.05029297,-0.05102539,-0.050048828,-0.052001953,-0.055908203,-0.057861328,-0.05517578,-0.053222656,-0.053222656,-0.052734375,-0.049804688,-0.05029297,-0.049560547,-0.049072266,-0.053222656,-0.05493164,-0.052246094,-0.05029297,-0.05029297,-0.049804688,-0.046875,-0.047607422,-0.04663086,-0.049804688,-0.053710938,-0.055419922,-0.052978516,-0.05102539,-0.05102539,-0.05029297,-0.047607422,-0.048095703,-0.04711914,-0.048828125,-0.052734375,-0.0546875,-0.052001953,-0.050048828,-0.050048828,-0.049560547,-0.04663086,-0.04711914,-0.04638672,-0.05053711,-0.05444336,-0.056152344,-0.053710938,-0.051757812,-0.051757812,-0.05102539,-0.048339844,-0.048828125,-0.047851562,-0.05444336,-0.05834961,-0.060302734,-0.057617188,-0.055664062,-0.055664062,-0.05517578,-0.052246094,-0.052734375,-0.052001953,-0.056152344,-0.060302734,-0.06201172,-0.059326172,-0.057373047,-0.057373047,-0.056884766,-0.053955078,-0.0546875,-0.053710938,-0.053710938,-0.057617188,-0.059326172,-0.056884766,-0.05493164,-0.05493164,-0.05419922,-0.051513672,-0.052001953,-0.05102539,-0.051757812,-0.055664062,-0.057373047,-0.05493164,-0.052978516,-0.052978516,-0.052246094,-0.049560547,-0.050048828,-0.049072266,-0.051757812,-0.055664062,-0.057373047,-0.05493164,-0.052978516,-0.052978516,-0.052246094,-0.049560547,-0.050048828,-0.049072266,-0.05102539,-0.05517578,-0.056884766,-0.05419922,-0.052246094,-0.052246094,-0.051757812,-0.048828125,-0.049560547,-0.048583984,-0.048339844,-0.052246094,-0.053955078,-0.051513672,-0.049560547,-0.049560547,-0.048828125,-0.046142578,-0.04663086,-0.045654297,-0.048828125,-0.052734375,-0.0546875,-0.052001953,-0.050048828,-0.050048828,-0.049560547,-0.04663086,-0.04711914,-0.04638672,-0.047851562,-0.052001953,-0.053710938,-0.05102539,-0.049072266,-0.049072266,-0.048583984,-0.045654297,-0.04638672,-0.045410156
kangaroo,0.0008049011,-0.00025367737,0.00036621094,0.0020141602,-0.0016098022,-0.0021820068,-0.0026397705,-0.002532959,-0.0009994507,-0.0021209717,0.0008010864,0.00031661987,0.000541687,0.0013656616,-0.0004081726,-0.0006828308,-0.00091552734,-0.0008659363,-9.346008e-05,-0.0006637573,0.00031661987,-0.00016784668,5.8412552e-05,0.00088119507,-0.00089263916,-0.0011672974,-0.0014038086,-0.0013504028,-0.0005760193,-0.0011520386,0.000541687,5.8412552e-05,0.00028419495,0.0011062622,-0.0006637573,-0.0009422302,-0.0011749268,-0.001121521,-0.00035095215,-0.00092315674,0.0013656616,0.00088119507,0.0011062622,0.0019302368,0.00015735626,-0.000118255615,-0.0003528595,-0.00030136108,0.0004711151,-0.00010061264,-0.0004081726,-0.00089263916,-0.0006637573,0.00015735626,-0.0016174316,-0.0018920898,-0.0021209717,-0.0020751953,-0.0012969971,-0.001876831,-0.0006828308,-0.0011672974,-0.0009422302,-0.000118255615,-0.0018920898,-0.002166748,-0.0023956299,-0.0023498535,-0.0015792847,-0.0021514893,-0.00091552734,-0.0014038086,-0.0011749268,-0.0003528595,-0.0021209717,-0.0023956299,-0.0026397705,-0.0025787354,-0.0018081665,-0.002380371,-0.0008659363,-0.0013504028,-0.001121521,-0.00030136108,-0.0020751953,-0.0023498535,-0.0025787354,-0.002532959,-0.0017623901,-0.0023345947,-9.346008e-05,-0.0005760193,-0.00035095215,0.0004711151,-0.0012969971,-0.0015792847,-0.0018081665,-0.0017623901,-0.0009841919,-0.0015563965,-0.0006637573,-0.0011520386,-0.00092315674,-0.00010061264,-0.001876831,-0.0021514893,-0.002380371,-0.0023345947,-0.0015563965,-0.0021362305,0.0008049011,0.00045013428,0.00065612793,0.0012054443,-1.5869737e-06,-0.00018978119,-0.00034332275,-0.00030899048,0.00020313263,-0.00017261505,0.00045013428,9.918213e-05,0.00030517578,0.0008544922,-0.0003528595,-0.000541687,-0.0006942749,-0.0006599426,-0.0001487732,-0.0005264282,0.00065612793,0.00030517578,0.00051116943,0.0010604858,-0.00014686584,-0.00033569336,-0.00048828125,-0.00045394897,5.7458878e-05,-0.00031852722,0.0012054443,0.0008544922,0.0010604858,0.0016098022,0.0004005432,0.00021266937,6.0081482e-05,9.393692e-05,0.00060653687,0.00022983551,-1.5869737e-06,-0.0003528595,-0.00014686584,0.0004005432,-0.0008049011,-0.0009918213,-0.0011444092,-0.0011138916,-0.00060272217,-0.0009765625,-0.00018978119,-0.000541687,-0.00033569336,0.00021266937,-0.0009918213,-0.0011825562,-0.001335144,-0.0013046265,-0.00078964233,-0.0011672974,-0.00034332275,-0.0006942749,-0.00048828125,6.0081482e-05,-0.0011444092,-0.001335144,-0.0014877319,-0.0014572144,-0.0009422302,-0.0013198853,-0.00030899048,-0.0006599426,-0.00045394897,9.393692e-05,-0.0011138916,-0.0013046265,-0.0014572144,-0.0014190674,-0.00090789795,-0.0012817383,0.00020313263,-0.0001487732,5.7458878e-05,0.00060653687,-0.00060272217,-0.00078964233,-0.0009422302,-0.00090789795,-0.00039672852,-0.00077438354,-0.00017261505,-0.0005264282,-0.00031852722,0.00022983551,-0.0009765625,-0.0011672974,-0.0013198853,-0.0012817383,-0.00077438354,-0.0011520386,0.00045013428,9.918213e-05,0.00030517578,0.0008544922,-0.0003528595,-0.000541687,-0.0006942749,-0.0006599426,-0.0001487732,-0.0005264282,9.918213e-05,-0.00025367737,-4.673004e-05,0.00050354004,-0.000705719,-0.00089263916,-0.001045227,-0.0010147095,-0.00049972534,-0.0008773804,0.00030517578,-4.673004e-05,0.00016021729,0.0007095337,-0.00049972534,-0.0006866455,-0.0008392334,-0.0008049011,-0.0002937317,-0.0006713867,0.0008544922,0.00050354004,0.0007095337,0.0012588501,4.9114227e-05,-0.00013923645,-0.00029182434,-0.00025749207,0.00025367737,-0.00012207031,-0.0003528595,-0.000705719,-0.00049972534,4.9114227e-05,-0.001159668,-0.0013504028,-0.0015029907,-0.0014648438,-0.0009536743,-0.0013275146,-0.000541687,-0.00089263916,-0.0006866455,-0.00013923645,-0.0013504028,-0.0015335083,-0.0016860962,-0.0016555786,-0.0011444092,-0.0015182495,-0.0006942749,-0.001045227,-0.0008392334,-0.00029182434,-0.0015029907,-0.0016860962,-0.0018386841,-0.0018081665,-0.0012969971,-0.0016708374,-0.0006599426,-0.0010147095,-0.0008049011,-0.00025749207,-0.0014648438,-0.0016555786,-0.0018081665,-0.0017700195,-0.0012588501,-0.0016403198,-0.0001487732,-0.00049972534,-0.0002937317,0.00025367737,-0.0009536743,-0.0011444092,-0.0012969971,-0.0012588501,-0.00074768066,-0.001121521,-0.0005264282,-0.0008773804,-0.0006713867,-0.00012207031,-0.0013275146,-0.0015182495,-0.0016708374,-0.0016403198,-0.001121521,-0.0015029907,0.00065612793,0.00030517578,0.00051116943,0.0010604858,-0.00014686584,-0.00033569336,-0.00048828125,-0.00045394897,5.7458878e-05,-0.00031852722,0.00030517578,-4.673004e-05,0.00016021729,0.0007095337,-0.00049972534,-0.0006866455,-0.0008392334,-0.0008049011,-0.0002937317,-0.0006713867,0.00051116943,0.00016021729,0.00036621094,0.00091552734,-0.0002937317,-0.00048065186,-0.00063323975,-0.00059890747,-8.8214874e-05,-0.00046348572,0.0010604858,0.0007095337,0.00091552734,0.0014648438,0.00025558472,6.67572e-05,-8.583069e-05,-5.173683e-05,0.00045967102,8.440018e-05,-0.00014686584,-0.00049972534,-0.0002937317,0.00025558472,-0.0009536743,-0.0011444092,-0.0012969971,-0.0012588501,-0.00074768066,-0.001121521,-0.00033569336,-0.0006866455,-0.00048065186,6.67572e-05,-0.0011444092,-0.0013275146,-0.0014801025,-0.001449585,-0.00093460083,-0.0013122559,-0.00048828125,-0.0008392334,-0.00063323975,-8.583069e-05,-0.0012969971,-0.0014801025,-0.0016326904,-0.0016021729,-0.0010910034,-0.0014648438,-0.00045394897,-0.0008049011,-0.00059890747,-5.173683e-05,-0.0012588501,-0.001449585,-0.0016021729,-0.0015640259,-0.0010528564,-0.0014343262,5.7458878e-05,-0.0002937317,-8.8214874e-05,0.00045967102,-0.00074768066,-0.00093460083,-0.0010910034,-0.0010528564,-0.000541687,-0.00091934204,-0.00031852722,-0.0006713867,-0.00046348572,8.440018e-05,-0.001121521,-0.0013122559,-0.0014648438,-0.0014343262,-0.00091934204,-0.0012969971,0.0012054443,0.0008544922,0.0010604858,0.0016098022,0.0004005432,0.00021266937,6.0081482e-05,9.393692e-05,0.00060653687,0.00022983551,0.0008544922,0.00050354004,0.0007095337,0.0012588501,4.9114227e-05,-0.00013923645,-0.00029182434,-0.00025749207,0.00025367737,-0.00012207031,0.0010604858,0.0007095337,0.00091552734,0.0014648438,0.00025558472,6.67572e-05,-8.583069e-05,-5.173683e-05,0.00045967102,8.440018e-05,0.0016098022,0.0012588501,0.0014648438,0.0020141602,0.0008049011,0.00061416626,0.00046348572,0.00049591064,0.0010070801,0.00063323975,0.0004005432,4.9114227e-05,0.00025558472,0.0008049011,-0.0004043579,-0.0005912781,-0.00074386597,-0.0007095337,-0.00019836426,-0.0005760193,0.00021266937,-0.00013923645,6.67572e-05,0.00061416626,-0.0005912781,-0.00078201294,-0.00093460083,-0.00090026855,-0.00038719177,-0.00076293945,6.0081482e-05,-0.00029182434,-8.583069e-05,0.00046348572,-0.00074386597,-0.00093460083,-0.001083374,-0.0010528564,-0.000541687,-0.00091552734,9.393692e-05,-0.00025749207,-5.173683e-05,0.00049591064,-0.0007095337,-0.00090026855,-0.0010528564,-0.0010147095,-0.00050735474,-0.00088119507,0.00060653687,0.00025367737,0.00045967102,0.0010070801,-0.00019836426,-0.00038719177,-0.000541687,-0.00050735474,5.930662e-06,-0.00037002563,0.00022983551,-0.00012207031,8.440018e-05,0.00063323975,-0.0005760193,-0.00076293945,-0.00091552734,-0.00088119507,-0.00037002563,-0.00074768066,-1.5869737e-06,-0.0003528595,-0.00014686584,0.0004005432,-0.0008049011,-0.0009918213,-0.0011444092,-0.0011138916,-0.00060272217,-0.0009765625,-0.0003528595,-0.000705719,-0.00049972534,4.9114227e-05,-0.001159668,-0.0013504028,-0.0015029907,-0.0014648438,-0.0009536743,-0.0013275146,-0.00014686584,-0.00049972534,-0.0002937317,0.00025558472,-0.0009536743,-0.0011444092,-0.0012969971,-0.0012588501,-0.00074768066,-0.001121521,0.0004005432,4.9114227e-05,0.00025558472,0.0008049011,-0.0004043579,-0.0005912781,-0.00074386597,-0.0007095337,-0.00019836426,-0.0005760193,-0.0008049011,-0.001159668,-0.0009536743,-0.0004043579,-0.0016098022,-0.0018005371,-0.001953125,-0.001914978,-0.0014038086,-0.0017852783,-0.0009918213,-0.0013504028,-0.0011444092,-0.0005912781,-0.0018005371,-0.0019836426,-0.0021362305,-0.002105713,-0.0015945435,-0.0019683838,-0.0011444092,-0.0015029907,-0.0012969971,-0.00074386597,-0.001953125,-0.0021362305,-0.0022888184,-0.0022583008,-0.0017471313,-0.0021209717,-0.0011138916,-0.0014648438,-0.0012588501,-0.0007095337,-0.001914978,-0.002105713,-0.0022583008,-0.0022277832,-0.0017166138,-0.002090454,-0.00060272217,-0.0009536743,-0.00074768066,-0.00019836426,-0.0014038086,-0.0015945435,-0.0017471313,-0.0017166138,-0.0012054443,-0.0015792847,-0.0009765625,-0.0013275146,-0.001121521,-0.0005760193,-0.0017852783,-0.0019683838,-0.0021209717,-0.002090454,-0.0015792847,-0.001953125,-0.00018978119,-0.000541687,-0.00033569336,0.00021266937,-0.0009918213,-0.0011825562,-0.001335144,-0.0013046265,-0.00078964233,-0.0011672974,-0.000541687,-0.00089263916,-0.0006866455,-0.00013923645,-0.0013504028,-0.0015335083,-0.0016860962,-0.0016555786,-0.0011444092,-0.0015182495,-0.00033569336,-0.0006866455,-0.00048065186,6.67572e-05,-0.0011444092,-0.0013275146,-0.0014801025,-0.001449585,-0.00093460083,-0.0013122559,0.00021266937,-0.00013923645,6.67572e-05,0.00061416626,-0.0005912781,-0.00078201294,-0.00093460083,-0.00090026855,-0.00038719177,-0.00076293945,-0.0009918213,-0.0013504028,-0.0011444092,-0.0005912781,-0.0018005371,-0.0019836426,-0.0021362305,-0.002105713,-0.0015945435,-0.0019683838,-0.0011825562,-0.0015335083,-0.0013275146,-0.00078201294,-0.0019836426,-0.0021820068,-0.0023345947,-0.0022888184,-0.0017852783,-0.002166748,-0.001335144,-0.0016860962,-0.0014801025,-0.00093460083,-0.0021362305,-0.0023345947,-0.0024871826,-0.0024414062,-0.0019378662,-0.002319336,-0.0013046265,-0.0016555786,-0.001449585,-0.00090026855,-0.002105713,-0.0022888184,-0.0024414062,-0.0024108887,-0.0018997192,-0.0022735596,-0.00078964233,-0.0011444092,-0.00093460083,-0.00038719177,-0.0015945435,-0.0017852783,-0.0019378662,-0.0018997192,-0.0013885498,-0.0017700195,-0.0011672974,-0.0015182495,-0.0013122559,-0.00076293945,-0.0019683838,-0.002166748,-0.002319336,-0.0022735596,-0.0017700195,-0.0021362305,-0.00034332275,-0.0006942749,-0.00048828125,6.0081482e-05,-0.0011444092,-0.001335144,-0.0014877319,-0.0014572144,-0.0009422302,-0.0013198853,-0.0006942749,-0.001045227,-0.0008392334,-0.00029182434,-0.0015029907,-0.0016860962,-0.0018386841,-0.0018081665,-0.0012969971,-0.0016708374,-0.00048828125,-0.0008392334,-0.00063323975,-8.583069e-05,-0.0012969971,-0.0014801025,-0.0016326904,-0.0016021729,-0.0010910034,-0.0014648438,6.0081482e-05,-0.00029182434,-8.583069e-05,0.00046348572,-0.00074386597,-0.00093460083,-0.001083374,-0.0010528564,-0.000541687,-0.00091552734,-0.0011444092,-0.0015029907,-0.0012969971,-0.00074386597,-0.001953125,-0.0021362305,-0.0022888184,-0.0022583008,-0.0017471313,-0.0021209717,-0.001335144,-0.0016860962,-0.0014801025,-0.00093460083,-0.0021362305,-0.0023345947,-0.0024871826,-0.0024414062,-0.0019378662,-0.002319336,-0.0014877319,-0.0018386841,-0.0016326904,-0.001083374,-0.0022888184,-0.0024871826,-0.0026397705,-0.0025939941,-0.002090454,-0.0024719238,-0.0014572144,-0.0018081665,-0.0016021729,-0.0010528564,-0.0022583008,-0.0024414062,-0.0025939941,-0.0025634766,-0.0020599365,-0.0024261475,-0.0009422302,-0.0012969971,-0.0010910034,-0.000541687,-0.0017471313,-0.0019378662,-0.002090454,-0.0020599365,-0.0015411377,-0.0019226074,-0.0013198853,-0.0016708374,-0.0014648438,-0.00091552734,-0.0021209717,-0.002319336,-0.0024719238,-0.0024261475,-0.0019226074,-0.0022888184,-0.00030899048,-0.0006599426,-0.00045394897,9.393692e-05,-0.0011138916,-0.0013046265,-0.0014572144,-0.0014190674,-0.00090789795,-0.0012817383,-0.0006599426,-0.0010147095,-0.0008049011,-0.00025749207,-0.0014648438,-0.0016555786,-0.0018081665,-0.0017700195,-0.0012588501,-0.0016403198,-0.00045394897,-0.0008049011,-0.00059890747,-5.173683e-05,-0.0012588501,-0.001449585,-0.0016021729,-0.0015640259,-0.0010528564,-0.0014343262,9.393692e-05,-0.00025749207,-5.173683e-05,0.00049591064,-0.0007095337,-0.00090026855,-0.0010528564,-0.0010147095,-0.00050735474,-0.00088119507,-0.0011138916,-0.0014648438,-0.0012588501,-0.0007095337,-0.001914978,-0.002105713,-0.0022583008,-0.0022277832,-0.0017166138,-0.002090454,-0.0013046265,-0.0016555786,-0.001449585,-0.00090026855,-0.002105713,-0.0022888184,-0.0024414062,-0.0024108887,-0.0018997192,-0.0022735596,-0.0014572144,-0.0018081665,-0.0016021729,-0.0010528564,-0.0022583008,-0.0024414062,-0.0025939941,-0.0025634766,-0.0020599365,-0.0024261475,-0.0014190674,-0.0017700195,-0.0015640259,-0.0010147095,-0.0022277832,-0.0024108887,-0.0025634766,-0.002532959,-0.0020141602,-0.0023956299,-0.00090789795,-0.0012588501,-0.0010528564,-0.00050735474,-0.0017166138,-0.0018997192,-0.0020599365,-0.0020141602,-0.0015106201,-0.0018844604,-0.0012817383,-0.0016403198,-0.0014343262,-0.00088119507,-0.002090454,-0.0022735596,-0.0024261475,-0.0023956299,-0.0018844604,-0.0022583008,0.00020313263,-0.0001487732,5.7458878e-05,0.00060653687,-0.00060272217,-0.00078964233,-0.0009422302,-0.00090789795,-0.00039672852,-0.00077438354,-0.0001487732,-0.00049972534,-0.0002937317,0.00025367737,-0.0009536743,-0.0011444092,-0.0012969971,-0.0012588501,-0.00074768066,-0.001121521,5.7458878e-05,-0.0002937317,-8.8214874e-05,0.00045967102,-0.00074768066,-0.00093460083,-0.0010910034,-0.0010528564,-0.000541687,-0.00091934204,0.00060653687,0.00025367737,0.00045967102,0.0010070801,-0.00019836426,-0.00038719177,-0.000541687,-0.00050735474,5.930662e-06,-0.00037002563,-0.00060272217,-0.0009536743,-0.00074768066,-0.00019836426,-0.0014038086,-0.0015945435,-0.0017471313,-0.0017166138,-0.0012054443,-0.0015792847,-0.00078964233,-0.0011444092,-0.00093460083,-0.00038719177,-0.0015945435,-0.0017852783,-0.0019378662,-0.0018997192,-0.0013885498,-0.0017700195,-0.0009422302,-0.0012969971,-0.0010910034,-0.000541687,-0.0017471313,-0.0019378662,-0.002090454,-0.0020599365,-0.0015411377,-0.0019226074,-0.00090789795,-0.0012588501,-0.0010528564,-0.00050735474,-0.0017166138,-0.0018997192,-0.0020599365,-0.0020141602,-0.0015106201,-0.0018844604,-0.00039672852,-0.00074768066,-0.000541687,5.930662e-06,-0.0012054443,-0.0013885498,-0.0015411377,-0.0015106201,-0.0009994507,-0.001373291,-0.00077438354,-0.001121521,-0.00091934204,-0.00037002563,-0.0015792847,-0.0017700195,-0.0019226074,-0.0018844604,-0.001373291,-0.0017471313,-0.00017261505,-0.0005264282,-0.00031852722,0.00022983551,-0.0009765625,-0.0011672974,-0.0013198853,-0.0012817383,-0.00077438354,-0.0011520386,-0.0005264282,-0.0008773804,-0.0006713867,-0.00012207031,-0.0013275146,-0.0015182495,-0.0016708374,-0.0016403198,-0.001121521,-0.0015029907,-0.00031852722,-0.0006713867,-0.00046348572,8.440018e-05,-0.001121521,-0.0013122559,-0.0014648438,-0.0014343262,-0.00091934204,-0.0012969971,0.00022983551,-0.00012207031,8.440018e-05,0.00063323975,-0.0005760193,-0.00076293945,-0.00091552734,-0.00088119507,-0.00037002563,-0.00074768066,-0.0009765625,-0.0013275146,-0.001121521,-0.0005760193,-0.0017852783,-0.0019683838,-0.0021209717,-0.002090454,-0.0015792847,-0.001953125,-0.0011672974,-0.0015182495,-0.0013122559,-0.00076293945,-0.0019683838,-0.002166748,-0.002319336,-0.0022735596,-0.0017700195,-0.0021362305,-0.0013198853,-0.0016708374,-0.0014648438,-0.00091552734,-0.0021209717,-0.002319336,-0.0024719238,-0.0024261475,-0.0019226074,-0.0022888184,-0.0012817383,-0.0016403198,-0.0014343262,-0.00088119507,-0.002090454,-0.0022735596,-0.0024261475,-0.0023956299,-0.0018844604,-0.0022583008,-0.00077438354,-0.001121521,-0.00091934204,-0.00037002563,-0.0015792847,-0.0017700195,-0.0019226074,-0.0018844604,-0.001373291,-0.0017471313,-0.0011520386,-0.0015029907,-0.0012969971,-0.00074768066,-0.001953125,-0.0021362305,-0.0022888184,-0.0022583008,-0.0017471313,-0.0021209717
penguin,0.0029296875,0.0053710938,0.0036621094,0.004760742,0.004272461,0.005493164,-0.0007324219,-0.0007324219,-0.00048828125,0.0010986328,0.0029296875,0.0041503906,0.0032958984,0.0037841797,0.0036010742,0.004211426,0.0010986328,0.0010986328,0.0012207031,0.0020141602,0.0041503906,0.0053710938,0.0045166016,0.005004883,0.0048217773,0.005432129,0.002319336,0.002319336,0.0024414062,0.0032348633,0.0032958984,0.0045166016,0.0036621094,0.0041503906,0.003967285,0.0045776367,0.0014648438,0.0014648438,0.0015869141,0.002380371,0.0037841797,0.005004883,0.0041503906,0.004638672,0.0044555664,0.005065918,0.001953125,0.001953125,0.0020751953,0.0028686523,0.0036010742,0.0048217773,0.003967285,0.0044555664,0.004272461,0.0048828125,0.0017700195,0.0017700195,0.0018920898,0.0026855469,0.004211426,0.005432129,0.0045776367,0.005065918,0.0048828125,0.005493164,0.002380371,0.002380371,0.0025024414,0.0032958984,0.0010986328,0.002319336,0.0014648438,0.001953125,0.0017700195,0.002380371,-0.0007324219,-0.0007324219,-0.00061035156,0.00018310547,0.0010986328,0.002319336,0.0014648438,0.001953125,0.0017700195,0.002380371,-0.0007324219,-0.0007324219,-0.00061035156,0.00018310547,0.0012207031,0.0024414062,0.0015869141,0.0020751953,0.0018920898,0.0025024414,-0.00061035156,-0.00061035156,-0.00048828125,0.00030517578,0.0020141602,0.0032348633,0.002380371,0.0028686523,0.0026855469,0.0032958984,0.00018310547,0.00018310547,0.00030517578,0.0010986328,0.0029296875,0.0037384033,0.0031738281,0.003540039,0.0033721924,0.0037841797,0.0017089844,0.0017089844,0.0017929077,0.002319336,0.0037384033,0.004547119,0.0039978027,0.0043640137,0.004180908,0.0046081543,0.0025177002,0.0025177002,0.002609253,0.0031280518,0.0031738281,0.0039978027,0.0034179688,0.0037841797,0.003616333,0.0040283203,0.001953125,0.001953125,0.002029419,0.0025634766,0.003540039,0.0043640137,0.0037841797,0.0041503906,0.0039978027,0.0043945312,0.002319336,0.002319336,0.0023956299,0.0029296875,0.0033721924,0.004180908,0.003616333,0.0039978027,0.003829956,0.0042419434,0.0021514893,0.0021514893,0.002243042,0.0027618408,0.0037841797,0.0046081543,0.0040283203,0.0043945312,0.0042419434,0.004638672,0.0025634766,0.0025634766,0.0026397705,0.0031738281,0.0017089844,0.0025177002,0.001953125,0.002319336,0.0021514893,0.0025634766,0.00048828125,0.00048828125,0.0005683899,0.0010986328,0.0017089844,0.0025177002,0.001953125,0.002319336,0.0021514893,0.0025634766,0.00048828125,0.00048828125,0.0005683899,0.0010986328,0.0017929077,0.002609253,0.002029419,0.0023956299,0.002243042,0.0026397705,0.0005683899,0.0005683899,0.00065231323,0.0011825562,0.002319336,0.0031280518,0.0025634766,0.0029296875,0.0027618408,0.0031738281,0.0010986328,0.0010986328,0.0011825562,0.0017089844,0.0037384033,0.004547119,0.0039978027,0.0043640137,0.004180908,0.0046081543,0.0025177002,0.0025177002,0.002609253,0.0031280518,0.004547119,0.0053710938,0.0047912598,0.0051574707,0.005004883,0.0054016113,0.0033416748,0.0033416748,0.0034179688,0.0039367676,0.0039978027,0.0047912598,0.0042419434,0.0046081543,0.004425049,0.004852295,0.0027618408,0.0027618408,0.0028533936,0.0033721924,0.0043640137,0.0051574707,0.0046081543,0.0049743652,0.0047912598,0.005218506,0.0031280518,0.0031280518,0.0032196045,0.0037384033,0.004180908,0.005004883,0.004425049,0.0047912598,0.004638672,0.0050354004,0.0029754639,0.0029754639,0.0030517578,0.0035858154,0.0046081543,0.0054016113,0.004852295,0.005218506,0.0050354004,0.0054626465,0.0033721924,0.0033721924,0.0034637451,0.0039978027,0.0025177002,0.0033416748,0.0027618408,0.0031280518,0.0029754639,0.0033721924,0.0013046265,0.0013046265,0.0013809204,0.001914978,0.0025177002,0.0033416748,0.0027618408,0.0031280518,0.0029754639,0.0033721924,0.0013046265,0.0013046265,0.0013809204,0.001914978,0.002609253,0.0034179688,0.0028533936,0.0032196045,0.0030517578,0.0034637451,0.0013809204,0.0013809204,0.0014648438,0.0019989014,0.0031280518,0.0039367676,0.0033721924,0.0037384033,0.0035858154,0.0039978027,0.001914978,0.001914978,0.0019989014,0.0025177002,0.0031738281,0.0039978027,0.0034179688,0.0037841797,0.003616333,0.0040283203,0.001953125,0.001953125,0.002029419,0.0025634766,0.0039978027,0.0047912598,0.0042419434,0.0046081543,0.004425049,0.004852295,0.0027618408,0.0027618408,0.0028533936,0.0033721924,0.0034179688,0.0042419434,0.0036621094,0.0040283203,0.0038604736,0.004272461,0.0021972656,0.0021972656,0.0022735596,0.0028076172,0.0037841797,0.0046081543,0.0040283203,0.0043945312,0.0042419434,0.004638672,0.0025634766,0.0025634766,0.0026397705,0.0031738281,0.003616333,0.004425049,0.0038604736,0.0042419434,0.004058838,0.004486084,0.0023956299,0.0023956299,0.0024871826,0.0030059814,0.0040283203,0.004852295,0.004272461,0.004638672,0.004486084,0.0048828125,0.0028076172,0.0028076172,0.0028839111,0.0034179688,0.001953125,0.0027618408,0.0021972656,0.0025634766,0.0023956299,0.0028076172,0.0007324219,0.0007324219,0.0008125305,0.0013427734,0.001953125,0.0027618408,0.0021972656,0.0025634766,0.0023956299,0.0028076172,0.0007324219,0.0007324219,0.0008125305,0.0013427734,0.002029419,0.0028533936,0.0022735596,0.0026397705,0.0024871826,0.0028839111,0.0008125305,0.0008125305,0.00089645386,0.0014266968,0.0025634766,0.0033721924,0.0028076172,0.0031738281,0.0030059814,0.0034179688,0.0013427734,0.0013427734,0.0014266968,0.001953125,0.003540039,0.0043640137,0.0037841797,0.0041503906,0.0039978027,0.0043945312,0.002319336,0.002319336,0.0023956299,0.0029296875,0.0043640137,0.0051574707,0.0046081543,0.0049743652,0.0047912598,0.005218506,0.0031280518,0.0031280518,0.0032196045,0.0037384033,0.0037841797,0.0046081543,0.0040283203,0.0043945312,0.0042419434,0.004638672,0.0025634766,0.0025634766,0.0026397705,0.0031738281,0.0041503906,0.0049743652,0.0043945312,0.004760742,0.0046081543,0.005004883,0.0029296875,0.0029296875,0.0030059814,0.003540039,0.0039978027,0.0047912598,0.0042419434,0.0046081543,0.004425049,0.004852295,0.0027618408,0.0027618408,0.0028533936,0.0033721924,0.0043945312,0.005218506,0.004638672,0.005004883,0.004852295,0.0052490234,0.0031738281,0.0031738281,0.003250122,0.0037841797,0.002319336,0.0031280518,0.0025634766,0.0029296875,0.0027618408,0.0031738281,0.0010986328,0.0010986328,0.0011825562,0.0017089844,0.002319336,0.0031280518,0.0025634766,0.0029296875,0.0027618408,0.0031738281,0.0010986328,0.0010986328,0.0011825562,0.0017089844,0.0023956299,0.0032196045,0.0026397705,0.0030059814,0.0028533936,0.003250122,0.0011825562,0.0011825562,0.0012588501,0.0017929077,0.0029296875,0.0037384033,0.0031738281,0.003540039,0.0033721924,0.0037841797,0.0017089844,0.0017089844,0.0017929077,0.002319336,0.0033721924,0.004180908,0.003616333,0.0039978027,0.003829956,0.0042419434,0.0021514893,0.0021514893,0.002243042,0.0027618408,0.004180908,0.005004883,0.004425049,0.0047912598,0.004638672,0.0050354004,0.0029754639,0.0029754639,0.0030517578,0.0035858154,0.003616333,0.004425049,0.0038604736,0.0042419434,0.004058838,0.004486084,0.0023956299,0.0023956299,0.0024871826,0.0030059814,0.0039978027,0.0047912598,0.0042419434,0.0046081543,0.004425049,0.004852295,0.0027618408,0.0027618408,0.0028533936,0.0033721924,0.003829956,0.004638672,0.004058838,0.004425049,0.004272461,0.0046691895,0.002609253,0.002609253,0.0026855469,0.0032196045,0.0042419434,0.0050354004,0.004486084,0.004852295,0.0046691895,0.0050964355,0.0030059814,0.0030059814,0.0030975342,0.003616333,0.0021514893,0.0029754639,0.0023956299,0.0027618408,0.002609253,0.0030059814,0.00093460083,0.00093460083,0.0010147095,0.0015487671,0.0021514893,0.0029754639,0.0023956299,0.0027618408,0.002609253,0.0030059814,0.00093460083,0.00093460083,0.0010147095,0.0015487671,0.002243042,0.0030517578,0.0024871826,0.0028533936,0.0026855469,0.0030975342,0.0010147095,0.0010147095,0.0010986328,0.001625061,0.0027618408,0.0035858154,0.0030059814,0.0033721924,0.0032196045,0.003616333,0.0015487671,0.0015487671,0.001625061,0.0021514893,0.0037841797,0.0046081543,0.0040283203,0.0043945312,0.0042419434,0.004638672,0.0025634766,0.0025634766,0.0026397705,0.0031738281,0.0046081543,0.0054016113,0.004852295,0.005218506,0.0050354004,0.0054626465,0.0033721924,0.0033721924,0.0034637451,0.0039978027,0.0040283203,0.004852295,0.004272461,0.004638672,0.004486084,0.0048828125,0.0028076172,0.0028076172,0.0028839111,0.0034179688,0.0043945312,0.005218506,0.004638672,0.005004883,0.004852295,0.0052490234,0.0031738281,0.0031738281,0.003250122,0.0037841797,0.0042419434,0.0050354004,0.004486084,0.004852295,0.0046691895,0.0050964355,0.0030059814,0.0030059814,0.0030975342,0.003616333,0.004638672,0.0054626465,0.0048828125,0.0052490234,0.0050964355,0.005493164,0.0034179688,0.0034179688,0.0034942627,0.0040283203,0.0025634766,0.0033721924,0.0028076172,0.0031738281,0.0030059814,0.0034179688,0.0013427734,0.0013427734,0.0014266968,0.001953125,0.0025634766,0.0033721924,0.0028076172,0.0031738281,0.0030059814,0.0034179688,0.0013427734,0.0013427734,0.0014266968,0.001953125,0.0026397705,0.0034637451,0.0028839111,0.003250122,0.0030975342,0.0034942627,0.0014266968,0.0014266968,0.0015029907,0.002029419,0.0031738281,0.0039978027,0.0034179688,0.0037841797,0.003616333,0.0040283203,0.001953125,0.001953125,0.002029419,0.0025634766,0.0017089844,0.0025177002,0.001953125,0.002319336,0.0021514893,0.0025634766,0.00048828125,0.00048828125,0.0005683899,0.0010986328,0.0025177002,0.0033416748,0.0027618408,0.0031280518,0.0029754639,0.0033721924,0.0013046265,0.0013046265,0.0013809204,0.001914978,0.001953125,0.0027618408,0.0021972656,0.0025634766,0.0023956299,0.0028076172,0.0007324219,0.0007324219,0.0008125305,0.0013427734,0.002319336,0.0031280518,0.0025634766,0.0029296875,0.0027618408,0.0031738281,0.0010986328,0.0010986328,0.0011825562,0.0017089844,0.0021514893,0.0029754639,0.0023956299,0.0027618408,0.002609253,0.0030059814,0.00093460083,0.00093460083,0.0010147095,0.0015487671,0.0025634766,0.0033721924,0.0028076172,0.0031738281,0.0030059814,0.0034179688,0.0013427734,0.0013427734,0.0014266968,0.001953125,0.00048828125,0.0013046265,0.0007324219,0.0010986328,0.00093460083,0.0013427734,-0.0007324219,-0.0007324219,-0.00065231323,-0.00012207031,0.00048828125,0.0013046265,0.0007324219,0.0010986328,0.00093460083,0.0013427734,-0.0007324219,-0.0007324219,-0.00065231323,-0.00012207031,0.0005683899,0.0013809204,0.0008125305,0.0011825562,0.0010147095,0.0014266968,-0.00065231323,-0.00065231323,-0.0005683899,-4.0769577e-05,0.0010986328,0.001914978,0.0013427734,0.0017089844,0.0015487671,0.001953125,-0.00012207031,-0.00012207031,-4.0769577e-05,0.00048828125,0.0017089844,0.0025177002,0.001953125,0.002319336,0.0021514893,0.0025634766,0.00048828125,0.00048828125,0.0005683899,0.0010986328,0.0025177002,0.0033416748,0.0027618408,0.0031280518,0.0029754639,0.0033721924,0.0013046265,0.0013046265,0.0013809204,0.001914978,0.001953125,0.0027618408,0.0021972656,0.0025634766,0.0023956299,0.0028076172,0.0007324219,0.0007324219,0.0008125305,0.0013427734,0.002319336,0.0031280518,0.0025634766,0.0029296875,0.0027618408,0.0031738281,0.0010986328,0.0010986328,0.0011825562,0.0017089844,0.0021514893,0.0029754639,0.0023956299,0.0027618408,0.002609253,0.0030059814,0.00093460083,0.00093460083,0.0010147095,0.0015487671,0.0025634766,0.0033721924,0.0028076172,0.0031738281,0.0030059814,0.0034179688,0.0013427734,0.0013427734,0.0014266968,0.001953125,0.00048828125,0.0013046265,0.0007324219,0.0010986328,0.00093460083,0.0013427734,-0.0007324219,-0.0007324219,-0.00065231323,-0.00012207031,0.00048828125,0.0013046265,0.0007324219,0.0010986328,0.00093460083,0.0013427734,-0.0007324219,-0.0007324219,-0.00065231323,-0.00012207031,0.0005683899,0.0013809204,0.0008125305,0.0011825562,0.0010147095,0.0014266968,-0.00065231323,-0.00065231323,-0.0005683899,-4.0769577e-05,0.0010986328,0.001914978,0.0013427734,0.0017089844,0.0015487671,0.001953125,-0.00012207031,-0.00012207031,-4.0769577e-05,0.00048828125,0.0017929077,0.002609253,0.002029419,0.0023956299,0.002243042,0.0026397705,0.0005683899,0.0005683899,0.00065231323,0.0011825562,0.002609253,0.0034179688,0.0028533936,0.0032196045,0.0030517578,0.0034637451,0.0013809204,0.0013809204,0.0014648438,0.0019989014,0.002029419,0.0028533936,0.0022735596,0.0026397705,0.0024871826,0.0028839111,0.0008125305,0.0008125305,0.00089645386,0.0014266968,0.0023956299,0.0032196045,0.0026397705,0.0030059814,0.0028533936,0.003250122,0.0011825562,0.0011825562,0.0012588501,0.0017929077,0.002243042,0.0030517578,0.0024871826,0.0028533936,0.0026855469,0.0030975342,0.0010147095,0.0010147095,0.0010986328,0.001625061,0.0026397705,0.0034637451,0.0028839111,0.003250122,0.0030975342,0.0034942627,0.0014266968,0.0014266968,0.0015029907,0.002029419,0.0005683899,0.0013809204,0.0008125305,0.0011825562,0.0010147095,0.0014266968,-0.00065231323,-0.00065231323,-0.0005683899,-4.0769577e-05,0.0005683899,0.0013809204,0.0008125305,0.0011825562,0.0010147095,0.0014266968,-0.00065231323,-0.00065231323,-0.0005683899,-4.0769577e-05,0.00065231323,0.0014648438,0.00089645386,0.0012588501,0.0010986328,0.0015029907,-0.0005683899,-0.0005683899,-0.00048828125,4.0769577e-05,0.0011825562,0.0019989014,0.0014266968,0.0017929077,0.001625061,0.002029419,-4.0769577e-05,-4.0769577e-05,4.0769577e-05,0.0005683899,0.002319336,0.0031280518,0.0025634766,0.0029296875,0.0027618408,0.0031738281,0.0010986328,0.0010986328,0.0011825562,0.0017089844,0.0031280518,0.0039367676,0.0033721924,0.0037384033,0.0035858154,0.0039978027,0.001914978,0.001914978,0.0019989014,0.0025177002,0.0025634766,0.0033721924,0.0028076172,0.0031738281,0.0030059814,0.0034179688,0.0013427734,0.0013427734,0.0014266968,0.001953125,0.0029296875,0.0037384033,0.0031738281,0.003540039,0.0033721924,0.0037841797,0.0017089844,0.0017089844,0.0017929077,0.002319336,0.0027618408,0.0035858154,0.0030059814,0.0033721924,0.0032196045,0.003616333,0.0015487671,0.0015487671,0.001625061,0.0021514893,0.0031738281,0.0039978027,0.0034179688,0.0037841797,0.003616333,0.0040283203,0.001953125,0.001953125,0.002029419,0.0025634766,0.0010986328,0.001914978,0.0013427734,0.0017089844,0.0015487671,0.001953125,-0.00012207031,-0.00012207031,-4.0769577e-05,0.00048828125,0.0010986328,0.001914978,0.0013427734,0.0017089844,0.0015487671,0.001953125,-0.00012207031,-0.00012207031,-4.0769577e-05,0.00048828125,0.0011825562,0.0019989014,0.0014266968,0.0017929077,0.001625061,0.002029419,-4.0769577e-05,-4.0769577e-05,4.0769577e-05,0.0005683899,0.0017089844,0.0025177002,0.001953125,0.002319336,0.0021514893,0.0025634766,0.00048828125,0.00048828125,0.0005683899,0.0010986328
